tree
version=v4
num_class=1
num_tree_per_iteration=1
label_index=0
max_feature_idx=22
objective=binary sigmoid:1
feature_names=hit_rate_lifetime hit_rate_recent momentum avg_freq recency n_samples_lifetime kalshi_odds hit_rate_word_global hit_rate_word_in_event_type hit_rate_speaker_event_type hit_rate_credibility event_type_prior word_rank market_vs_history market_vs_word_prior days_since_last_event events_in_last_30d topic_match rel_max rel_mean rel_top3_mean rel_count_hi rel_n
feature_infos=[0.015384615384615385:1] [0.015384615384615385:1] [-0.96153846153846156:0.88135593220338981] [0.046153846153846156:107.07317073170732] [0.25519999999999998:0.99999997912883587] [2:201] [0.044105360616486677:0.95991210182955422] [0.17049108447822275:0.69397937687105005] [0.065573494030085666:0.7426211331633219] [0.065573494030085666:0.7426211331633219] [0.11559482276717356:0.90711967158924811] [0.37614136196182479:0.60247219440198196] [1:999] [-0.93745734106261858:0.83461538461538454] [-0.53596262057877808:0.57488569131832801] [1:139] [0:17] [0.0026121539995074272:0.8154754638671875] [0.1164:0.92689999999999995] [0.1164:0.76670000000000005] [0.1164:0.79310000000000003] [1:15] [1:20]
tree_sizes=997 990 995 993 993 994 999 994 997 1007 1005 1006 1000 1002 995 1002 999 1001 1013 1008 1004 903 1005 1002 1001 1008 1002 991 1003 1002 997 1002 998 1013 996 1008 1014 1009 996 1012 1002 1005 1008 1006 1004 1003 998 1000 1000 798 1005 1000 1013 1002 995 997 1001 1003 1015 1001 1003 1009 997 1003 1010 1010 1002 999 1005 1004 1004 1002 908 1006 1014 1010 1004 1010 1014 1002 987 1004 1010 1008 1002 1006 1016 1006 1004 998 994 1008 904 1007 1000 1004 1006 1008 1009 1006 1007 1020 1009 999 1005 993 1007 913 1008 1012 998 1016 692 1008 1013 1004 995 997 684 1006 1012 1002 581 1008 1018 797 1021 1012 904 1010 1011 1013 1008 1014 1000 1003 1016 1008 1007 1004 1003 801 997 1005 1015 1002 1015 1004 1015 1017 1014 1013 1003 1017 1007 1001 1006 999 1003 899 1014 907 1003 1008 1011 1019 1017 1001 1005 1018 903 1004 1027 1014 906 997 902 904 1011 1005 1015 1016 1013 1016 1015 998 1009 1006 1016 1004 1016 895 1003 1023 1014 1021 1010 1004 1019 1013 1015 1007 1009 1006 1006 1007 1008 1004 1009 1005 1016 998 1003 1016 1025 1005 1020 1013 1012 1011 895 1000 1009 1003 1023 1023 1022 1015 1011 1007 987 909 1017 1023 1005 997 786 1019 1002 999 896 1013 1006 1014 1014 1019 1003 1006 1011 909 1014 798 1012 894 905 1024 1022 997 1002 1004 1004 1014 998 1015 1021 1006 1016 1009 1001 1003 1003 1017 914 997 1011 1019 1003 1008 1003 782 996 1003 1032 1006 1025 1014 1020 907 1016 1006 1011 689 1007 1013 1018 1016 1016 914 912 896 1019 1013 1022 917 999 996 1012 1001 1006 797 995 1019 1020 909 897 995 909 1000 1020 1000 1014 900 1000 997 1005 997 1010 1017 1022 1019 1000 1000 994 1024 1031 693 1017 789 1018 1007 1004 901 1019 1011 990 1012 999 1004 1002 1015 1018 1001 994 1022 997 1000 1016 1023 1013 912 1020 694 796 895 1028 1001 998 1026 992 1010 1022 1003 998 1014 1015 1025 1006 1020 791 901 1023 1004 1017 1017 995 1001 1017 1020 1018 1012 1019 1002 899 915 1028 688 700 892 1011 1012

Tree=0
num_leaves=8
num_cat=0
split_feature=8 8 8 13 14 14 15
split_gain=81.5021 30.385 70.0412 22.5352 17.8126 5.57204 5.37157
threshold=0.51821038132157171 0.30428704842065452 0.46481979715787719 0.23735454545454548 0.16783584747457661 -0.017321102090918358 11.500000000000002
decision_type=2 2 2 8 8 8 8
left_child=1 -1 3 -3 -4 6 -2
right_child=5 2 4 -5 -6 -7 -8
leaf_value=-0.071164629369298071 -0.043727370342007528 -0.060014364336012649 -0.040322663732800759 -0.041339116022018021 -0.018862737657665146 -0.020644597229836168 -0.024136032911684601
leaf_weight=16.477794194594026 9.6216670945286769 73.206632155925035 25.319988237693906 23.820500230416656 21.523038329556584 33.176029486581683 7.7975309919565907
leaf_count=140 95 409 148 184 117 233 20
internal_value=-0.0437498 -0.0496608 -0.0470474 -0.0553338 -0.0301425 -0.0250038 -0.0341151
internal_weight=210.943 160.348 143.87 97.0271 46.843 50.5952 17.4192
internal_count=1346 998 858 593 265 348 115
is_linear=0
shrinkage=0.212936


Tree=1
num_leaves=8
num_cat=0
split_feature=8 9 13 15 20 9 20
split_gain=152.127 17.6721 8.84974 7.95667 7.3901 4.83366 4.80506
threshold=0.43362305734190792 0.49099491512749577 0.13834166666666667 21.000000000000004 0.7228500000000001 0.36588605767367427 0.39715000000000006
decision_type=2 2 10 8 8 2 10
left_child=2 4 5 -4 -2 -1 -3
right_child=1 6 3 -5 -6 -7 -8
leaf_value=-0.025232590532360832 0.01325016201947516 0.014629008177041984 0.00037269917727089495 -0.023475548116723085 -0.000751849181271247 -0.014392647105177497 0.02544094482054212
leaf_weight=32.141303826123476 17.041514933109283 43.597961636260152 14.117422230541708 4.8240534551441661 26.820410380139947 33.471785873174667 25.410018384456635
leaf_count=222 23 423 133 23 229 206 34
internal_value=0.000379913 0.0134449 -0.016932 -0.00579004 0.00460595 -0.0199798 0.0188844
internal_weight=197.424 112.87 84.5546 18.9415 43.8619 65.6131 69.008
internal_count=1293 709 584 156 252 428 457
is_linear=0
shrinkage=0.017184


Tree=2
num_leaves=8
num_cat=0
split_feature=9 6 20 6 6 6 18
split_gain=158.392 13.3701 11.2603 8.38346 18.586 4.57896 4.43087
threshold=0.43846489675642025 0.36060000000000009 0.77985000000000004 0.47360000000000008 0.62547500000000011 0.76505000000000012 0.69950000000000012
decision_type=2 8 8 8 10 8 8
left_child=3 2 -2 -1 6 -3 -5
right_child=1 5 -4 4 -6 -7 -8
leaf_value=-0.026040346572892673 0.014275788476631069 0.014839496459554581 -0.014391370422165529 -0.029960221118062166 0.0033285454689552033 0.025295579301095217 -0.011397011075893899
leaf_weight=46.134159106761217 11.192813336849211 58.406059466302395 9.5307646971195954 16.169977359473709 16.561798056587577 34.263381458818913 11.938756380230187
leaf_count=335 15 387 94 42 128 200 131
internal_value=-5.66294e-05 0.0156714 0.000640274 -0.0197819 -0.0129143 0.0189274 -0.0227262
internal_weight=204.198 113.393 20.7236 90.8047 44.6705 92.6694 28.1087
internal_count=1332 696 109 636 301 587 173
is_linear=0
shrinkage=0.0200696


Tree=3
num_leaves=8
num_cat=0
split_feature=9 6 0 15 10 10 21
split_gain=61.1369 40.5415 12.3653 5.04784 4.33062 3.49051 2.64619
threshold=0.55336066405070217 0.56981218119299371 0.51470805617147075 8.5000000000000018 0.47549449478709932 0.59120918059561267 2.5000000000000004
decision_type=2 8 2 8 2 2 10
left_child=1 6 4 -2 -3 -4 -1
right_child=3 2 5 -5 -6 -7 -8
leaf_value=-0.010869386701779209 0.014253629027840902 0.00050112366400121493 0.024314193100177274 0.0311805337894763 -0.0174087857382021 0.008807360484726745 -0.019691514007944035
leaf_weight=39.394945073872805 21.215849803760648 33.898292882367969 12.357352031394838 21.097876803949475 6.8524110056459895 23.874371914193034 47.768242904916406
leaf_count=190 223 284 115 74 25 73 399
internal_value=0.000124588 -0.00581047 0.00549858 0.0231697 -0.00242853 0.0146416 -0.0159026
internal_weight=206.459 164.146 76.9824 42.3137 40.7507 36.2317 87.1632
internal_count=1383 1086 497 297 309 188 589
is_linear=0
shrinkage=0.0216382


Tree=4
num_leaves=8
num_cat=0
split_feature=8 8 6 6 6 6 6
split_gain=127.387 16.4458 30.7518 5.66634 7.34662 1.78174 1.55048
threshold=0.38391206938830297 0.53358923955434279 0.71220000000000006 0.77705006361333717 0.51830000000000009 0.44492500000000007 0.41145000000000004
decision_type=2 2 8 8 10 10 10
left_child=-1 2 6 4 -3 -4 -2
right_child=1 3 5 -5 -6 -7 -8
leaf_value=-0.022894353322835407 -0.0051095901753895577 0.00015454402087231107 0.0097248451843769436 0.02856276808928809 0.019219250422820161 0.020350136392855309 -4.2243966769841548e-06
leaf_weight=53.61588497646153 30.160883540287614 10.372319344431164 12.406953485682605 11.655813632532952 18.04260816052556 24.986046198755503 39.196537187322974
leaf_count=379 192 84 69 99 123 128 262
internal_value=-4.52621e-05 0.00829646 0.00458249 0.0178021 0.0126814 0.0171902 -0.00217556
internal_weight=200.437 146.821 106.75 40.0707 28.4149 37.393 69.3574
internal_count=1336 957 651 306 207 197 454
is_linear=0
shrinkage=0.017406


Tree=5
num_leaves=8
num_cat=0
split_feature=6 8 8 22 8 0 21
split_gain=61.9503 43.4393 16.6516 13.4566 19.6875 16.0118 5.97368
threshold=0.54915000000000003 0.43846489675642025 0.30034629933000218 4.5000000000000009 0.4458089018677211 0.90049504950495063 4.5000000000000009
decision_type=8 2 2 10 2 2 10
left_child=1 -1 -2 5 -5 -4 -3
right_child=2 6 3 4 -6 -7 -8
leaf_value=-0.022301564346455815 -0.021195622832626701 0.0090267598472229642 -0.0061879786046641462 5.2299121403246019e-05 0.021153136606398018 0.029031311694487142 -0.0043817050736739659
leaf_weight=49.928601512685418 4.7813537735491982 22.558532824739814 22.709690036252145 21.377222107723355 52.819650061428547 4.6049996931105843 19.631193678826094
leaf_count=356 34 101 161 167 329 16 163
internal_value=2.72135e-05 -0.0108487 0.00954587 0.01121 0.015219 3.08817e-05 0.0025714
internal_weight=198.411 92.1183 106.293 101.512 74.1969 27.3147 42.1897
internal_count=1327 620 707 673 496 177 264
is_linear=0
shrinkage=0.0182632


Tree=6
num_leaves=8
num_cat=0
split_feature=9 2 21 7 10 7 3
split_gain=70.1601 8.44255 4.28384 8.0011 4.09979 3.44593 3.10725
threshold=0.50106099447627261 -1.0000000180025095e-35 6.5000000000000009 0.39337840124775308 0.49859335195263449 0.47621309558608599 0.56050000000000011
decision_type=2 2 8 2 2 2 2
left_child=1 4 -3 -4 5 -1 -2
right_child=6 2 3 -5 -6 -7 -8
leaf_value=-0.006568158815303227 0.00023429687265130058 -0.014124518454566188 -0.015860065841659204 -0.0016527203847891748 0.009963107406199349 0.007819592854536218 0.015794879709002157
leaf_weight=21.673091072589163 5.01543990895152 40.810593014582992 18.280043935403228 42.534985033795238 9.6374901439994556 5.7748723104596129 66.122137015685439
leaf_count=145 58 214 175 306 44 21 386
internal_value=0.000445432 -0.00686291 -0.00950516 -0.00617219 0.000147123 -0.00310253 0.0147607
internal_weight=209.849 138.711 101.626 60.815 37.0855 27.448 71.1376
internal_count=1349 905 695 481 210 166 444
is_linear=0
shrinkage=0.0177739


Tree=7
num_leaves=8
num_cat=0
split_feature=8 14 9 5 6 15 5
split_gain=58.8879 33.4045 18.194 5.83355 5.49666 8.34884 4.80729
threshold=0.49558983118971062 0.16783584747457661 0.41391473188954042 39.500000000000007 0.59342500000000009 10.500000000000002 14.500000000000002
decision_type=2 10 2 2 8 8 2
left_child=1 2 -1 6 5 -2 -3
right_child=4 3 -4 -5 -6 -7 -8
leaf_value=-0.02547916914532717 -0.0031860597540553743 -0.0040798673277122255 -0.0055522099429952667 0.017706308596261853 0.023109416994835697 0.020759638074421667 0.016906162077970879
leaf_weight=48.095950976014137 12.775773746892812 21.153995227068666 44.055443976074457 15.342831436544655 34.935599327087402 12.926424805074928 6.2418761961162081
leaf_count=365 125 172 255 64 257 38 32
internal_value=-0.000565727 -0.00869377 -0.0161453 0.00709063 0.0172469 0.00862943 0.000573001
internal_weight=195.528 134.89 92.1514 42.7387 60.6378 25.7022 27.3959
internal_count=1308 888 620 268 420 163 204
is_linear=0
shrinkage=0.0219657


Tree=8
num_leaves=8
num_cat=0
split_feature=9 6 6 20 3 16 10
split_gain=49.3318 27.8098 13.3633 8.59744 2.3471 0.841432 0.401499
threshold=0.47331820187882229 0.71220000000000006 0.59342500000000009 0.5968500000000001 2.3038461538461541 7.5000000000000009 0.5473758736826968
decision_type=2 8 8 8 2 2 2
left_child=1 -1 3 -2 5 -3 -5
right_child=2 4 -4 6 -6 -7 -8
leaf_value=-0.0092567708934373442 0.012120940489315246 0.0038440146156057432 0.013604117854005077 -0.0030551194285176994 0.0098154017695276218 -0.00091761094945732138 -1.0732316247276427e-05
leaf_weight=86.396033119410276 10.348013758659361 14.532421143725516 40.193384321406484 15.494178025051953 11.071948669850824 7.8829202726483336 10.080092540010808
leaf_count=597 14 98 317 139 26 75 66
internal_value=1.5965e-06 -0.00526311 0.0083575 0.00221725 0.00480475 0.00190399 -0.0017279
internal_weight=195.999 119.883 76.1157 35.9223 33.4873 22.4153 25.5743
internal_count=1332 796 536 219 199 173 205
is_linear=0
shrinkage=0.0132803


Tree=9
num_leaves=8
num_cat=0
split_feature=0 6 9 14 21 5 3
split_gain=38.9062 13.6277 21.6541 6.85162 5.97235 5.93088 4.68445
threshold=0.56620000000000015 0.70027500000000009 0.43362305734190792 0.021569021607977915 1.5000000000000002 24.500000000000004 0.49075000000000008
decision_type=2 10 2 8 10 2 2
left_child=1 2 6 4 -2 -5 -1
right_child=3 -3 -4 5 -6 -7 -8
leaf_value=-0.0057143132796504533 0.012159765726351085 0.0054435976782648034 -0.00039338979103162411 0.014169990095940043 -0.0018686784951055212 0.0052629239999002798 -0.014389651014976614
leaf_weight=17.394605210050941 4.9671155028045204 15.704956933856009 48.676885714754462 19.451780581846833 21.325593117624521 35.611639289185405 36.229689871892333
leaf_count=191 32 138 297 151 139 155 264
internal_value=-0.000275575 -0.00477926 -0.00643592 0.00616984 0.000775937 0.00861851 -0.0117567
internal_weight=199.362 118.006 102.301 81.3561 26.2927 55.0634 53.6243
internal_count=1367 890 752 477 171 306 455
is_linear=0
shrinkage=0.0122272


Tree=10
num_leaves=8
num_cat=0
split_feature=8 6 8 8 17 15 19
split_gain=23.9621 17.1165 7.72733 19.1858 6.15086 4.45905 3.30241
threshold=0.52593487942999406 0.53089160226083409 0.33702183933328028 0.40288962596036559 0.25198709964752203 6.5000000000000009 0.4542000000000001
decision_type=2 8 2 2 8 8 10
left_child=1 2 -1 -4 -3 -6 -2
right_child=6 4 3 -5 5 -7 -8
leaf_value=-0.014407080408664234 0.014138758581916424 0.0060789350138681615 -0.014654115863079459 0.00056308935761141727 0.0034186004451044619 -0.0044125901250723146 0.0055481100604346679
leaf_weight=15.913243221119044 13.482078474014996 32.086193652823567 18.579355229623616 40.300145911052823 19.038061443716288 26.718793954700232 25.628927441313863
leaf_count=160 91 203 110 245 204 110 216
internal_value=7.76438e-07 -0.00223643 -0.00655887 -0.00422606 0.00184929 -0.00100921 0.00879749
internal_weight=191.747 152.636 74.7927 58.8795 77.843 45.7569 39.111
internal_count=1339 1032 515 355 517 314 307
is_linear=0
shrinkage=0.0126652


Tree=11
num_leaves=8
num_cat=0
split_feature=9 14 14 14 15 3 15
split_gain=75.1601 9.68992 10.348 4.34517 2.91457 1.58909 1.02432
threshold=0.44837457396425567 -0.10974477491961411 0.16783584747457661 0.13475964698464346 2.5000000000000004 0.85993717277486914 34.000000000000007
decision_type=2 8 8 8 10 2 8
left_child=3 4 -3 5 -2 -1 -5
right_child=1 2 -4 6 -6 -7 -8
leaf_value=-0.0048369692744720718 0.0023941918751100113 0.0034708326277993876 0.01046463335688996 -0.0018804991019724347 -0.0044105101829411512 -0.0092553688598603252 -0.0053067946047605499
leaf_weight=18.114002361893654 16.280442910268906 37.49668104108423 38.047206142917275 24.275988968089223 6.6621826477348796 31.080950699746609 16.783571574836969
leaf_count=169 63 282 258 264 64 200 35
internal_value=5.00251e-05 0.00553381 0.00709678 -0.00588107 0.000181181 -0.0077801 -0.00344163
internal_weight=188.741 98.4865 75.5439 90.2545 22.9426 49.195 41.0596
internal_count=1335 667 540 668 127 369 299
is_linear=0
shrinkage=0.00906704


Tree=12
num_leaves=8
num_cat=0
split_feature=8 6 22 6 19 0 20
split_gain=34.8323 12.7152 8.32962 5.3676 4.9514 4.19562 2.49889
threshold=0.46992491123795072 0.64000127418860553 2.5000000000000004 0.32380000000000003 0.32010000000000005 0.35712142857142865 0.73060000000000014
decision_type=2 8 8 8 10 2 8
left_child=2 5 -1 -4 -3 -2 -7
right_child=1 4 3 -5 -6 6 -8
leaf_value=-0.018728930785032214 -0.0058084932464197219 0.00022231343554258019 -0.010223757085459457 -0.0022208074641145484 0.014618904295362984 0.0097615313964823716 0.00049637552945124084
leaf_weight=8.7909548282623273 11.762722840532659 6.6218887884169808 23.408779055811465 68.122380739077926 32.435339087620378 9.2477696537971479 18.426556574180726
leaf_count=14 58 72 225 520 236 13 188
internal_value=-0.00027629 0.00669685 -0.00580937 -0.00439219 0.0123632 0.000835995 0.0039593
internal_weight=178.816 78.4943 100.322 91.5312 39.0572 39.437 27.6743
internal_count=1326 567 759 745 308 259 201
is_linear=0
shrinkage=0.0141176


Tree=13
num_leaves=8
num_cat=0
split_feature=8 14 15 17 17 6 14
split_gain=65.9132 14.0972 5.40034 4.63313 5.288 3.23023 2.02139
threshold=0.40856993054173446 0.045453965702036421 16.000000000000004 0.18525714427232745 0.25198709964752203 0.58020000000000016 0.20216214349201375
decision_type=2 8 8 8 10 8 10
left_child=5 2 -2 6 -5 -1 -3
right_child=1 3 -4 4 -6 -7 -8
leaf_value=-0.015539386715115807 -0.0056480039825443345 -0.0011745227832773309 0.002174415541587856 0.014296359188843651 0.0053941784760905545 -0.008159570724357806 0.0062287258800657851
leaf_weight=36.897951008751988 27.88316466845572 14.20775317028165 26.508182702586055 18.510957963764668 36.268615513108671 21.979843283072114 8.4165409225970489
leaf_count=284 282 106 61 101 282 160 51
internal_value=-0.00183547 0.00312304 -0.00172825 0.00660868 0.00862028 -0.0129671 0.00140412
internal_weight=190.673 131.795 54.3913 77.4039 54.7796 58.8778 22.6243
internal_count=1327 883 343 540 383 444 157
is_linear=0
shrinkage=0.0127134


Tree=14
num_leaves=8
num_cat=0
split_feature=8 6 20 17 2 11 15
split_gain=61.0028 11.7698 9.29389 7.21005 5.89678 2.71732 1.05161
threshold=0.38103225304075977 0.48507500000000003 0.55055000000000009 0.14356862753629687 -0.35256410256410248 0.42908181493390501 14.500000000000002
decision_type=2 8 8 10 2 2 8
left_child=5 2 -2 6 -5 -1 -3
right_child=1 3 -4 4 -6 -7 -8
leaf_value=-0.01265791699559138 0.0061369399223122224 0.0096030952794210322 -0.0081632779932500864 0.014370782931013747 0.0016490678075582828 -0.022058535799935268 0.02035554939861306
leaf_weight=25.392352934926748 16.196256518363953 11.999480647966267 32.975562162697315 10.655961625277994 62.310177961364388 23.714489426463842 8.021125026047228
leaf_count=317 22 117 295 51 455 61 14
internal_value=-0.00234882 0.00288143 -0.00326292 0.0062218 0.00371157 -0.0175113 0.0146604
internal_weight=191.265 142.159 49.1718 92.9867 72.9661 49.1068 20.0206
internal_count=1332 954 317 637 506 378 131
is_linear=0
shrinkage=0.015878


Tree=15
num_leaves=8
num_cat=0
split_feature=9 0 9 12 20 17 14
split_gain=22.4779 7.46264 20.6331 8.41453 7.77155 2.95575 2.86627
threshold=0.53358923955434279 0.58200000000000018 0.43846489675642025 29.500000000000004 0.73060000000000014 0.41114141047000891 0.12262081152799427
decision_type=2 2 2 2 8 8 10
left_child=1 2 -1 -3 -5 -4 -2
right_child=6 3 5 4 -6 -7 -8
leaf_value=-0.014400292142999378 0.0065597244388486227 -0.0063782890906626801 0.0045942797198762104 0.02253580994158404 0.00016630194065408625 -0.0069531426166958513 0.01842840191513263
leaf_weight=58.243943449109793 28.026629140600562 22.229451570659876 31.849928054958582 7.7628551125526428 13.754086431115867 7.8647406939417115 10.642739390954373
leaf_count=521 205 94 192 11 139 48 98
internal_value=-0.00162376 -0.00495084 -0.00768146 0.000969701 0.00895345 0.00199751 0.0102334
internal_weight=180.374 141.705 97.9586 43.7464 21.5169 39.7147 38.6694
internal_count=1308 1005 761 244 150 240 303
is_linear=0
shrinkage=0.0178099


Tree=16
num_leaves=8
num_cat=0
split_feature=6 19 22 8 14 7 14
split_gain=14.411 16.6042 7.33526 10.3384 7.00938 2.18003 1.84078
threshold=0.47360000000000008 0.43955000000000005 12.500000000000002 0.43362305734190792 0.11016608020633685 0.42553292842681917 0.30731767027185036
decision_type=8 8 10 2 8 2 8
left_child=1 -1 3 -2 -5 6 -4
right_child=2 -3 5 4 -6 -7 -8
leaf_value=0.0099330029599006085 -0.0093822427527613817 -0.011420360695467254 -0.0027291359256201553 -0.0065952111889031129 0.0095978699376977963 0.0106069121477626 0.0088326485961947206
leaf_weight=13.61056078225374 25.094205141067505 53.217260455712676 8.7534924261271936 10.458139277994631 28.864784918725491 37.688411082141101 6.6431381013244382
leaf_count=20 115 487 94 27 124 404 68
internal_value=-0.000286595 -0.00687869 0.00340227 -0.000496665 0.00500126 0.00826319 0.00184877
internal_weight=184.33 66.8278 117.502 64.4171 39.3229 53.085 15.3966
internal_count=1339 507 832 266 151 566 162
is_linear=0
shrinkage=0.017758


Tree=17
num_leaves=8
num_cat=0
split_feature=7 6 15 15 6 6 10
split_gain=13.7318 5.074 4.69208 1.86364 3.32455 6.32263 0.100069
threshold=0.45922115041086109 0.38637636230680722 34.000000000000007 14.500000000000002 0.44492500000000007 0.72384598014946511 0.61655533102397042
decision_type=2 8 8 10 8 8 2
left_child=3 2 -2 4 -1 -6 -3
right_child=1 6 -4 -5 5 -7 -8
leaf_value=-0.01052990070215154 -0.012294168668567536 0.0094034867504624725 0.0062343618548886441 0.0051017384946219092 -0.0083275414896891529 0.0050419993890120944 0.00556316248320493
leaf_weight=38.262838038615882 10.263347601518037 43.950412686914206 9.7078238278627378 5.0836861114948979 32.394976005889475 23.475638333708048 24.346287825144827
leaf_count=299 100 395 17 60 205 165 100
internal_value=-7.83472e-05 0.00559902 -0.00283764 -0.0052328 -0.00593201 -0.00253913 0.00822628
internal_weight=187.485 88.2679 19.9712 99.2171 94.1335 55.8706 68.2967
internal_count=1341 612 117 729 669 370 495
is_linear=0
shrinkage=0.0200502


Tree=18
num_leaves=8
num_cat=0
split_feature=8 13 13 1 15 13 15
split_gain=25.3889 6.81754 3.57102 3.08063 4.26642 2.61245 1.87037
threshold=0.49459124505762037 0.22107142857142861 -0.075298148148148114 0.64291666666666669 9.5000000000000018 -0.14897834314550037 8.5000000000000018
decision_type=2 10 8 2 8 10 10
left_child=1 3 5 6 -5 -2 -1
right_child=2 -3 -4 4 -6 -7 -8
leaf_value=-0.0069787934095120983 0.0036581473055299959 0.0025868164857487798 0.0076545184805262602 -0.0067365032523240085 0.0014726651534560597 -0.0057436851382071221 -0.00066375154119587812
leaf_weight=60.097225458361208 17.136859066784385 20.08138469979167 42.707239702343941 13.467825967818497 21.489407230168581 4.4907974712550631 9.787657054141162
leaf_count=456 140 167 298 136 50 33 103
internal_value=-0.00034438 -0.00348774 0.00564456 -0.00471962 -0.00158523 0.0013503 -0.00618371
internal_weight=189.258 124.924 64.3349 104.842 34.9572 21.6277 69.8849
internal_count=1383 912 471 745 186 173 559
is_linear=0
shrinkage=0.0118665


Tree=19
num_leaves=8
num_cat=0
split_feature=14 9 9 19 22 15 6
split_gain=8.97635 19.7332 14.9323 11.1592 9.42431 3.51447 3.11725
threshold=1.0000000180025095e-35 0.50505710986988872 0.42398099622778085 0.49340000000000006 12.500000000000002 21.000000000000004 0.75495000000000012
decision_type=8 2 2 8 10 8 8
left_child=3 2 4 5 -2 -1 -4
right_child=1 -3 6 -5 -6 -7 -8
leaf_value=-0.0052713683543180855 -0.016749875140386415 0.013408520223527211 0.00015621911998679524 -0.011330434667490223 -7.2059746838338713e-05 0.0069180567873324897 0.0098224262780215923
leaf_weight=9.4971237555146235 22.597301535308361 32.929754265584052 22.394911501556635 40.139903360046446 19.203610602766275 18.646589804440737 19.766921078786254
leaf_count=88 123 264 166 350 209 47 95
internal_value=-0.000589357 0.0022429 -0.00209132 -0.00554143 -0.00936704 0.00245164 0.00493962
internal_weight=185.176 116.892 83.9627 68.2836 41.8009 28.1437 42.1618
internal_count=1342 857 593 485 332 135 261
is_linear=0
shrinkage=0.017159


Tree=20
num_leaves=8
num_cat=0
split_feature=9 0 13 15 2 17 6
split_gain=20.2917 7.25835 8.54353 3.56946 7.93585 2.78224 1.47239
threshold=0.33702183933328028 0.5472785714285715 0.14927499999999999 9.5000000000000018 0.038475905200790035 0.31462591886520391 0.70027500000000009
decision_type=2 2 8 10 2 10 8
left_child=6 2 -2 4 -3 -4 -1
right_child=1 3 5 -5 -6 -7 -8
leaf_value=-0.021126434055866818 -0.0076610146942479524 0.011066960873680219 0.0087131622263798836 0.022455736063549427 -0.003080419613079075 -0.0015657391165187428 -0.0046602374650745555
leaf_weight=18.301211530342702 48.630926569923759 38.459479250013828 26.568518094718456 5.3340544514358035 26.249230736866593 15.381230946630238 4.7555831614881745
leaf_count=185 308 288 181 59 108 140 42
internal_value=-0.000632114 0.00188986 -0.00181948 0.00681117 0.0051914 0.00471546 -0.0182541
internal_weight=183.68 160.623 90.5807 70.0428 64.7087 41.9497 23.0568
internal_count=1311 1084 629 455 396 321 227
is_linear=0
shrinkage=0.0203438


Tree=21
num_leaves=7
num_cat=0
split_feature=8 14 15 14 10 16
split_gain=25.5368 8.68753 7.35216 5.43143 3.40148 0.279609
threshold=0.4627729456380667 -0.091083045641020419 1.0000000180025095e-35 0.2302197649499704 0.39010190545424622 9.5000000000000018
decision_type=2 8 10 8 2 2
left_child=3 2 -2 -1 -5 -3
right_child=1 5 -4 4 -6 -7
leaf_value=-0.0095432195067726485 0.0065738911015381469 0.010024555455342128 -0.011222620006600027 -0.01077356901167888 0.001648009977339821 0.0048880727219072825
leaf_weight=60.560776820406318 11.922263167798521 52.398508775047958 12.538312582299111 7.2247177604585877 26.992220127955079 12.273099742829798
leaf_count=484 17 333 122 67 176 129
internal_value=-0.000416721 0.00597714 -0.00222981 -0.00651804 -0.00087838 0.00921611
internal_weight=183.91 89.1322 24.4606 94.7777 34.2169 64.6716
internal_count=1328 601 139 727 243 462
is_linear=0
shrinkage=0.0168249


Tree=22
num_leaves=8
num_cat=0
split_feature=1 9 21 8 21 14 13
split_gain=11.9776 12.4728 7.33673 23.4137 4.0189 3.09694 2.07045
threshold=0.63423734983618496 0.45663286338527498 7.5000000000000009 0.39957924000741291 1.5000000000000002 0.40092622120520505 0.11520000000000001
decision_type=2 2 10 2 10 8 8
left_child=2 4 3 -1 -2 -6 -4
right_child=1 -3 6 -5 5 -7 -8
leaf_value=-0.018234348523600018 0.0069593961800513493 0.010409726383376103 -0.00061984133967579681 0.0011138617366179323 -0.010454191734464437 0.0022649784580980924 0.0094492806878580769
leaf_weight=33.965664768591523 7.5437317769974461 47.282012596726418 11.122170535847543 44.223373788408935 19.81014976836741 6.7170344833284643 10.961405429989101
leaf_count=267 30 312 145 323 117 15 128
internal_value=-0.000502076 0.00449722 -0.00464916 -0.00724077 -0.00346718 -0.00688936 0.00406121
internal_weight=181.626 81.3529 100.273 78.189 34.0709 26.5272 22.0836
internal_count=1337 474 863 590 162 132 273
is_linear=0
shrinkage=0.0177964


Tree=23
num_leaves=8
num_cat=0
split_feature=8 0 3 20 15 0 13
split_gain=24.3578 4.10807 3.13232 1.70881 1.74265 1.52704 2.19447
threshold=0.48080125260591505 0.81029411764705894 0.62625000000000008 0.77000000000000013 7.5000000000000009 0.33974358974358981 1.0000000180025095e-35
decision_type=2 2 2 8 10 2 8
left_child=2 5 3 -1 -5 -2 -7
right_child=1 -3 -4 4 -6 6 -8
leaf_value=-0.009678136588321281 1.1161078563679425e-05 0.012766138023459292 -0.0078933287610766945 -0.0026191831587259835 0.0058559592658741812 0.0013122010937481213 0.009039899153344369
leaf_weight=4.7240513265132904 20.617768708616495 14.210106150247155 75.300524839200079 18.712490978650756 7.6724989265203467 22.165755722671747 17.944129334762692
leaf_count=8 94 104 465 249 88 137 203
internal_value=-0.00139802 0.00526328 -0.00616526 -0.00169554 -2.87867e-06 0.00329252 0.00502554
internal_weight=181.347 74.9378 106.41 31.109 26.385 60.7277 40.1099
internal_count=1348 538 810 345 337 434 340
is_linear=0
shrinkage=0.01544


Tree=24
num_leaves=8
num_cat=0
split_feature=8 9 2 10 17 14 15
split_gain=24.2006 15.6917 8.05808 3.1736 2.75348 7.11769 3.04851
threshold=0.48412183676452175 0.40856993054173446 -1.0000000180025095e-35 0.71694111533339844 0.51981201767921459 -0.074936312679238712 5.5000000000000009
decision_type=2 2 2 2 8 8 8
left_child=1 3 -3 -1 5 6 -2
right_child=4 2 -4 -5 -6 -7 -8
leaf_value=-0.013492604486933202 -0.010002389014870506 0.011601757493287667 -0.0029881619799132565 0.0006581066014126213 0.019800959185501146 0.01056969397129703 0.0034200418279872621
leaf_weight=49.37982156034559 8.2449511159211415 15.862598640844224 41.362109342589974 4.0702738240361205 5.9241019040346137 43.770225005224347 11.503684649243949
leaf_count=466 83 79 271 22 36 362 36
internal_value=-0.000153634 -0.00534951 0.000970266 -0.0122323 0.0079765 0.00658538 -0.00183926
internal_weight=180.118 110.675 57.2247 53.4501 69.443 63.5189 19.7486
internal_count=1355 838 350 488 517 481 119
is_linear=0
shrinkage=0.0177675


Tree=25
num_leaves=8
num_cat=0
split_feature=14 9 9 22 6 6 16
split_gain=8.79301 15.4198 10.0762 5.12047 4.9388 3.91559 2.6815
threshold=0.011809508999703013 0.49558983118971062 0.38391206938830297 12.500000000000002 0.61270000000000013 0.58020000000000016 11.500000000000002
decision_type=8 2 2 10 8 10 2
left_child=2 3 -1 -2 -3 -5 -4
right_child=1 4 6 5 -6 -7 -8
leaf_value=-0.0087754480476305192 -0.0028715557227234124 -0.00038348176485091131 0.00010507233446795732 -0.0021897133347842392 0.007661191721772132 0.003698883567422811 -0.00471912729265931
leaf_weight=14.993826134130357 41.666566242463887 5.6242707893252364 41.052322290837765 11.614678381010888 26.937025455757976 22.201314741745591 9.5514914542436582
leaf_count=157 193 35 249 133 247 220 96
internal_value=-0.000231427 0.00124365 -0.00271589 -0.000838765 0.00613755 0.00154162 -0.00076596
internal_weight=173.641 108.044 65.5976 75.4826 32.5613 33.816 50.6038
internal_count=1330 828 502 546 282 353 345
is_linear=0
shrinkage=0.00857944


Tree=26
num_leaves=8
num_cat=0
split_feature=8 14 20 2 2 20 13
split_gain=22.9002 9.36866 6.4472 2.88284 2.66337 2.21196 1.96635
threshold=0.40856993054173446 0.034426552087076519 0.35945000000000005 -0.10717703349282291 0.51666666666666672 0.77000000000000013 0.011869936766820773
decision_type=2 8 8 2 2 8 8
left_child=6 3 -3 -2 -5 -4 -1
right_child=1 2 5 4 -6 -7 -8
leaf_value=-0.017949041330930851 0.0027915388767182549 -0.013628210869107139 0.013779383036560839 -0.0048284375408848088 -0.022262679897677974 0.0055139299889065928 -0.0087192931886269504
leaf_weight=24.440140585415065 13.726368727162479 4.7800037860870361 24.324614763259888 29.635263867676258 4.1467622816562644 45.307205308228731 28.560654087923467
leaf_count=236 66 7 37 238 26 497 251
internal_value=-0.00227714 0.00246104 0.00695376 -0.00435537 -0.00757368 0.00862294 -0.0132783
internal_weight=174.921 121.92 74.4118 47.5084 33.782 69.6318 53.0008
internal_count=1358 871 541 330 264 534 487
is_linear=0
shrinkage=0.0201362


Tree=27
num_leaves=8
num_cat=0
split_feature=14 20 21 1 1 15 16
split_gain=17.1244 6.05185 3.53583 11.9767 5.86432 2.40775 1.7429
threshold=0.19291138286885043 0.55785000000000007 3.5000000000000004 0.51000000000000012 0.41430000000000006 9.5000000000000018 1.5000000000000002
decision_type=10 10 10 2 2 8 2
left_child=2 -2 3 4 -1 -5 -4
right_child=1 -3 6 5 -6 -7 -8
leaf_value=0.00098019552225677266 0.015129569424025321 -0.009521554573854632 -0.016392985086222691 -0.00050567183891805229 -0.016057275133898066 0.013655624669564428 -0.0058420464764453181
leaf_weight=16.234862525947392 39.524697027169168 4.8408343195915213 12.383922349661587 6.1620883699506548 23.29214134812355 22.730287712067366 45.192541412077844
leaf_count=112 329 7 26 77 156 72 553
internal_value=0 0.0120624 -0.00428384 -0.000597944 -0.00882818 0.0102339 -0.0084293
internal_weight=170.361 44.3655 125.996 68.4194 39.527 28.8924 57.5765
internal_count=1332 336 996 417 268 149 579
is_linear=0
shrinkage=0.0227599


Tree=28
num_leaves=8
num_cat=0
split_feature=8 6 8 6 20 21 16
split_gain=15.2064 13.7101 9.38353 3.05084 4.26922 2.82295 2.37521
threshold=0.52593487942999406 0.60005000000000019 0.49099491512749577 0.64000127418860553 0.68365000000000009 7.5000000000000009 5.5000000000000009
decision_type=2 8 2 10 8 8 2
left_child=1 2 -1 5 -5 -3 -2
right_child=6 3 -4 4 -6 -7 -8
leaf_value=-0.0086456734410726155 0.0096119970634766395 0.0031910618089656256 0.0039092960758771037 -0.0018703822616577351 0.0075443786631451907 -0.006223967728625956 0.0021244274325702326
leaf_weight=72.419074639678001 21.93383130338043 9.5055888798087853 12.328312639147041 12.39946788549423 25.424084460362792 13.042204439640043 17.666716398671269
leaf_count=555 137 28 74 18 236 133 191
internal_value=-0.00100305 -0.00311545 -0.00671557 0.00183409 0.00428189 -0.00195559 0.00649813
internal_weight=184.719 145.119 84.7474 60.3713 37.8236 22.5478 39.6005
internal_count=1372 1044 629 415 254 161 328
is_linear=0
shrinkage=0.0138758


Tree=29
num_leaves=8
num_cat=0
split_feature=8 14 19 9 10 14 11
split_gain=31.39 8.27678 5.18428 3.74503 2.73279 1.12953 0.633124
threshold=0.38391206938830297 0.15760614715339519 0.51790000000000014 0.52593487942999406 0.49859335195263449 0.20216214349201375 0.40171841231353128
decision_type=2 10 8 2 2 8 2
left_child=5 2 4 -4 -2 -1 -3
right_child=1 6 3 -5 -6 -7 -8
leaf_value=-0.014333683612339734 8.2196190895501538e-05 0.0012125887128375792 -0.006641755997862926 0.00173036320982799 0.0075800589479986221 -0.007279975449732504 0.0089904401576734842
leaf_weight=27.739175560884178 26.452084006741643 4.9282306972891083 29.665038254112005 16.615113673731685 19.502612889744341 14.74494140781462 32.413392161019146
leaf_count=271 156 69 257 138 90 138 219
internal_value=-0.00120613 0.00236207 1.7881e-06 -0.00348389 0.00346645 -0.0121505 0.00816608
internal_weight=172.061 129.576 92.2348 46.2802 45.9547 42.4841 37.3416
internal_count=1338 929 641 395 246 409 288
is_linear=0
shrinkage=0.0147605


Tree=30
num_leaves=8
num_cat=0
split_feature=9 10 20 6 10 20 6
split_gain=21.7977 5.59547 4.59431 10.371 3.66567 3.1646 6.38536
threshold=0.46481979715787719 0.71694111533339844 0.55785000000000007 0.60005000000000019 0.46162098499547771 0.59135000000000015 0.67535000000000012
decision_type=2 2 8 10 2 8 8
left_child=1 2 -1 -4 5 -2 -7
right_child=4 -3 3 -5 -6 6 -8
leaf_value=-0.0170392833750369 0.0081707523063998082 0.0044391378887365255 -0.010423807310290379 0.0029288538356188193 0.0075007373508889147 -0.010124836617010184 0.009122812028302632
leaf_weight=12.568589419126509 8.4213604927062971 9.834798224270342 43.93887846544385 21.920469762757421 56.6897356454283 12.793300919234758 5.9862542059272519
leaf_count=24 12 49 495 164 402 111 72
internal_value=-0.000706689 -0.0063708 -0.00786113 -0.00586683 0.00515851 1.33295e-05 -0.00345818
internal_weight=172.153 88.2627 78.4279 65.8593 83.8907 27.2009 18.7796
internal_count=1329 732 683 659 597 195 183
is_linear=0
shrinkage=0.0162708


Tree=31
num_leaves=8
num_cat=0
split_feature=8 8 15 14 2 14 20
split_gain=26.735 24.8984 6.23054 4.04281 3.91401 8.20735 4.37546
threshold=0.50106099447627261 0.39957924000741291 4.5000000000000009 0.054304361594996638 -0.013280679785330899 0.32615850078375574 0.51615000000000011
decision_type=2 2 8 10 2 8 10
left_child=1 -1 3 -2 6 -6 -3
right_child=2 4 -4 -5 5 -7 -8
leaf_value=-0.010105038160253347 -0.003379644147019746 0.0014132848791988699 0.010387204815326734 0.0075692515097978367 -0.003143507053047816 0.0086118477676107343 0.013658554771247715
leaf_weight=46.573917800560594 10.999424915760757 14.519610727205874 38.424251525662839 8.9256868511438352 38.697305900976062 11.753047168254851 7.297007977962493
leaf_count=430 113 100 200 120 293 74 10
internal_value=0.000439123 -0.00295383 0.0074191 0.00130565 0.00160523 -0.000212123 0.00600574
internal_weight=177.19 118.841 58.3494 19.9251 72.267 50.4504 21.8166
internal_count=1340 907 433 233 477 367 110
is_linear=0
shrinkage=0.0126149


Tree=32
num_leaves=8
num_cat=0
split_feature=9 6 9 17 15 16 17
split_gain=23.1575 6.28599 9.82538 5.4231 12.402 2.48838 1.42358
threshold=0.51167956189710628 0.54915000000000003 0.4458089018677211 0.25198709964752203 21.000000000000004 6.5000000000000009 0.21580161154270175
decision_type=2 8 2 8 8 2 8
left_child=1 2 -1 6 -5 -2 -3
right_child=5 3 -4 4 -6 -7 -8
leaf_value=-0.011372880165801886 0.0092310681811665091 0.0012931622310158111 -0.0010020348865005854 0.0017869453233896049 -0.013058198718892274 0.0021837120735024129 0.0091922371312473852
leaf_weight=39.228667758405209 27.90596192330122 21.512568864971403 29.895197305828333 22.453477587550879 16.265230095013976 17.52337146922946 5.4624170940369359
leaf_count=375 173 143 157 243 49 189 35
internal_value=-0.00141209 -0.00421092 -0.00701827 -0.00112878 -0.0043651 0.00669647 0.00327359
internal_weight=180.247 134.818 69.1239 65.6937 38.7187 45.4293 26.975
internal_count=1364 1002 532 470 292 362 178
is_linear=0
shrinkage=0.013318


Tree=33
num_leaves=8
num_cat=0
split_feature=6 17 6 2 20 7 14
split_gain=15.0038 5.01661 4.28454 3.96457 4.26546 3.85468 1.55276
threshold=0.75495000000000012 0.32601147890090948 0.36060000000000009 -0.12052238805970153 0.77000000000000013 0.41023861905567788 0.054304361594996638
decision_type=10 10 8 2 8 2 10
left_child=2 -2 3 4 -1 6 -4
right_child=1 -3 5 -5 -6 -7 -8
leaf_value=0.0067950096100620342 0.012988324569949946 0.00141859123671666 -2.4837418053498346e-05 -0.007815773825767534 -0.0063714930212141543 0.0011095504914287839 -0.0060364366609091807
leaf_weight=7.1470441520214081 15.313011705875399 11.633869456127284 10.156901601701977 28.264272961765528 6.9255068115890008 75.483555188402534 20.707873324863613
leaf_count=11 126 80 86 287 56 515 158
internal_value=-0.000168562 0.00831291 -0.00177366 -0.00513795 -2.16791e-05 -0.000357525 -0.00409817
internal_weight=175.632 26.9469 148.685 42.3368 14.0726 106.348 30.8648
internal_count=1319 206 1113 354 67 759 244
is_linear=0
shrinkage=0.0125707


Tree=34
num_leaves=8
num_cat=0
split_feature=7 14 21 2 21 2 21
split_gain=12.0061 9.10515 4.43243 3.33628 2.13548 1.1974 1.191
threshold=0.44182028487873015 0.25303231942442495 7.5000000000000009 -0.28114787234042549 9.5000000000000018 -0.35256410256410248 8.5000000000000018
decision_type=2 8 10 2 8 2 8
left_child=3 2 5 -1 -5 -2 -3
right_child=1 6 -4 4 -6 -7 -8
leaf_value=0.0021242785570984835 0.0021895313489260159 0.0096067403946110772 0.0048307177749550871 -0.0050697006220483121 -0.0014569396349509117 -0.0011688296054688083 0.0041799758312836355
leaf_weight=9.2375328224152309 9.9890293702483159 11.523563496768476 16.114676246419549 37.735007325187325 31.68572239857167 55.672066605649889 13.693156592547892
leaf_count=61 37 60 171 265 280 339 123
internal_value=0 0.00206736 0.000464566 -0.00277262 -0.00350928 -0.000569755 0.00696772
internal_weight=185.651 106.992 81.7758 78.6583 69.4207 65.6611 25.2167
internal_count=1336 730 547 606 545 376 183
is_linear=0
shrinkage=0.00943871


Tree=35
num_leaves=8
num_cat=0
split_feature=9 6 0 2 20 1 13
split_gain=20.488 8.42728 5.61254 5.43561 4.15612 4.13818 2.19975
threshold=0.49099491512749577 0.49525000000000002 0.84442523768366473 -0.03987812499999998 0.63595000000000013 0.28570714285714288 0.052849999999999987
decision_type=2 8 2 2 8 2 8
left_child=1 5 6 -3 -5 -1 -2
right_child=2 3 -4 4 -6 -7 -8
leaf_value=-0.00057238385396210587 6.2038061532157134e-06 0.0055697070921997219 0.012833032172878935 -0.010025104629803003 -0.00092385973961020757 -0.0099639561249496179 0.0055648342501263583
leaf_weight=11.439798395149408 28.627804666757584 14.666902996599672 11.454573636874555 11.193162173032759 37.584533866494894 43.572110462002456 23.295749786309898
leaf_count=91 182 77 85 18 338 346 213
internal_value=-0.00120998 -0.00442275 0.00467785 -0.00106322 -0.00322814 -0.00813917 0.00264903
internal_weight=181.835 118.457 63.3781 63.4446 48.7777 55.0119 51.9236
internal_count=1350 870 480 433 356 437 395
is_linear=0
shrinkage=0.0130017


Tree=36
num_leaves=8
num_cat=0
split_feature=9 14 14 6 11 2 20
split_gain=39.0031 17.9679 6.39222 3.66772 3.6269 1.50268 1.25082
threshold=0.41988331650725663 0.16783584747457661 0.20216214349201375 0.62547500000000011 0.43215434083601295 -0.62299422336328614 0.77000000000000013
decision_type=2 8 10 10 2 2 8
left_child=2 3 6 5 -4 -2 -1
right_child=1 -3 4 -5 -6 -7 -8
leaf_value=-0.0093717111205351665 0.0025740846031522937 0.0058619791175777243 0.0016686913060924204 0.0038540995328442212 -0.0050920344593890915 -0.001297044111469249 -0.0054860130878994044
leaf_weight=15.541845291852949 5.3667445704340926 46.157529659569263 9.442252494394781 10.550273658707736 7.5126707889139643 59.827823996543884 26.558601235970855
leaf_count=30 25 313 103 101 19 377 370
internal_value=-0.000360541 0.00210393 -0.00548425 -0.000158321 -0.00118584 -0.000897229 -0.00710262
internal_weight=180.958 121.902 59.0554 75.7448 16.9549 65.1946 42.1004
internal_count=1338 816 522 503 122 402 400
is_linear=0
shrinkage=0.00770255


Tree=37
num_leaves=8
num_cat=0
split_feature=8 6 6 20 17 11 6
split_gain=57.9809 14.3816 5.65269 5.92666 3.9348 1.67707 3.17782
threshold=0.38391206938830297 0.74515000000000009 0.60005000000000019 0.49535000000000001 0.31028684973716741 0.42908181493390501 0.47360000000000008
decision_type=2 8 10 8 8 2 10
left_child=5 2 3 -2 -4 6 -1
right_child=1 -3 4 -5 -6 -7 -8
leaf_value=-0.0080310516266673421 0.0029195977089206977 0.0056555546784876455 0.00064528800891665587 -0.0023900122917205721 0.0069125587687175107 -0.0099714821686255773 -0.0017642331818493603
leaf_weight=18.418811542913321 16.043772518634796 40.74681300483644 19.256132367998365 53.779089376330376 9.9527488145977241 23.284005872905254 9.6970356293022615
leaf_count=233 22 287 130 443 72 58 99
internal_value=-0.000864381 0.00174783 8.02316e-05 -0.00109761 0.00299097 -0.00798616 -0.00607657
internal_weight=191.178 139.779 99.0317 69.8229 29.2089 51.3999 28.1158
internal_count=1344 954 667 465 202 390 332
is_linear=0
shrinkage=0.0078844


Tree=38
num_leaves=8
num_cat=0
split_feature=8 8 6 13 2 15 16
split_gain=15.7922 21.2594 13.2505 2.67863 2.11626 1.95539 1.26638
threshold=0.33922646886875191 0.3938652242717639 0.65065000000000006 0.18407500000000013 0.24795952380952388 1.5000000000000002 8.5000000000000018
decision_type=2 2 8 8 2 10 2
left_child=3 5 4 -1 -3 -2 -4
right_child=1 2 6 -5 -6 -7 -8
leaf_value=-0.020967187951695103 -0.02278565360587563 0.00265338074291218 0.016502430884039063 -0.0019936912207560451 -0.0055832267573502851 -0.0059903993892045813 0.0059710651832261706
leaf_weight=16.144146679900587 12.692571269348266 60.612495923414826 43.933154162019491 6.2921475600451258 18.815091265365481 7.6948330439627162 11.075819648802279
leaf_count=178 57 457 279 75 71 103 121
internal_value=0.000628466 0.00318995 0.00642227 -0.0162122 0.000543973 -0.0171757 0.0146324
internal_weight=177.26 154.824 134.437 22.4363 79.4276 20.3874 55.009
internal_count=1341 1088 928 253 528 160 400
is_linear=0
shrinkage=0.0219035


Tree=39
num_leaves=8
num_cat=0
split_feature=9 6 20 20 22 13 8
split_gain=58.5885 15.0088 5.15962 3.20748 1.266 2.67789 0.660465
threshold=0.38391206938830297 0.54915000000000003 0.77000000000000013 0.41630000000000006 12.500000000000002 1.0000000180025095e-35 0.44837457396425567
decision_type=2 8 8 8 10 10 2
left_child=4 2 -2 -3 -1 -6 -5
right_child=1 3 -4 6 5 -7 -8
leaf_value=-0.0086335046353729211 0.0021030343757756716 2.8418214557637378e-05 -0.0023438874775994359 0.0029479705522118681 -0.0077462451363685021 -0.0021030082662597451 0.0052351439906451937
leaf_weight=25.255904570221901 21.068143606185913 10.552957415580748 37.01145600900054 20.790449496358633 11.722326206043364 11.474220214411615 52.870889297686517
leaf_count=118 29 15 365 141 143 129 413
internal_value=-0.000205044 0.002147 -0.000659019 0.00412064 -0.00713196 -0.0052168 0.00466165
internal_weight=190.746 142.294 58.0796 84.2143 48.4525 23.1965 73.6613
internal_count=1353 963 394 569 390 272 554
is_linear=0
shrinkage=0.00733003


Tree=40
num_leaves=8
num_cat=0
split_feature=8 14 14 14 5 5 19
split_gain=20.9752 7.00233 6.57898 3.94454 3.38901 4.02312 2.2216
threshold=0.4458089018677211 0.14682207649348447 -0.074936312679238712 0.26467553731595878 17.500000000000004 10.500000000000002 0.55515000000000014
decision_type=2 10 8 10 2 2 8
left_child=1 -1 -2 -3 5 -4 -6
right_child=2 3 4 -5 6 -7 -8
leaf_value=-0.01380933399721735 -0.0014426910291150637 -0.0098908344784426235 0.021120243169696233 0.0062704003274331888 0.010126846666058788 0.001350072636422924 0.00027154606046724715
leaf_weight=44.883820935152471 32.66068035364151 10.815453840419652 19.393506955355409 16.747848302125931 24.657383549958467 7.7102274633944026 21.663213595747948
leaf_count=447 184 80 193 120 136 62 124
internal_value=0.000126198 -0.00864261 0.00622904 -1.75306e-05 0.00978272 0.0159737 0.00580225
internal_weight=178.532 72.4471 106.085 27.5633 73.4243 27.1037 46.3206
internal_count=1346 647 699 200 515 255 260
is_linear=0
shrinkage=0.0213899


Tree=41
num_leaves=8
num_cat=0
split_feature=8 14 3 8 20 20 21
split_gain=19.9482 9.79137 9.11717 3.78307 4.76742 3.35687 2.77114
threshold=0.45663286338527498 -0.04860633124399303 1.1086956521739133 0.41988331650725663 0.68365000000000009 0.61465000000000003 2.5000000000000004
decision_type=2 8 2 2 8 8 10
left_child=2 5 3 4 -1 -2 -4
right_child=1 -3 6 -5 -6 -7 -8
leaf_value=-0.020646204073766942 0.0056509372533263599 0.0092438187288523613 0.0082632251053232301 -0.0016453384048188717 -0.0081225562090458097 -0.0065727281691128139 -0.0023393847286139161
leaf_weight=14.543722212314604 8.0577372908592206 55.013920360244811 10.469479022547604 14.612312726676462 33.789275323040783 20.358986362814907 16.979195894673467
leaf_count=29 11 443 33 128 433 170 94
internal_value=-0.00084378 0.00506011 -0.00638429 -0.00993759 -0.0122399 -0.00274409 0.00147007
internal_weight=173.825 83.4306 90.394 62.9453 48.333 28.4167 27.4487
internal_count=1341 624 717 590 462 181 127
is_linear=0
shrinkage=0.0169603


Tree=42
num_leaves=8
num_cat=0
split_feature=9 6 18 6 10 21 22
split_gain=47.3384 15.7563 7.006 4.0424 3.12551 2.93929 1.18678
threshold=0.40288962596036559 0.62547500000000011 0.45145000000000007 0.54915000000000003 0.50000986512101953 7.5000000000000009 12.500000000000002
decision_type=2 8 8 8 2 10 10
left_child=3 2 -2 -1 6 -4 -3
right_child=1 4 5 -5 -6 -7 -8
leaf_value=-0.0069412591492214702 0.0048180949855019025 0.00082112912152592927 -0.0017123677179035316 -0.0027270543379063618 0.0061651019443360157 0.0017737813496199863 0.0042172805119119845
leaf_weight=30.434066090732813 11.383366681635378 12.946079390123487 45.100171279162169 22.387726815417409 36.188089257106185 13.258722208440302 11.889589150436223
leaf_count=290 27 88 276 180 204 144 145
internal_value=0.000108403 0.00231341 6.06527e-05 -0.00525316 0.00481363 -0.000850979 0.00263754
internal_weight=183.588 130.766 69.7423 52.8218 61.0238 58.3589 24.8357
internal_count=1354 884 447 470 437 420 233
is_linear=0
shrinkage=0.00678047


Tree=43
num_leaves=8
num_cat=0
split_feature=6 8 15 19 8 8 8
split_gain=17.609 12.7506 5.83014 5.42073 3.83217 12.0193 3.20421
threshold=0.69025000000000014 0.47331820187882229 6.5000000000000009 0.54020000000000012 0.44837457396425567 0.39957924000741291 0.55336066405070217
decision_type=8 2 8 8 2 2 2
left_child=1 4 3 -3 5 -1 -2
right_child=6 2 -4 -5 -6 -7 -8
leaf_value=-0.0077966704016105438 0.003240516442472629 -0.0050208945882747697 0.0049239525422539966 0.0037161376683619435 0.00038839370934209196 0.00023897258716999234 0.0083927033659515031
leaf_weight=34.673726302571595 46.897097250446677 11.854520039632918 26.530772320926189 8.7415411788970214 12.679939229041336 22.204710319638252 13.946787854656575
leaf_count=321 324 119 92 100 82 156 135
internal_value=0.000733069 -0.00123201 0.00221379 -0.00109048 -0.00363124 -0.00460564 0.00455042
internal_weight=177.529 116.685 47.1268 20.5961 69.5584 56.8784 60.8439
internal_count=1329 870 311 219 559 477 459
is_linear=0
shrinkage=0.00877233


Tree=44
num_leaves=8
num_cat=0
split_feature=10 2 15 15 14 13 19
split_gain=13.6202 8.71776 6.99751 5.2295 8.2628 2.55574 2.12478
threshold=0.51198344090492909 0.16549285714285714 6.5000000000000009 34.000000000000007 0.045453965702036421 -0.16501666666666664 0.57905000000000006
decision_type=2 2 8 8 10 10 10
left_child=3 2 5 4 -1 -2 -3
right_child=1 6 -4 -5 -6 -7 -8
leaf_value=-0.0075837931823464237 -0.0037834026189707127 0.0012735660972764389 0.015814052442655678 -0.010328454081431791 0.0045559153573271486 0.0095148593709432766 -0.0085668349408640834
leaf_weight=37.94782255589962 11.28669889830053 12.617510490119459 25.394416525028646 38.326036286540329 31.606847776100039 6.5935585387051097 11.541458493098615
leaf_count=501 118 82 86 98 377 75 20
internal_value=-0.00108754 0.00509421 0.00988344 -0.00504076 -0.00194904 0.000811949 -0.0031208
internal_weight=175.314 67.4336 43.2747 107.881 69.5547 17.8803 24.159
internal_count=1357 381 279 976 878 193 102
is_linear=0
shrinkage=0.0178003


Tree=45
num_leaves=8
num_cat=0
split_feature=0 14 8 9 20 14 20
split_gain=18.3374 8.39834 7.89933 7.10145 3.32996 0.948929 0.764329
threshold=0.58200000000000018 0.20216214349201375 0.46992491123795072 0.44837457396425567 0.52060000000000006 -0.20345200039974673 0.45215000000000005
decision_type=2 8 2 2 10 8 10
left_child=3 2 -2 4 -1 -5 -4
right_child=1 -3 6 5 -6 -7 -8
leaf_value=-0.009224255808430018 -0.012784154825731317 0.016480845691583278 0.0043996362064869588 -0.0070428082703012903 -0.025610460170121321 0.0015363384432830979 0.014249869246517763
leaf_weight=49.733374705538154 12.903791774064301 30.627773962914944 19.223269199952487 7.043920336291194 7.9616703689098349 35.426121762022376 7.7702205777168265
leaf_count=529 85 171 198 40 16 267 12
internal_value=-0.000711265 0.00783857 0.000818825 -0.00685183 -0.0118824 -9.4508e-06 0.00783618
internal_weight=170.69 70.5251 39.8973 100.165 57.695 42.47 26.9935
internal_count=1318 466 295 852 545 307 210
is_linear=0
shrinkage=0.0221757


Tree=46
num_leaves=8
num_cat=0
split_feature=14 10 21 15 17 1 22
split_gain=10.0357 4.07094 2.48321 2.34608 1.86545 4.23233 1.39703
threshold=0.14682207649348447 0.55647038444466101 9.5000000000000018 9.5000000000000018 0.45283338427543646 0.69768951194184847 12.500000000000002
decision_type=8 2 8 8 10 2 10
left_child=2 4 -1 -4 5 -2 -3
right_child=1 6 3 -5 -6 -7 -8
leaf_value=-0.0082915808650005588 0.00032815467196234004 0.016977966789014268 -0.008814073305406879 0.0032759159769779329 -0.0071343200200423276 0.022311102448380856 0.0027895617460718201
leaf_weight=61.47779178339988 31.553042147308588 18.890755221247677 12.467894822359083 26.554406052455306 9.3360113687813264 5.4233686774969092 7.5457932129502288
leaf_count=484 296 39 183 109 89 60 83
internal_value=-0.000466553 0.00610012 -0.00534445 -0.0003683 0.00156226 0.00413979 0.013444
internal_weight=173.249 72.749 100.5 39.0223 46.3124 36.9764 26.4365
internal_count=1343 567 776 292 445 356 122
is_linear=0
shrinkage=0.0235828


Tree=47
num_leaves=8
num_cat=0
split_feature=8 8 14 14 14 15 20
split_gain=18.9106 13.636 2.69649 5.58328 2.39994 1.15034 1.10653
threshold=0.49459124505762037 0.42749124244948172 -0.21648067448900923 0.20216214349201375 -0.04093573516515641 14.500000000000002 0.70710000000000017
decision_type=2 2 8 10 8 8 8
left_child=1 4 -3 -4 -1 -6 -2
right_child=6 2 3 -5 5 -7 -8
leaf_value=-0.0061560193853922376 0.004624287251861192 -0.0030057050913503067 4.0107330891115954e-06 0.0050780299992493876 -0.0014937743990794275 -0.0040077379487462482 0.0022337348519883885
leaf_weight=16.41120314784348 18.876158893108368 5.9543223958462477 32.399136867374182 13.681678891181944 25.046818714588881 21.869034585542977 42.310204026289284
leaf_count=191 29 32 198 73 305 65 427
internal_value=0 -0.00161662 0.000911376 0.00152809 -0.00374031 -0.00276859 0.00305556
internal_weight=176.549 115.362 52.0351 46.0808 63.3271 46.9159 61.1864
internal_count=1320 864 303 271 561 370 456
is_linear=0
shrinkage=0.00682297


Tree=48
num_leaves=8
num_cat=0
split_feature=9 7 6 14 3 5 22
split_gain=22.7576 13.9586 6.86187 5.58413 3.86046 2.75833 0.976754
threshold=0.43846489675642025 0.41862353437916144 0.54915000000000003 0.20216214349201375 0.61250000000000016 39.500000000000007 12.500000000000002
decision_type=2 2 8 8 2 2 8
left_child=3 -2 -3 4 -1 -4 -5
right_child=1 2 5 6 -6 -7 -8
leaf_value=-0.0039053436062326959 0.029270472997614226 -0.0039028610362823401 0.010865377614950517 -0.007466423454378637 -0.018205592290283915 0.0019761002136159758 -5.5793318864807245e-05
leaf_weight=11.57264684140682 6.8610041160136452 36.881779678165913 26.690886770375073 11.151772230863569 28.09643051866442 29.17586287856102 19.654499808326367
leaf_count=155 25 253 265 17 233 156 215
internal_value=-0.00140688 0.00433696 0.00222959 -0.00962953 -0.0143542 0.00644422 -0.00313178
internal_weight=170.085 99.6095 92.7485 70.4753 39.6691 55.8667 30.8063
internal_count=1319 699 674 620 388 421 232
is_linear=0
shrinkage=0.0189128


Tree=49
num_leaves=6
num_cat=0
split_feature=9 6 8 17 6
split_gain=30.1671 18.6192 2.18607 4.13628 1.73914
threshold=0.40288962596036559 0.70027500000000009 0.42398099622778085 0.31028684973716741 0.54915000000000003
decision_type=2 10 2 8 8
left_child=4 2 -2 -4 -1
right_child=1 -3 3 -5 -6
leaf_value=-0.0071378294685916664 -0.0045894258658981304 0.0071111591058993888 -0.00085946499772757677 0.0026826050349045487 -0.0034488421358732481
leaf_weight=27.5871402034536 5.5929551534354678 29.920863389037549 61.827506991103292 30.56714067235589 21.988691985607147
leaf_count=278 64 244 350 219 175
internal_value=-0.000358245 0.00166738 1.23969e-06 0.000278406 -0.00562419
internal_weight=177.484 127.908 97.9876 92.3946 49.5758
internal_count=1330 877 633 569 453
is_linear=0
shrinkage=0.00798324


Tree=50
num_leaves=8
num_cat=0
split_feature=9 11 10 17 6 17 11
split_gain=26.5154 7.23298 2.89097 1.393 7.15924 1.08508 3.49884
threshold=0.40856993054173446 0.42908181493390501 0.43943685130636234 0.073939941823482527 0.62547500000000011 0.23309379070997241 0.42908181493390501
decision_type=2 2 2 8 8 10 2
left_child=1 -1 5 -4 -5 -2 -7
right_child=2 -3 3 4 -6 6 -8
leaf_value=-0.0082048977788434039 0.0017738601843610693 -0.026807357134946776 -0.0029170582582866748 -4.7046016214200186e-05 0.01290065624677042 -1.9781686419160233e-05 -0.022048057339855796
leaf_weight=27.795896352268755 17.506621709093451 18.732914758846164 6.49991675838828 38.933959228917956 39.610984134487808 14.643300395458938 4.0701927691698065
leaf_count=402 105 72 35 248 286 165 10
internal_value=-0.00206767 -0.0161177 0.00328155 0.00552184 0.00638294 -0.0016678 -0.00543996
internal_weight=167.794 46.5288 121.265 85.0449 78.5449 36.2201 18.7135
internal_count=1323 474 849 569 534 280 175
is_linear=0
shrinkage=0.0220058


Tree=51
num_leaves=8
num_cat=0
split_feature=8 14 4 14 16 14 21
split_gain=18.9264 9.01699 5.76693 3.19597 2.47531 3.52544 2.8954
threshold=0.4534953400227405 0.16783584747457661 0.9999999598252759 0.21268427360420933 2.5000000000000004 -0.091083045641020419 1.5000000000000002
decision_type=2 10 2 8 2 10 10
left_child=2 4 3 -1 6 -6 -2
right_child=1 -3 -4 -5 5 -7 -8
leaf_value=-0.011084568501847964 0.0010146544701372523 0.020836584448886853 -0.023962146874689172 -2.5665535769313655e-05 -0.010880219792509919 0.0046699804603742116 0.016714019366914804
leaf_weight=35.91234459169209 21.037392932921652 19.804784555919468 13.489706955850123 29.807899460196495 15.051321769133212 16.872515209019184 10.842894967645405
leaf_count=405 90 184 62 220 157 188 22
internal_value=-0.001105 0.00679482 -0.00958478 -0.00629075 0.00211837 -0.00233679 0.00690918
internal_weight=162.819 83.6089 79.21 65.7202 63.8041 31.9238 31.8803
internal_count=1328 641 687 625 457 345 112
is_linear=0
shrinkage=0.0241336


Tree=52
num_leaves=8
num_cat=0
split_feature=8 8 10 14 14 14 20
split_gain=29.7023 20.7945 4.46787 3.6866 2.66006 2.1998 1.27232
threshold=0.45663286338527498 0.38391206938830297 0.49824437123472498 0.19291138286885043 -0.017321102090918358 0.11016608020633685 0.20850000000000005
decision_type=2 2 2 8 8 10 10
left_child=1 6 5 -4 -3 -2 -1
right_child=2 4 3 -5 -6 -7 -8
leaf_value=-0.0041704051612915672 -0.00018749527498965107 -0.002022548454205506 0.0020021740857879434 0.0055629976393666318 0.00091167799504015949 0.0026276927488449926 -0.0070603977432091135
leaf_weight=27.906923953443766 27.719870330765843 13.179857444018124 33.142951789312065 16.295628564432263 35.158685171976686 11.67358003836125 15.236300230026243
leaf_count=349 216 104 198 106 222 120 29
internal_value=-0.000190011 -0.00247393 0.0021308 0.00327712 3.55539e-05 0.00060237 -0.00532205
internal_weight=180.314 91.4818 88.832 49.4386 48.3385 39.3935 43.1432
internal_count=1344 704 640 304 326 336 378
is_linear=0
shrinkage=0.00569535


Tree=53
num_leaves=8
num_cat=0
split_feature=2 6 9 19 14 4 11
split_gain=11.9846 7.12238 15.9863 4.25882 10.688 3.58656 3.14308
threshold=-0.44229999999999997 0.72384598014946511 0.48412183676452175 0.44505000000000006 0.38149926564804298 0.75025000000000019 0.43215434083601295
decision_type=2 8 2 10 10 2 2
left_child=6 2 5 -3 -5 -2 -1
right_child=1 3 -4 4 -6 -7 -8
leaf_value=0.0013379779759596876 -0.0028716115491247214 -0.0022465986779758285 0.0018291005517292087 0.010776444136828938 -0.0079771322785501114 -0.010019753756534099 0.012504980691860698
leaf_weight=8.6490583643317223 18.882404365576804 20.953915409743786 40.168422697111964 16.595879072323445 5.9045662051066747 48.334897962398827 10.419983632862568
leaf_count=84 273 188 280 138 43 317 21
internal_value=-0.00135491 -0.00259096 -0.00435546 0.0016198 0.00547862 -0.00813503 0.007888
internal_weight=169.909 150.84 107.386 43.4544 22.5004 67.2173 19.069
internal_count=1344 1239 870 369 181 590 105
is_linear=0
shrinkage=0.0126921


Tree=54
num_leaves=8
num_cat=0
split_feature=8 6 8 7 20 20 20
split_gain=35.6215 9.17463 5.36584 11.7732 3.55366 1.42258 0.783051
threshold=0.38391206938830297 0.71220000000000006 0.50106099447627261 0.41464808860307262 0.27065 0.63065000000000015 0.61465000000000003
decision_type=2 10 2 2 10 8 10
left_child=5 2 3 -2 -4 -1 -3
right_child=1 6 4 -5 -6 -7 -8
leaf_value=-0.0084086561760939385 0.0053904762137566026 0.005902112566968566 0.0005268167065119666 -0.0022264312513793436 0.0048436582159399159 -0.004558270208142012 0.0013188443021792222
leaf_weight=12.440998613834379 12.737484725192187 24.837236111052338 23.175991596654058 50.130558544769883 20.570101380348206 28.740389754995704 4.6821352839469901
leaf_count=27 96 218 256 339 31 357 7
internal_value=-9.32978e-06 0.00175939 0.000720765 -0.000588788 0.0026673 -0.00588755 0.00531307
internal_weight=177.315 136.134 106.614 62.868 43.7461 41.1814 29.5194
internal_count=1331 947 722 435 287 384 225
is_linear=0
shrinkage=0.00725083


Tree=55
num_leaves=8
num_cat=0
split_feature=9 20 6 6 10 21 10
split_gain=17.394 6.0326 13.4406 2.19409 2.45224 0.830431 0.58628
threshold=0.48412183676452175 0.46870000000000006 0.60005000000000019 0.62547500000000011 0.39373074322392126 2.5000000000000004 0.68404893298678571
decision_type=2 10 10 8 2 8 2
left_child=1 2 5 -2 -5 -1 -6
right_child=3 -3 -4 4 6 -7 -8
leaf_value=-0.02345111077229586 0.004651805407859342 -0.018776637313871809 0.012037492679077225 -0.00034750830349706153 0.020114282055316745 -0.0095627267913461055 0.0056625226967209497
leaf_weight=4.6811677403748027 40.708714209496975 24.566730439662933 23.748797629028559 4.4689030740410116 20.491584291681651 46.061072208918631 5.5434948466718188
leaf_count=33 236 44 201 29 237 544 27
internal_value=-0.000516649 -0.00761899 -0.00366503 0.00916332 0.0146104 -0.0113167 0.0176666
internal_weight=170.27 99.0578 74.491 71.2127 30.504 50.7422 26.0351
internal_count=1351 822 778 529 293 577 264
is_linear=0
shrinkage=0.0260164


Tree=56
num_leaves=8
num_cat=0
split_feature=9 15 20 20 10 18 15
split_gain=28.4523 2.06264 3.83837 3.49464 2.75234 2.53594 1.5968
threshold=0.3938652242717639 4.5000000000000009 0.35945000000000005 0.55785000000000007 0.49824437123472498 0.65570000000000006 14.500000000000002
decision_type=2 10 8 8 2 10 10
left_child=6 2 -2 -4 5 -3 -1
right_child=1 4 3 -5 -6 -7 -8
leaf_value=-0.018451290252884531 -0.0095759581855061685 -0.0029570165882267969 0.010836983321918412 0.00078695972076329025 0.017982317312034819 0.01202652865391206 -0.0002824347078444208
leaf_weight=37.303003236651421 11.023763865232466 11.031197344884282 22.395980626344681 65.867478435859084 9.8164842259138805 8.2800987754017097 2.9082082696259013
leaf_count=382 16 128 35 539 113 87 37
internal_value=-0.00138217 0.00354861 0.00189868 0.00350864 0.00868148 0.00308106 -0.0172285
internal_weight=168.626 128.415 99.2872 88.2635 29.1278 19.3113 40.2112
internal_count=1337 918 590 574 328 215 419
is_linear=0
shrinkage=0.0217189


Tree=57
num_leaves=8
num_cat=0
split_feature=8 8 11 16 14 6 15
split_gain=6.36002 12.7194 3.63372 2.3694 2.08851 5.91353 4.68124
threshold=0.25833238156929084 0.53358923955434279 0.43215434083601295 13.500000000000002 -0.04093573516515641 0.72384598014946511 8.5000000000000018
decision_type=2 2 2 2 8 8 8
left_child=-1 4 3 -3 6 -6 -2
right_child=1 2 -4 -5 5 -7 -8
leaf_value=-0.020345553748379208 -0.017285732746717714 0.010410217521022025 0.02181016323757861 -0.0054540927739056173 -0.0057009649510701716 0.0060477658846869401 -2.0821253640314372e-05
leaf_weight=7.3928247597068539 14.452230373397468 16.547170278616253 14.438413373194633 5.6030082181096068 53.744667893275619 38.529682306572795 21.781347494572401
leaf_count=101 202 201 44 62 407 256 88
internal_value=-0.000203262 0.00069583 0.0126572 0.00585945 -0.0026601 -0.000664662 -0.0073499
internal_weight=172.489 165.097 36.5886 22.1502 128.508 92.2744 36.2336
internal_count=1361 1260 307 263 953 663 290
is_linear=0
shrinkage=0.0231145


Tree=58
num_leaves=8
num_cat=0
split_feature=6 8 8 9 4 19 19
split_gain=23.9107 8.36292 2.18659 7.31958 6.77726 0.961558 0.777949
threshold=0.64000127418860553 0.43846489675642025 0.30034629933000218 0.46481979715787719 0.99999983674673765 0.51790000000000014 0.65065000000000006
decision_type=8 2 2 2 2 10 8
left_child=2 -2 -1 4 -4 -5 -3
right_child=1 6 3 5 -6 -7 -8
leaf_value=-0.0070293193038660322 -5.9141401628824824e-05 0.0059558127474915856 -0.0010196915864160274 0.00099324049363224169 -0.0070535902253424845 -0.0013059046995112691 0.0025852521524501642
leaf_weight=6.5080147646367541 26.760681618005037 35.704685856588185 23.705992703326046 27.865804927423596 25.289971923455596 17.388958815485239 11.251247690990565
leaf_count=91 199 258 280 153 119 128 88
internal_value=-6.43966e-05 0.00328503 -0.00255822 -0.00217122 -0.00424957 1.56068e-05 0.00526056
internal_weight=174.475 73.7166 100.759 94.2507 48.996 45.2548 46.9559
internal_count=1316 545 771 680 399 281 346
is_linear=0
shrinkage=0.00782798


Tree=59
num_leaves=8
num_cat=0
split_feature=20 6 8 21 7 21 14
split_gain=7.92512 18.2596 7.24185 3.71999 2.26165 1.89715 0.363676
threshold=0.33510000000000006 0.60005000000000019 0.47331820187882229 3.5000000000000004 0.41023861905567788 5.5000000000000009 -0.24791275245360736
decision_type=8 8 2 8 2 8 10
left_child=-1 2 5 -4 -3 -2 -6
right_child=1 4 3 -5 6 -7 -8
leaf_value=-0.018829343185535821 -0.019412233841109704 0.0013202646849085698 0.019135794336511365 -0.0017145836694584546 0.0045962034385464692 -0.008314738208996357 0.012389179467689134
leaf_weight=10.806499749422072 15.800376615487037 18.369168289005756 4.3909374326467541 27.325020277872682 9.4115320611745101 30.236004402860999 43.472465045750141
leaf_count=18 110 162 17 208 76 366 363
internal_value=-0.000706871 0.000597902 -0.0068472 0.00110005 0.00887072 -0.0125294 0.0112602
internal_weight=159.812 149.006 77.7523 31.716 71.2532 46.0364 52.884
internal_count=1320 1302 701 225 601 476 439
is_linear=0
shrinkage=0.0225388


Tree=60
num_leaves=8
num_cat=0
split_feature=8 8 13 9 17 13 13
split_gain=11.2481 17.8275 3.46109 4.16511 2.51432 1.25314 0.432701
threshold=0.50505710986988872 0.38103225304075977 0.10002083333333334 0.49558983118971062 0.17098872363567355 -0.024389054726368192 0.16999999999999998
decision_type=2 2 10 2 8 8 8
left_child=1 -1 3 -3 -4 -2 -7
right_child=5 2 4 -5 -6 6 -8
leaf_value=-0.019066592687626876 0.0037001977257023174 -0.0044952817926623041 -0.001773283371205369 0.016141824869159643 0.013005387190034415 0.0066132785625490319 0.01615468792804766
leaf_weight=32.947613340802491 25.837254270911217 49.305367606692016 7.1099015679210451 4.8968409225344649 16.38589246943593 11.961597963236271 11.453683733940126
leaf_count=366 188 352 49 30 140 104 119
internal_value=-0.00100536 -0.00511021 0.000748915 -0.00226367 0.00807946 0.00793905 0.0119856
internal_weight=159.898 110.646 77.698 54.2022 23.4958 49.2525 23.4153
internal_count=1348 937 571 382 189 411 223
is_linear=0
shrinkage=0.0228778


Tree=61
num_leaves=8
num_cat=0
split_feature=9 14 7 9 13 1 17
split_gain=23.0554 8.81766 7.88935 10.9429 3.2349 2.34084 1.34487
threshold=0.41988331650725663 0.15760614715339519 0.44182028487873015 0.50106099447627261 0.40410000000000007 0.44220000000000009 0.34368249773979193
decision_type=2 8 2 2 10 2 10
left_child=4 2 -2 -4 -1 -3 -7
right_child=1 5 3 -5 -6 6 -8
leaf_value=-0.0030828650687051208 0.0042058959367497883 3.1118562758694411e-05 -0.0029579328112971904 0.0010784450258972157 0.0012363227137587294 0.0036255470524064882 0.0011057826268972934
leaf_weight=50.491890526376665 7.9338757675141087 5.6660090740770093 26.544384568929672 33.388566189445555 3.0765914600342503 28.950947793200612 9.9421572368592006
leaf_count=493 51 57 183 239 32 193 79
internal_value=-0.000202904 0.00100884 -4.15422e-05 -0.000679304 -0.00277438 0.00264508 0.00306072
internal_weight=165.994 112.426 67.8668 59.933 53.5685 44.5591 38.8931
internal_count=1327 802 473 422 525 329 272
is_linear=0
shrinkage=0.00477333


Tree=62
num_leaves=8
num_cat=0
split_feature=6 8 19 13 6 19 15
split_gain=11.7349 4.37068 3.91847 3.58084 2.48451 1.7758 1.61663
threshold=0.69025000000000014 0.52593487942999406 0.72845000000000015 0.23735454545454548 0.48507500000000003 0.68045000000000011 11.500000000000002
decision_type=8 2 8 8 10 10 8
left_child=1 3 -2 5 -4 -1 -3
right_child=2 6 4 -5 -6 -7 -8
leaf_value=-0.0068352149434315196 0.013021348988468738 2.9377158362786023e-05 -0.0071885349067619259 0.006571567908400475 0.01326282152378358 -0.021242059209083369 0.012260090387845137
leaf_weight=67.63432873878628 40.096196174621582 11.644794335588815 10.237878174521027 8.6931371930986625 3.9158823778852812 5.6275059878826132 9.0220690965652448
leaf_count=619 286 121 133 77 28 11 30
internal_value=0.000537358 -0.00401544 0.00931592 -0.00649131 -0.000408904 -0.00824492 0.005141
internal_weight=156.872 102.622 54.25 81.955 14.1538 73.2618 20.6669
internal_count=1305 858 447 707 161 630 151
is_linear=0
shrinkage=0.0233186


Tree=63
num_leaves=8
num_cat=0
split_feature=8 14 0 5 14 20 19
split_gain=12.7338 2.77187 2.72681 2.37049 2.33395 1.79272 1.55382
threshold=0.41988331650725663 0.28129267693721072 0.56620000000000015 14.500000000000002 0.14682207649348447 0.73060000000000014 0.53265000000000018
decision_type=2 8 2 2 8 8 10
left_child=4 2 -2 -4 -1 -6 -3
right_child=1 6 3 -5 5 -7 -8
leaf_value=-0.012824342678104804 -0.00043125130894900571 0.0057199917026240039 0.014343903417970158 0.003104487491492865 -0.010359345783839836 0.00030889798471900413 0.018600154062228466
leaf_weight=22.141473999246955 46.754644529893994 14.728352383710446 11.583981212228535 32.699539897963405 8.5518948435783368 16.743549063801769 8.0293307946994883
leaf_count=294 309 133 136 187 15 211 49
internal_value=0.000822116 0.00456882 0.00279932 0.00640082 -0.00790095 -0.00305211 0.0109924
internal_weight=161.233 113.796 91.0382 44.2835 47.4369 25.2954 22.7577
internal_count=1334 814 632 323 520 226 182
is_linear=0
shrinkage=0.0203618


Tree=64
num_leaves=8
num_cat=0
split_feature=8 13 6 4 6 22 13
split_gain=10.0218 3.22651 4.71437 2.92091 4.63101 1.96294 2.37119
threshold=0.41391473188954042 0.11520000000000001 0.69025000000000014 0.99999743533120633 0.38637636230680722 12.500000000000002 -0.13489999999999996
decision_type=2 8 8 2 10 10 10
left_child=5 3 -3 4 -2 -1 -7
right_child=1 2 -4 -5 -6 6 -8
leaf_value=-0.014371831884880854 -0.0048775679329620463 -0.0017323329337498726 0.01261345697812281 -0.0026043100408530517 0.014087937717808061 -0.01402935399885628 -8.3263598412147558e-06
leaf_weight=19.020946917124093 8.1992868743836897 14.151383349671958 26.636680287308991 53.141891384497285 13.520027480088173 7.4815307417884496 18.265840052627027
leaf_count=140 101 109 223 241 172 135 246
internal_value=-0.000543117 0.0026721 0.00740555 2.42697e-06 0.00647463 -0.00901302 -0.00447126
internal_weight=160.418 115.649 40.7881 74.8612 21.7193 44.7683 25.7474
internal_count=1367 846 332 514 273 521 381
is_linear=0
shrinkage=0.0211177


Tree=65
num_leaves=8
num_cat=0
split_feature=9 18 20 13 20 15 2
split_gain=15.0309 4.67122 3.4216 1.75819 3.78093 1.09475 0.836923
threshold=0.4627729456380667 0.42295000000000005 0.7107500000000001 -0.23237499999999997 0.44585000000000008 9.5000000000000018 0.12865168539325847
decision_type=2 8 8 8 10 10 2
left_child=1 -1 -2 4 -3 -5 -4
right_child=2 3 6 5 -6 -7 -8
leaf_value=-0.0071742690045426584 0.0042570766358699203 -0.0057269972037508965 0.001787835542686027 -0.00091537824596233947 0.0021900078843376625 0.0017340838367894144 4.2377685683410686e-06
leaf_weight=6.4330549091100684 33.743105620145798 9.3596213664859516 38.331343680620193 59.248371723107994 3.0112428665161124 7.3820616994053116 13.919972315430639
leaf_count=17 52 135 439 471 5 89 116
internal_value=0.000422416 -0.00162274 0.00249226 -0.00108221 -0.00349305 -0.000557693 0.00125862
internal_weight=171.429 85.4344 85.9944 79.0013 12.3709 66.6304 52.2513
internal_count=1324 717 607 700 140 560 555
is_linear=0
shrinkage=0.00698785


Tree=66
num_leaves=8
num_cat=0
split_feature=9 2 18 0 19 19 18
split_gain=9.07154 5.35881 4.1059 5.09786 3.64535 3.257 2.40187
threshold=0.44837457396425567 -0.013280679785330899 0.46390000000000003 0.84442523768366473 0.58255000000000012 0.57250000000000012 0.39440000000000003
decision_type=2 2 8 2 10 10 8
left_child=1 -1 -2 4 -4 6 -3
right_child=2 5 3 -5 -6 -7 -8
leaf_value=0.0032229461250671411 0.013815074287067592 -0.023415605116803431 0.0017409300975274051 0.017970857580618334 -0.012021339472046526 -0.024225030642234704 -0.0052236086244190853
leaf_weight=18.200681995600462 19.034127454273403 4.9401962310075751 50.40227023512125 8.5936152599751932 13.336338172666727 9.6354021858423931 37.569486159831285
leaf_count=147 74 15 485 76 45 61 447
internal_value=-0.000884442 -0.00739424 0.00401096 0.00118656 -0.00102891 -0.0113381 -0.00788329
internal_weight=161.712 70.3458 91.3664 72.3322 63.7386 52.1451 42.5097
internal_count=1350 670 680 606 530 523 462
is_linear=0
shrinkage=0.0240172


Tree=67
num_leaves=8
num_cat=0
split_feature=0 13 15 20 13 13 20
split_gain=13.5437 5.86439 4.31958 3.6003 3.09349 1.36618 1.38485
threshold=0.58200000000000018 0.12606282051282058 8.5000000000000018 0.41630000000000006 -0.17874999999999994 -0.27234999999999993 0.56400000000000017
decision_type=2 10 8 10 10 10 8
left_child=1 -1 4 -3 -2 -4 -7
right_child=2 3 5 -5 -6 6 -8
leaf_value=-0.0041045967795840573 -0.0026468923720102495 0.0022187679657490757 0.0081994190865991474 -0.0058143295857411197 0.0038237908913220787 6.5199267874333579e-05 0.0053519335236262844
leaf_weight=63.99299961514771 14.773558394983413 31.195689954794943 14.705571005120872 5.8643302023410788 13.045624662190674 9.3748024702072126 16.005019146949056
leaf_count=540 173 310 44 9 155 15 68
internal_value=0 -0.00228144 0.00343398 0.000741269 0.000235575 0.00550854 0.00363059
internal_weight=168.958 101.053 67.9046 37.06 27.8192 40.0854 25.3798
internal_count=1314 859 455 319 328 127 83
is_linear=0
shrinkage=0.00993721


Tree=68
num_leaves=8
num_cat=0
split_feature=16 1 19 14 11 14 7
split_gain=3.94311 8.32194 4.91481 5.79585 4.55199 2.83914 1.60655
threshold=15.500000000000002 0.53291260162601628 0.49845 0.17964012412240674 0.40171841231353128 -0.27107911916593591 0.46658723778900629
decision_type=2 2 10 8 2 10 2
left_child=1 6 5 -4 -2 -3 -1
right_child=4 2 3 -5 -6 -7 -8
leaf_value=-0.0017668177070348855 -0.0087181011087878214 -0.00028999595900164581 -0.0014109029099253149 0.0027512174036259198 -3.1206623469468299e-05 0.0041682392919566305 -3.0277376620583579e-06
leaf_weight=57.432657204568386 3.420580040663479 4.5654257535934475 28.192910617217422 19.158422289416194 5.5465336963534355 24.927367091178894 22.878769301809371
leaf_count=567 40 47 207 105 59 146 149
internal_value=-0.000130338 7.53681e-05 0.00148602 0.00022565 -0.00383841 0.00337428 -0.00123834
internal_weight=166.123 157.156 76.8441 47.3513 8.96711 29.4928 80.3114
internal_count=1320 1221 505 312 99 193 716
is_linear=0
shrinkage=0.00594684


Tree=69
num_leaves=8
num_cat=0
split_feature=7 8 6 17 15 12 14
split_gain=7.02105 7.49216 2.14789 2.12997 1.8023 1.51709 1.75196
threshold=0.50007322934765974 0.37089587035313371 0.56981218119299371 0.19988913089036944 1.5000000000000002 668.50000000000011 0.021569021607977915
decision_type=2 2 8 10 8 2 10
left_child=1 2 -1 -2 -5 -3 -7
right_child=3 5 -4 4 -6 6 -8
leaf_value=-0.0130566069375606 0.00033693360187079835 -0.00027028473030115118 -0.0024035680925567288 0.00014196828431682214 0.011141041981335658 4.7864204756798303e-05 0.011313899442728424
leaf_weight=14.817663975059988 12.001820679754017 89.493060319684446 10.124530954286454 3.751527355983856 19.248119941912591 5.7586810085922462 5.864214351400733
leaf_count=217 109 579 115 45 149 66 51
internal_value=0.000194737 -0.00149572 -0.00915157 0.00643272 0.00922794 0.000353309 0.00560011
internal_weight=161.06 126.058 24.9422 35.0015 22.9996 101.116 11.6229
internal_count=1331 1028 332 303 194 696 117
is_linear=0
shrinkage=0.0157936


Tree=70
num_leaves=8
num_cat=0
split_feature=8 20 14 6 18 15 18
split_gain=7.73869 5.63488 4.88596 3.76383 2.5004 1.09682 0.889803
threshold=0.4627729456380667 0.41255000000000003 0.25303231942442495 0.62547500000000011 0.44740000000000008 27.000000000000004 0.45145000000000007
decision_type=2 8 10 8 10 8 10
left_child=1 -1 5 4 -2 -3 -5
right_child=3 2 -4 6 -6 -7 -8
leaf_value=-0.02156296524148912 0.0089959395895611183 -0.007189871624874649 0.006357426016517175 0.0020461689683441615 -0.0012184266780477799 -0.0012891247404107008 0.011335945584673992
leaf_weight=5.4703103601932526 10.560145277529953 32.937809184193611 17.892293242737651 7.7390907360240808 36.549368653446436 25.039258528500795 26.425526072271168
leaf_count=13 38 516 137 84 243 75 237
internal_value=0.00049881 -0.00360532 -0.00204258 0.00472043 0.000957269 -0.00483482 0.00954928
internal_weight=162.614 81.3397 75.8694 81.2741 47.1095 57.9771 34.1646
internal_count=1343 741 728 602 281 591 321
is_linear=0
shrinkage=0.0191891


Tree=71
num_leaves=8
num_cat=0
split_feature=6 18 15 16 2 20 15
split_gain=7.25293 3.03686 6.05866 2.97884 2.36252 3.10866 1.63861
threshold=0.65065000000000006 0.28305000000000008 2.5000000000000004 14.500000000000002 -0.030678571428571385 0.70925000000000016 9.5000000000000018
decision_type=8 10 8 2 2 8 10
left_child=4 2 -2 -3 5 -1 -6
right_child=1 3 -4 -5 6 -7 -8
leaf_value=0.010746190186813009 -0.029309480707396918 0.012713563465516359 0.0078563689881454707 -0.0030451202505962682 -0.0065608694281107313 -0.0040797166782498961 0.0036050179280377472
leaf_weight=14.238821089267729 2.8968853484839174 43.280087729915977 7.0149469207972297 6.1424058079719535 54.970379228703678 14.590207029134037 8.4200493786483985
leaf_count=22 33 302 126 70 527 161 95
internal_value=0.0016317 0.00806024 -0.00275722 0.0104889 -0.00240007 0.00289052 -0.00500034
internal_weight=151.554 59.3343 9.91183 49.4225 92.2195 28.829 63.3904
internal_count=1336 531 159 372 805 183 622
is_linear=0
shrinkage=0.0235531


Tree=72
num_leaves=7
num_cat=0
split_feature=9 19 14 15 14 15
split_gain=15.5538 7.69974 7.04598 3.63614 3.44319 1.3797
threshold=0.41391473188954042 0.43955000000000005 0.21268427360420933 14.500000000000002 0.35879746165849907 1.0000000180025095e-35
decision_type=2 8 8 10 10 10
left_child=3 -2 -3 5 -4 -1
right_child=1 2 4 -5 -6 -7
leaf_value=-0.006291527980375777 0.0045704655636195383 -0.0012978695534276686 0.0039730877589954066 0.0020850547078589288 -0.0019150801455111344 -0.0030861650402960019
leaf_weight=16.757043240591884 23.170996680855751 64.415121135301888 25.020355264656249 3.6576588265597811 4.9560838080942622 27.930670992471278
leaf_count=46 40 518 217 44 47 412
internal_value=-0.000435794 0.000941743 7.11824e-07 -0.00383136 0.00285372 -0.00442337
internal_weight=165.908 117.563 94.3916 48.3454 29.9764 44.6877
internal_count=1324 822 782 502 264 458
is_linear=0
shrinkage=0.0071355


Tree=73
num_leaves=8
num_cat=0
split_feature=9 0 20 3 18 20 16
split_gain=14.9308 5.03929 3.04709 2.9205 2.62842 2.46542 1.8221
threshold=0.46481979715787719 0.40238095238095245 0.46870000000000006 0.87122081898201287 0.46390000000000003 0.38380000000000009 8.5000000000000018
decision_type=2 2 8 2 8 10 2
left_child=3 -2 -3 4 -1 -5 -4
right_child=1 2 6 5 -6 -7 -8
leaf_value=0.0040539866215731695 -0.0010695334766343619 0.0064264729796146723 0.0028397113155543582 -0.0049644506584160183 -0.001637939276632639 -0.0014775332617873976 6.5394805614061556e-06
leaf_weight=4.1478588320314875 22.614408670924604 10.366229534149168 32.827297568321228 32.341797047294676 28.168460054323077 21.5560462474823 14.743480898439882
leaf_count=46 111 17 309 338 324 34 159
internal_value=-0.000519695 0.00168321 0.00282381 -0.00261749 -0.000744267 -0.00366037 0.00190299
internal_weight=166.766 80.5514 57.937 86.2142 32.3163 53.8978 47.5708
internal_count=1338 596 485 742 370 372 468
is_linear=0
shrinkage=0.00722647


Tree=74
num_leaves=8
num_cat=0
split_feature=9 9 14 2 2 16 14
split_gain=18.9608 7.12934 6.74923 4.38711 1.49488 1.43739 2.46487
threshold=0.52593487942999406 0.33922646886875191 0.13475964698464346 -0.35256410256410248 -0.060800000000000021 12.500000000000002 0.054304361594996638
decision_type=2 2 8 2 2 2 8
left_child=1 -1 4 -4 -3 6 -2
right_child=5 2 3 -5 -6 -7 -8
leaf_value=-0.0047636741454250469 0.0018909314006405253 -0.00070729119804074599 0.0046198460624944995 -0.00010974707772982226 -0.0030701184698336773 0.00020406836102509996 0.0058964662537151474
leaf_weight=22.996547167189419 16.244560316205025 18.982661271467805 8.0603344924747926 47.009641363285482 41.317675151862204 6.639002136886119 13.991111412644388
leaf_count=259 109 76 35 325 317 72 140
internal_value=-0.000558618 -0.00162576 -0.000954803 0.000564727 -0.00238606 0.00332597 0.00390977
internal_weight=175.242 138.367 115.37 55.07 60.3003 36.8747 30.2357
internal_count=1333 1012 753 360 393 321 249
is_linear=0
shrinkage=0.00619462


Tree=75
num_leaves=8
num_cat=0
split_feature=14 6 19 20 8 10 8
split_gain=3.96995 7.79318 5.92154 4.52334 4.41473 3.705 3.35102
threshold=0.47908632553071179 0.61270000000000013 1.0000000180025095e-35 0.70925000000000016 0.40856993054173446 0.38941240793871129 0.39957924000741291
decision_type=8 10 10 10 2 2 2
left_child=1 3 -2 4 -1 -3 -7
right_child=2 5 -4 -5 -6 6 -8
leaf_value=-0.010648854563520225 -0.0034639027473177594 -0.0090637375046154645 0.014415499119913723 -0.023072639781224643 -0.0017316976356833436 -0.0057216911514953407 0.0066905341539020956
leaf_weight=24.449190497398376 9.2987214513123053 5.7416156781837335 10.294814508408306 3.8149884641170493 56.834536153823137 6.4230383224785319 37.647191144526005
leaf_count=327 139 54 30 7 401 51 316
internal_value=-0.00136907 -0.00246516 0.00560703 -0.00564053 -0.00457051 0.00278756 0.00463057
internal_weight=154.504 134.911 19.5935 85.0987 81.2837 49.8118 44.0702
internal_count=1325 1156 169 735 728 421 367
is_linear=0
shrinkage=0.0171604


Tree=76
num_leaves=8
num_cat=0
split_feature=8 15 8 7 20 6 18
split_gain=17.3334 5.78762 1.80871 2.27515 1.07146 1.0461 0.484271
threshold=0.46992491123795072 1.0000000180025095e-35 0.33922646886875191 0.44875331415355113 0.39715000000000006 0.24015000000000006 0.55095000000000016
decision_type=2 10 2 2 10 10 8
left_child=2 -2 -1 4 -4 -3 -7
right_child=1 5 3 -5 -6 6 -8
leaf_value=-0.0132269905626883 0.018206986090508463 -0.0057306789560517858 0.002105038003904379 -0.010386691857403148 -0.0057226024158965978 2.900087251495908e-05 0.0066425511547320406
leaf_weight=18.89955413620919 31.802569751627743 4.7353770937770596 29.182777651585639 22.453136764466763 15.971283823251722 7.5469715911895028 30.244951333850622
leaf_count=264 60 65 323 152 30 68 379
internal_value=0.00128019 0.0101398 -0.00620433 -0.00397791 -0.000431908 0.00368532 0.00524916
internal_weight=160.837 74.3299 86.5068 67.6072 45.1541 42.5273 37.7919
internal_count=1341 572 769 505 353 512 447
is_linear=0
shrinkage=0.0249555


Tree=77
num_leaves=8
num_cat=0
split_feature=2 16 11 14 18 6 17
split_gain=5.64448 3.40805 2.76228 2.68739 6.01799 1.16296 0.339472
threshold=-0.30384999999999995 15.500000000000002 0.43215434083601295 -0.017321102090918358 0.69950000000000012 0.72384598014946511 0.44104789197444921
decision_type=2 2 2 8 10 8 8
left_child=2 3 5 6 -5 -1 -2
right_child=1 -3 -4 4 -6 -7 -8
leaf_value=-0.0039426114684594313 -0.0077955729748460387 -0.020489218572073638 0.018137339247824309 -0.0040705619605817655 0.0094273421243763391 0.01246194570768127 -5.297677558905367e-05
leaf_weight=8.0851199887692911 35.592595728114247 5.9551324732601634 13.138638965785503 55.487972675822675 32.909041922539473 3.3135943636298189 7.4998084520921102
leaf_count=87 285 73 27 409 351 39 78
internal_value=-0.00047734 -0.00255329 0.0104434 -0.00156361 0.000837972 0.000197284 -0.00672805
internal_weight=161.982 137.445 24.5374 131.489 88.397 11.3987 43.0924
internal_count=1349 1196 153 1123 760 126 363
is_linear=0
shrinkage=0.0252806


Tree=78
num_leaves=8
num_cat=0
split_feature=9 6 15 15 19 17 6
split_gain=27.4423 5.10082 9.84395 2.18302 1.28966 1.37516 0.888257
threshold=0.38103225304075977 0.43010000000000009 4.5000000000000009 23.500000000000004 0.72845000000000015 0.34368249773979193 1.0000000180025095e-35
decision_type=2 10 8 8 10 8 10
left_child=6 2 -2 -4 5 -3 -1
right_child=1 4 3 -5 -6 -7 -8
leaf_value=-0.0005800231638470357 -0.0044792884667066704 0.0020106715527174915 -0.00043044703283445969 0.0028654706330111883 -0.00031384390646118943 0.0042138494414766239 -0.0052371937208049524
leaf_weight=3.6242654621601096 14.918585217557846 53.57663962803781 10.466396175324915 24.387466952204704 4.1216480135917655 23.447493622079492 32.826443276368082
leaf_count=45 174 400 130 49 6 189 328
internal_value=0.000110229 0.00153496 -5.58847e-05 0.00178355 0.00254696 0.00274704 -0.00486335
internal_weight=167.369 130.918 49.7724 34.8539 81.1458 77.0241 36.4507
internal_count=1321 948 353 179 595 589 373
is_linear=0
shrinkage=0.0065711


Tree=79
num_leaves=8
num_cat=0
split_feature=6 8 22 17 22 20 20
split_gain=6.26775 6.11563 7.41761 6.02528 4.28362 6.05184 5.67209
threshold=0.71220000000000006 0.41988331650725663 4.5000000000000009 0.17660948634147647 3.5000000000000004 0.5968500000000001 0.63595000000000013
decision_type=8 2 8 8 10 8 10
left_child=1 -1 -3 -4 5 -2 -6
right_child=4 2 3 -5 6 -7 -8
leaf_value=-0.011126581816160514 -0.021676060619544576 -0.012687757578481996 -0.007251612544355579 0.0054472291236532461 0.012216179006408532 0.002893975322777226 -0.0062587567978286589
leaf_weight=31.770077649503946 4.2403721809387207 15.490192487835882 17.972852801904082 44.713261596858501 25.074641816318039 11.739200283773242 6.5224760174751273
leaf_count=399 8 26 129 366 239 158 11
internal_value=-0.00165108 -0.00416982 -0.00116852 0.00161964 0.00395178 -0.00352632 0.00804113
internal_weight=157.523 109.946 78.1763 62.6861 47.5767 15.9796 31.5971
internal_count=1336 920 521 495 416 166 250
is_linear=0
shrinkage=0.0189226


Tree=80
num_leaves=8
num_cat=0
split_feature=8 14 16 8 21 5 18
split_gain=6.25108 5.04199 3.60905 4.24392 4.40059 2.37934 1.58449
threshold=0.4458089018677211 0.19291138286885043 15.500000000000002 0.55336066405070217 7.5000000000000009 7.5000000000000009 0.65570000000000006
decision_type=2 8 2 2 8 2 10
left_child=1 -1 3 -2 -5 6 -3
right_child=2 5 -4 4 -6 -7 -8
leaf_value=-0.012371665059463962 0.0014488272906400279 -0.016066346714388509 -0.013090494728152137 0.0019712035544777445 0.022367972260131864 0.0058186705528321366 0.0011197510094121778
leaf_weight=33.242207754403353 60.143280589953065 5.8161737872287649 5.830123681575059 13.325432637706401 14.384728475473819 20.985465031117201 3.7717205435037613
leaf_count=392 376 80 60 105 143 123 51
internal_value=0 -0.00585467 0.00398675 0.00534137 0.0131761 0.00091257 -0.00831134
internal_weight=157.499 63.8156 93.6836 87.8534 27.7102 30.5734 9.58789
internal_count=1330 646 684 624 248 254 131
is_linear=0
shrinkage=0.0243536


Tree=81
num_leaves=8
num_cat=0
split_feature=9 9 2 14 20 3 14
split_gain=6.95572 8.17013 2.86645 2.61457 3.29814 1.91545 1.53122
threshold=0.47331820187882229 0.38391206938830297 -0.44229999999999997 0.093054759201554524 0.15210000000000004 0.85993717277486914 0.034426552087076519
decision_type=2 2 2 8 10 2 8
left_child=1 -1 -3 4 -2 -5 -4
right_child=3 2 6 5 -6 -7 -8
leaf_value=-0.011974165570976563 -0.0031540907788922211 0.0128758321093486 -0.0055889832231840013 0.0023748092291747077 0.0087843495031936468 0.015646207096155867 0.0019628618406823221
leaf_weight=32.494915705174208 22.914627693593502 7.3884484115988007 17.87378897331655 10.338249829597773 16.939564108848572 14.967162139713762 31.418303750455379
leaf_count=396 242 31 155 140 25 132 220
internal_value=0.000156937 -0.00359685 0.00108362 0.00544207 0.00171403 0.0107652 -0.000592913
internal_weight=154.335 89.1755 56.6805 65.1596 39.8542 25.3054 49.2921
internal_count=1341 802 406 539 267 272 375
is_linear=0
shrinkage=0.0211309


Tree=82
num_leaves=8
num_cat=0
split_feature=0 9 19 14 5 21 19
split_gain=4.52633 15.6269 4.79263 3.36608 2.54685 2.68041 2.18167
threshold=0.75311355311355321 0.38103225304075977 0.63325000000000009 -0.083278320544125636 55.500000000000007 11.500000000000002 0.57390000000000019
decision_type=2 2 10 10 2 8 10
left_child=1 -1 3 -3 5 -2 -6
right_child=4 2 -4 -5 6 -7 -8
leaf_value=-0.0038169747597768923 0.0009729061072524071 -0.00040946912378382226 -0.0028375301620665212 0.0015495367719618378 -0.0017457185557244958 0.0052360083271808166 0.0018414116416849912
leaf_weight=29.639825174584985 12.84839894808829 35.691902156919241 10.059459857642649 54.772433307953179 8.6399051286280173 6.7071750657632938 7.6081304103136054
leaf_count=325 111 275 17 472 51 54 21
internal_value=-0.000133851 -0.00059038 0.000350999 0.00075001 0.00143886 0.0026549 6.63067e-06
internal_weight=165.967 130.164 100.524 90.4643 35.8036 19.5556 16.248
internal_count=1326 1089 764 747 237 165 72
is_linear=0
shrinkage=0.00510669


Tree=83
num_leaves=8
num_cat=0
split_feature=9 15 14 17 11 6 14
split_gain=17.1151 3.50167 7.3522 3.4464 3.38788 2.14183 1.50527
threshold=0.39957924000741291 1.0000000180025095e-35 -0.030869914721096067 0.25198709964752203 0.43215434083601295 0.51830000000000009 0.29444213522203883
decision_type=2 10 10 8 2 8 10
left_child=4 3 5 -2 6 -3 -1
right_child=1 2 -4 -5 -6 -7 -8
leaf_value=-0.0032811777522252792 0.0053775538062618934 -0.0039749496496736441 0.0029180133197773176 0.0010666157131503863 -0.0075877744250011422 0.00051109568784178823 0.0011476963887509927
leaf_weight=18.63943830225617 28.699555176310241 20.107134034857157 38.146850563585758 26.365392490290105 14.358786244876681 8.431904895231126 5.0846756640821686
leaf_count=326 50 215 475 49 59 103 56
internal_value=0.000349501 0.00187525 0.000531271 0.003411 -0.0043779 -0.0025152 -0.00215933
internal_weight=159.834 121.751 66.6859 55.0649 38.0829 28.539 23.7241
internal_count=1333 892 793 99 441 318 382
is_linear=0
shrinkage=0.00820663


Tree=84
num_leaves=8
num_cat=0
split_feature=8 15 5 0 15 15 5
split_gain=12.2727 4.50304 1.97651 1.24926 3.18026 0.458944 0.340954
threshold=0.40856993054173446 3.5000000000000004 184.50000000000003 0.54008333333333336 23.500000000000004 7.5000000000000009 40.500000000000007
decision_type=2 8 2 2 8 10 2
left_child=3 6 5 4 -1 -3 -2
right_child=1 2 -4 -5 -6 -7 -8
leaf_value=-0.0096869834988401321 -0.0014629737496038879 0.012568295120638973 -0.0063132925917925584 -0.00079801498291250626 -0.033287611295451762 0.0036511003410603675 -0.0098279102774663334
leaf_weight=20.695904836058617 22.291509132832289 60.510596474632621 6.6214691363275042 6.9223464690148822 12.598813081160186 14.49812890216708 12.005272276699541
leaf_count=363 287 273 32 55 62 163 135
internal_value=-0.000508198 0.00501485 0.00942767 -0.0166982 -0.019484 0.0110971 -0.00496316
internal_weight=156.144 115.927 81.6302 40.2171 33.2947 75.0087 34.2968
internal_count=1370 890 468 480 425 436 422
is_linear=0
shrinkage=0.0341051


Tree=85
num_leaves=8
num_cat=0
split_feature=14 22 10 14 22 10 22
split_gain=11.1149 4.10941 2.54261 2.04385 2.43287 1.84966 0.609539
threshold=0.16783584747457661 4.5000000000000009 0.45303830361370062 0.2302197649499704 12.500000000000002 0.5643852900602413 2.5000000000000004
decision_type=10 8 2 10 10 2 10
left_child=1 -1 -3 4 -2 -4 -5
right_child=3 2 5 6 -6 -7 -8
leaf_value=-0.0065138986672276808 0.012329437836314206 -0.0031576283782891739 0.0027588786097036402 -0.00072881699119693483 0.002253392786466372 -0.0013298919276660962 0.0026491897864169252
leaf_weight=20.719065804034472 5.7342963460832834 41.194645561277866 19.675718834623694 4.1111017223447588 7.4400208350270969 27.499625778757036 27.75266913510859
leaf_count=43 13 515 213 29 98 170 234
internal_value=-0.000520116 -0.00234358 -0.00127521 0.0037563 0.00729475 0.000276898 0.00204653
internal_weight=154.127 109.089 88.37 45.0381 13.1743 47.1753 31.8638
internal_count=1315 941 898 374 111 383 263
is_linear=0
shrinkage=0.0104122


Tree=86
num_leaves=8
num_cat=0
split_feature=9 8 11 14 14 14 19
split_gain=6.25992 10.8239 3.41194 4.44171 3.49986 2.98037 2.59496
threshold=0.30034629933000218 0.4627729456380667 0.43215434083601295 0.2191810691318328 -0.030869914721096067 0.1010920128214174 0.45695000000000002
decision_type=2 2 2 10 10 8 8
left_child=-1 5 3 -3 -4 6 -2
right_child=1 2 4 -5 -6 -7 -8
leaf_value=-0.0051985298631567131 -0.00011630458598581192 -0.00049599447186957817 0.0044700979828199462 0.0045927793877261246 0.00064814917633036523 -0.00050482337607712805 -0.004109152575081855
leaf_weight=8.2729624062776548 9.7575371228158456 37.908064608462155 20.048095088452101 6.6450275219976893 18.124055222608149 40.3336276486516 23.338579225353897
leaf_count=114 62 409 38 97 67 305 252
internal_value=-0.000307762 -1.19267e-05 0.00144964 0.000244683 0.00275944 -0.00169726 -0.00303507
internal_weight=164.428 156.155 82.7252 44.5531 38.1722 73.4297 33.0961
internal_count=1344 1230 611 506 105 619 314
is_linear=0
shrinkage=0.00599089


Tree=87
num_leaves=8
num_cat=0
split_feature=6 8 8 19 20 19 8
split_gain=8.76948 5.76999 4.34615 4.19529 11.6759 3.67066 0.49301
threshold=0.64000127418860553 0.37089587035313371 0.38103225304075977 0.47045000000000003 0.33510000000000006 0.54020000000000012 0.49459124505762037
decision_type=10 2 2 8 10 8 2
left_child=1 -1 -2 4 -3 -5 -4
right_child=2 3 6 5 -6 -7 -8
leaf_value=-0.017571754221082724 -0.0087651277477017384 -0.0066840957369679972 0.0079313424386397418 -0.014019603099633605 0.023113974986531421 -0.00068283817380744138 0.016152204081518823
leaf_weight=17.792725482955575 6.6581188403069964 19.620010268874466 22.921055885031819 21.919742969796062 13.630761623382567 38.85180613771081 17.371333627030253
leaf_count=281 60 120 147 195 22 312 217
internal_value=-0.000457033 -0.00441627 0.00864379 -0.00170739 0.0053226 -0.00577501 0.0119389
internal_weight=158.766 111.815 46.9505 94.0223 33.2508 60.7715 40.2924
internal_count=1354 930 424 649 142 507 364
is_linear=0
shrinkage=0.0255259


Tree=88
num_leaves=8
num_cat=0
split_feature=8 9 2 3 3 6 19
split_gain=6.34007 10.1267 3.05869 4.98563 1.26605 4.81696 4.53745
threshold=0.4534953400227405 0.3938652242717639 -0.03987812499999998 1.9625350140056026 0.57141428571428576 0.78972500000000012 0.55765000000000009
decision_type=2 2 2 2 2 8 10
left_child=1 -1 -3 -4 -2 6 -6
right_child=4 2 3 -5 5 -7 -8
leaf_value=-0.0052756449204548438 -0.00093254274413717578 0.004173139596635048 0.0017540465942981586 -0.0048061869791476888 0.0018901097361096362 0.0057865600460183207 -0.0034066408923698862
leaf_weight=34.63270399812609 12.369174705818294 11.349209643900393 19.466090371832255 11.780822243541477 41.852321704849601 14.761988365091382 13.73561506718397
leaf_count=405 152 60 181 40 280 125 83
internal_value=-0.00029925 -0.00200356 0.000590408 -0.000628106 0.0012452 0.00169287 0.000487282
internal_weight=159.948 77.2288 42.5961 31.2469 82.7191 70.3499 55.5879
internal_count=1326 686 281 221 640 488 363
is_linear=0
shrinkage=0.00820988


Tree=89
num_leaves=8
num_cat=0
split_feature=8 7 13 13 20 19 14
split_gain=12.0967 7.85507 3.41117 3.12812 2.71357 1.0577 0.783318
threshold=0.39957924000741291 0.44875331415355113 0.088321164021163981 0.12606282051282058 0.56400000000000017 0.44235000000000008 0.25303231942442495
decision_type=2 2 8 10 8 8 8
left_child=2 5 -1 6 -5 -2 -3
right_child=1 3 -4 4 -6 -7 -8
leaf_value=-0.021963795418678274 0.02643960889262157 -0.003804400076326112 -0.0033529757414939541 0.029821070473629346 0.0038692429878890615 0.011643922495167214 0.002779556640069931
leaf_weight=17.041597440838814 7.3985297530889538 54.714405645616353 14.889254821464421 3.3467376828193665 17.297082449309531 21.685293703339994 13.60520057287067
leaf_count=237 17 395 174 6 188 197 97
internal_value=0.000385191 0.00439529 -0.0138514 0.000307429 0.00932712 0.016225 -0.00228346
internal_weight=149.978 118.047 31.9309 88.9634 20.6438 29.0838 68.3196
internal_count=1311 900 411 686 194 214 492
is_linear=0
shrinkage=0.0265318


Tree=90
num_leaves=8
num_cat=0
split_feature=9 0 7 22 22 14 11
split_gain=9.87362 2.96259 10.4929 9.80901 2.53551 1.49445 1.35742
threshold=0.38103225304075977 0.77778888888888897 0.41023861905567788 4.5000000000000009 12.500000000000002 0.30731767027185036 0.43215434083601295
decision_type=2 2 2 8 8 10 2
left_child=6 2 4 -4 -2 -3 -1
right_child=1 5 3 -5 -6 -7 -8
leaf_value=-0.010317784703024789 0.045855434045759709 0.015716959398385896 -0.023513748120087101 0.00055692675284423033 0.012334282591209854 4.5643533843034269e-05 -0.026271379472603641
leaf_weight=17.738081721123308 3.6334670856595039 16.796857649460438 18.149929128587246 74.926034329459071 8.7065477734431607 5.1257475186139336 11.844202140346171
leaf_count=333 6 142 30 671 107 22 49
internal_value=-0.00203169 0.00150587 -0.000460145 -0.00408549 0.0246902 0.0114138 -0.017507
internal_weight=156.921 127.339 105.416 93.076 12.34 21.9226 29.5823
internal_count=1360 978 814 701 113 164 382
is_linear=0
shrinkage=0.0300101


Tree=91
num_leaves=8
num_cat=0
split_feature=9 14 1 2 20 20 19
split_gain=7.34597 4.46965 2.46109 5.92334 2.45454 2.21922 1.44442
threshold=0.44837457396425567 0.17964012412240674 0.46609523809523817 -0.51016260162601601 0.55785000000000007 0.41255000000000003 0.52945000000000009
decision_type=2 8 2 2 10 10 8
left_child=2 4 5 -4 6 -1 -2
right_child=1 -3 3 -5 -6 -7 -8
leaf_value=0.0028837730954551395 -0.0014626910974122464 0.0097525903702755379 0.0091753450580468795 -0.013648867016128415 -0.010897931706057264 -0.013359177294163416 0.0062975030368720066
leaf_weight=15.678810162469746 33.075606252998114 26.401850913651288 5.3162177801132193 37.33214793400839 9.3572256565093976 4.676925614476203 16.100057883188128
leaf_count=245 206 235 28 370 14 11 185
internal_value=-0.0017761 0.00233048 -0.00745811 -0.0104493 -0.000886774 -0.000589804 0.000896503
internal_weight=147.939 84.9347 63.0041 42.6484 58.5329 20.3557 49.1757
internal_count=1294 640 654 398 405 256 391
is_linear=0
shrinkage=0.0219337


Tree=92
num_leaves=7
num_cat=0
split_feature=9 14 7 15 10 2
split_gain=9.91073 3.82897 1.53797 2.24682 1.22486 0.474246
threshold=0.36588605767367427 0.13475964698464346 0.39337840124775308 3.5000000000000004 0.50000986512101953 -0.15748139983466522
decision_type=2 10 2 8 2 2
left_child=5 2 -2 -4 -3 -1
right_child=1 4 3 -5 -6 -7
leaf_value=-0.00029305840140445011 0.0035478933533969539 0.0010360050579500987 -0.001922955090354479 0.00048334392908458429 0.003792010054646652 -0.0048870259292252693
leaf_weight=2.9031214974820641 5.0351653443649402 19.288141404278576 24.75925837084651 65.20332011487335 21.314718101173639 16.449249415658414
leaf_count=35 43 220 290 343 145 252
internal_value=0.000144842 0.000830819 3.19896e-05 -0.000148467 0.00259209 -0.0043759
internal_weight=154.953 135.601 94.9977 89.9626 40.6029 19.3524
internal_count=1328 1041 676 633 365 287
is_linear=0
shrinkage=0.0069104


Tree=93
num_leaves=8
num_cat=0
split_feature=8 20 20 21 13 5 21
split_gain=2.35429 4.19314 2.79372 1.74073 2.72066 0.809072 0.605726
threshold=0.4458089018677211 0.33510000000000006 0.59135000000000015 2.5000000000000004 -0.031599999999999955 5.5000000000000009 6.5000000000000009
decision_type=2 8 8 10 10 2 8
left_child=1 -1 -2 6 -5 -4 -3
right_child=2 3 5 4 -6 -7 -8
leaf_value=-0.024854110143843772 0.0078556249778678096 -0.0013563103358865242 0.0041738811928059474 -0.013691476996397653 -1.227155224510911e-05 -0.001900489969091603 0.0048543568110413406
leaf_weight=3.9031031876802444 28.53415784239769 10.573846090584995 13.201532484963534 11.930871064774694 17.525123912841082 50.371476592496037 16.519872981589288
leaf_count=10 48 47 185 190 198 486 205
internal_value=-0.00014851 -0.00365774 0.00204094 -0.00177788 -0.00563264 -0.000435258 0.00203329
internal_weight=152.56 60.4528 92.1072 56.5497 29.456 63.573 27.0937
internal_count=1369 650 719 640 388 671 252
is_linear=0
shrinkage=0.0225749


Tree=94
num_leaves=8
num_cat=0
split_feature=8 0 17 20 20 18 14
split_gain=9.35706 4.35713 4.1965 3.95262 3.77688 1.06952 1.87373
threshold=0.42749124244948172 0.81029411764705894 0.46768786013126379 0.52060000000000006 0.55055000000000009 0.55095000000000016 0.35879746165849907
decision_type=2 2 8 8 8 8 8
left_child=3 2 4 -1 -2 -5 -7
right_child=1 -3 -4 5 -6 6 -8
leaf_value=-0.019806075563873243 0.007474496118860763 0.014309836167274905 0.014773302832106403 0.0040648038234582812 -0.0025101042596585412 -0.0078808820464374204 0.0020297619336004753
leaf_weight=8.2535300403833372 21.88125616312027 14.336409164592622 9.0712107326835376 4.412672532722353 54.626579135656357 27.942149141337726 8.9143530121073074
leaf_count=23 35 120 67 59 517 386 106
internal_value=0.000242921 0.00393088 0.00199499 -0.00695279 0.000247585 -0.00392876 -0.00520708
internal_weight=149.438 99.9155 85.579 49.5227 76.5078 41.2692 36.8565
internal_count=1313 739 619 574 552 551 492
is_linear=0
shrinkage=0.0205937


Tree=95
num_leaves=8
num_cat=0
split_feature=14 17 8 17 17 0 15
split_gain=4.32445 10.2658 6.73196 3.69987 4.69204 3.39706 2.15808
threshold=-0.074936312679238712 0.11767427250742914 0.39957924000741291 0.18525714427232745 0.28345085680484777 0.54008333333333336 18.500000000000004
decision_type=8 10 2 10 10 2 8
left_child=5 2 -2 -3 -5 -1 -7
right_child=1 3 -4 4 -6 6 -8
leaf_value=-0.014746871501962949 -0.0088770744158702883 -0.014967393237328163 0.02619862884088564 0.0090521868545375 -0.005015184685784671 -0.0066357349601295339 0.012552762209692548
leaf_weight=25.08261735085398 4.0715234298259046 13.64073919970542 16.378906730562449 26.022390152327716 47.441076061688364 9.968710873275997 6.2999542634934178
leaf_count=233 47 124 103 227 452 110 17
internal_value=-0.00125139 0.00148781 0.0184183 -0.00242303 -1.78295e-06 -0.00862347 0.000139666
internal_weight=148.906 107.555 20.4504 87.1042 73.4635 41.3513 16.2687
internal_count=1313 953 150 803 679 360 127
is_linear=0
shrinkage=0.0268829


Tree=96
num_leaves=8
num_cat=0
split_feature=6 9 9 20 20 15 14
split_gain=10.1932 7.82302 4.19302 5.05675 2.6115 2.04431 1.54567
threshold=0.70027500000000009 0.4627729456380667 0.43362305734190792 0.7228500000000001 0.55055000000000009 21.000000000000004 0.084728972058868937
decision_type=10 2 2 8 8 8 8
left_child=1 2 3 -1 -3 -2 -6
right_child=5 4 -4 -5 6 -7 -8
leaf_value=-0.0070196814664135014 0.0046894481782412132 0.0030546936344083373 0.00027347475669548644 -0.0019104350350804798 -0.00087138117075493608 0.001111313753556901 0.0019717135025584349
leaf_weight=13.629426330327986 19.574166523292661 16.604954570531845 15.306203745305536 31.82265089545399 29.535290386527777 16.34068560693413 11.43942377809435
leaf_count=35 235 26 97 478 244 49 130
internal_value=6.11627e-05 -0.000869195 -0.00255397 -0.00357605 0.000856441 0.00318507 1.4999e-06
internal_weight=154.253 118.338 60.7583 45.4521 57.5797 35.9149 40.9747
internal_count=1294 1010 610 513 400 284 374
is_linear=0
shrinkage=0.00671717


Tree=97
num_leaves=8
num_cat=0
split_feature=8 9 11 20 6 6 6
