tree
version=v4
num_class=1
num_tree_per_iteration=1
label_index=0
max_feature_idx=22
objective=binary sigmoid:1
feature_names=hit_rate_lifetime hit_rate_recent momentum avg_freq recency n_samples_lifetime kalshi_odds hit_rate_word_global hit_rate_word_in_event_type hit_rate_speaker_event_type hit_rate_credibility event_type_prior word_rank market_vs_history market_vs_word_prior days_since_last_event events_in_last_30d topic_match rel_max rel_mean rel_top3_mean rel_count_hi rel_n
feature_infos=[0.015384615384615385:1] [0.015384615384615385:1] [-0.96153846153846156:0.88135593220338981] [0.046153846153846156:107.07317073170732] [0.25519999999999998:0.99999997912883587] [2:201] [0.044105360616486677:0.95991210182955422] [0.17049108447822275:0.69397937687105005] [0.065573494030085666:0.7426211331633219] [0.065573494030085666:0.7426211331633219] [0.11559482276717356:0.90711967158924811] [0.37614136196182479:0.60247219440198196] [1:999] [-0.93745734106261858:0.83461538461538454] [-0.53596262057877808:0.57488569131832801] [1:139] [0:17] [0.0026121539995074272:0.8154754638671875] [0.1164:0.92689999999999995] [0.1164:0.76670000000000005] [0.1164:0.79310000000000003] [1:15] [1:20]
tree_sizes=987 990 985 1001 997 1003 998 1000 998 999 1002 1005 1006 1003 1006 988 1003 999 893 997 999 998 1005 1007 1009 1004 1002 996 1001 1002 1003 996 1006 1006 1002 1003 1011 1004 1015 1006 1002 995 994 1000 997 1011 1010 991 1011 1005 1006 1009 1003 1005 1010 1003 994 1004 1005 1005 1006 1004 994 1010 1003 893 1003 999 1003 908 1004 1013 1009 1008 1009 1000 1010 988 1006 1006 907 1008 1012 1000 1015 1013 1008 1010 996 1009 1015 993 895 996 1007 1008 1013 1011 1014 998 997 797 1006 1009 1020 896 1015 1002 1003 893 997 1003 999 1013 1002 1007 1007 1016 1006 1018 1018 889 1001 1013 995 1010 1019 1003 1016 1013 898 999 897 999 1011 1003 1016 1014 1005 1002 1015 1005 996 1011 999 1019 1004 1008 914 999 1006 1008 1020 998 997 1006 1001 1007 1004 897 1016 1010 1012 997 996 883 904 1017 1011 1018 1003 1001 905 1006 804 1010 1017 1010 996 1006 1008 1005 1011 996 1014 906 1008 1014 1021 1010 1001 1022 1003 913 891 995 898 1002 909 997 1017 1006 1010 1002 1018 1004 993 1001 994 1001 1015 1001 782 793 1013 1007 1013 898 1007 1006 1020 1016 1021 898 991 1016 999 1005 1015 999 1013 1010 467 1026 1002 1021 1017 1005 1006 786 689 1005 1021 1010 1003 1017 1023 791 1019 991 1020 900 916 895 917 1020 1026 1017 1011 804 1018 1004 995 998 1004 1014 1022 1027 902 682 897 907 1015 1019 1000 1008 1002 1010 1016 996 905 1017 802 1007 1018 1016 1009 915 1028 899 911 1009 1004 918 1014 673 905 1017 996 912 809 1016 1015 900 1021 917 910 1024 1008 1004 1021 1018 1007 1015 909 1026 1021 1005 1003 1016 1000 1013 1021 1014 1024 1020 997 1011 994 793 1017 1030 1021 896 1024 793 905 898 991 1014 1008 1022 1010 579 1022 1022 582 1017 1017 995 1019 1020 1019 893 1024 990 1016 1027 1015 996 1006 800 1001 919 999 1002 1003 1004 790 997 1016 1023 1021 1014 996 882 1003 1018 1014 994 693 807 911 1023 1023 1001 990 1015 1016 1019 999 1024 995 896 795 784 814 888 797 998

Tree=0
num_leaves=8
num_cat=0
split_feature=7 6 8 2 14 14 20
split_gain=102.905 56.6983 26.8092 16.4761 9.82115 5.73179 5.19764
threshold=0.41023861905567788 0.6655500000000002 0.51167956189710628 0.0131372549019608 -0.11888161894072675 0.19291138286885043 0.5968500000000001
decision_type=2 8 2 2 8 8 8
left_child=3 2 4 -1 -2 -5 -4
right_child=1 -3 6 5 -6 -7 -8
leaf_value=-0.04285304328067617 -0.042435175419832126 -0.014617765931232561 -0.015014792847260809 -0.036188224729607345 -0.03140363785367592 -0.021725191655107064 -0.025881824787032093
leaf_weight=66.070773111656308 16.092726778239012 51.884869610890746 11.127524077892302 6.165389455854891 34.041316024959087 6.7097889017313719 16.870583860203627
leaf_count=435 114 356 15 29 216 33 157
internal_value=-0.0301948 -0.023892 -0.0301807 -0.0405269 -0.0351422 -0.0291096 -0.021191
internal_weight=208.963 130.017 78.1322 78.946 50.134 12.8752 27.9981
internal_count=1355 858 502 497 330 62 172
is_linear=0
shrinkage=0.144168


Tree=1
num_leaves=8
num_cat=0
split_feature=9 6 0 14 9 6 15
split_gain=148.835 28.5941 8.95181 26.267 15.4052 2.27108 0.963381
threshold=0.43846489675642025 0.56981218119299371 0.83331666666666682 0.13475964698464346 0.53358923955434279 0.74515000000000009 6.5000000000000009
decision_type=2 8 2 10 2 10 10
left_child=1 6 3 4 -2 -3 -1
right_child=2 5 -4 -5 -6 -7 -8
leaf_value=-0.02870148207112528 -0.0016744575509593 -0.0072418716025585183 0.028374407181824327 0.027712466890303881 0.017359858292746003 0.003165573546803426 -0.015665169983958498
leaf_weight=47.078387435525656 41.289095802232623 23.681955091655254 17.196222230792046 29.320930808782578 24.862787310034037 9.8019268922507745 8.0526574533432704
leaf_count=314 223 192 96 203 177 57 68
internal_value=0.00025188 -0.0185082 0.0151121 0.0124889 0.00542461 -0.00392931 -0.027106
internal_weight=201.284 88.6149 112.669 95.4728 66.1519 33.4839 55.131
internal_count=1330 631 699 603 400 249 382
is_linear=0
shrinkage=0.0194743


Tree=2
num_leaves=8
num_cat=0
split_feature=9 14 9 7 20 9 2
split_gain=170.463 21.3104 18.6519 17.6197 11.5794 6.23792 4.18899
threshold=0.3938652242717639 0.071915112540192963 0.50586022407734377 0.41023861905567788 0.61465000000000003 0.57070530022806232 0.21971982758620698
decision_type=2 8 2 2 8 2 2
left_child=-1 2 3 -2 -4 6 -3
right_child=1 5 4 -5 -6 -7 -8
leaf_value=-0.026269946304060758 0.022728804232209937 0.018697973366662495 0.037013961385544927 -0.011404737127663305 0.0075557985961248802 0.03210798424526555 0.0030980062820611448
leaf_weight=63.733169961720705 6.6414854303002349 53.247327571734786 7.486861526966095 30.853948567062616 19.799097457900647 14.957149947062133 9.7396494243293983
leaf_count=427 36 348 10 201 164 114 52
internal_value=0.000627706 0.012766 0.00409139 -0.00481038 0.016515 0.0197901 0.0164755
internal_weight=206.459 142.726 64.7814 37.4954 27.286 77.9441 62.987
internal_count=1352 925 411 237 174 514 400
is_linear=0
shrinkage=0.0199317


Tree=3
num_leaves=8
num_cat=0
split_feature=9 14 20 14 0 9 20
split_gain=126.999 20.6259 13.7773 13.0643 4.07475 2.73548 2.07824
threshold=0.42749124244948172 0.1010920128214174 0.66450000000000009 0.19291138286885043 0.50454545454545463 0.4534953400227405 0.68365000000000009
decision_type=2 8 8 10 2 2 8
left_child=3 2 -2 -1 -4 -3 -5
right_child=1 5 4 6 -6 -7 -8
leaf_value=-0.012850836699919911 0.0098895201300086156 0.0061447917174720871 -0.0042973823548625454 -0.007072056647665529 0.0022180882684548543 0.013036613760802914 -1.1213169396666247e-05
leaf_weight=56.381999388337135 20.744360089302063 12.923399891704319 18.608212292194366 5.9023087620735168 24.220265198498964 48.078568458557129 12.892540184780957
leaf_count=413 28 62 161 8 203 318 129
internal_value=0.000631174 0.00726713 0.00286662 -0.0102656 -0.000501412 0.0117137 -0.00216414
internal_weight=199.752 124.575 63.5728 75.1768 42.8285 61.002 18.7948
internal_count=1322 772 392 550 364 380 137
is_linear=0
shrinkage=0.0106944


Tree=4
num_leaves=8
num_cat=0
split_feature=9 9 9 9 14 6 13
split_gain=62.5377 42.2832 19.6012 8.91204 6.67324 4.4699 0.380601
threshold=0.36588605767367427 0.38103225304075977 0.52593487942999406 0.48080125260591505 -0.14487952104165927 0.61270000000000013 0.16999999999999998
decision_type=2 2 2 2 8 8 10
left_child=5 -2 3 -3 -4 -1 -7
right_child=1 2 4 -5 -6 6 -8
leaf_value=-0.024776596516940291 -0.023754179112849053 8.4709420885992689e-05 0.0028661265540780418 0.011316367498926535 0.023113704718414989 -0.0096715665742242458 -0.00011532828165776741
leaf_weight=28.790939413011074 14.840655591338871 70.264694279059768 8.1510377060621959 38.454345591366291 33.122399909421802 5.41223571076989 2.9073334168642759
leaf_count=214 69 452 61 215 260 53 32
internal_value=0.0004661 0.00544175 0.00847778 0.00418161 0.0193794 -0.0211313 -0.00703503
internal_weight=201.944 164.833 149.992 108.719 41.2734 37.1105 8.31957
internal_count=1356 1057 988 667 321 299 85
is_linear=0
shrinkage=0.0186361


Tree=5
num_leaves=8
num_cat=0
split_feature=9 14 9 20 20 14 0
split_gain=79.2157 6.72691 11.67 9.68231 5.23779 2.74076 2.06321
threshold=0.39957924000741291 -0.20345200039974673 0.43846489675642025 0.74575000000000002 0.66450000000000009 0.071915112540192963 0.56620000000000015
decision_type=2 8 2 10 8 8 2
left_child=6 4 5 -4 -2 -3 -1
right_child=1 2 3 -5 -6 -7 -8
leaf_value=-0.01619284469530223 0.0086862039899991261 -0.0083707526394395521 0.0097577309535654393 -0.0089641682034348989 -0.0083124891158338002 0.0010229875790864951 -0.0047093559189254255
leaf_weight=50.927424669265747 4.4172110557556152 9.2158831935375911 89.519931389018893 5.2160754799842826 12.154547538608314 15.499471560120584 5.8641793988645068
leaf_count=391 6 72 611 7 105 106 47
internal_value=-0.000882459 0.00506192 0.00628016 0.00859346 -0.00316613 -0.00227229 -0.0151554
internal_weight=192.815 136.023 119.451 94.736 16.5718 24.7154 56.7916
internal_count=1345 907 796 618 111 178 438
is_linear=0
shrinkage=0.0144509


Tree=6
num_leaves=8
num_cat=0
split_feature=9 6 9 20 8 5 14
split_gain=80.2223 21.7507 7.3574 11.9108 6.24993 4.50662 3.51974
threshold=0.40288962596036559 0.54915000000000003 0.46481979715787719 0.59135000000000015 0.55336066405070217 10.500000000000002 0.093054759201554524
decision_type=2 8 2 8 2 2 8
left_child=6 2 -2 -4 5 -3 -1
right_child=1 4 3 -5 -6 -7 -8
leaf_value=-0.015011674603040655 -0.0065371841677047855 0.012477870595191027 0.012373442445693416 -0.0022740372623715976 0.01496853136911494 0.0041794720538729018 -0.0079276795611029054
leaf_weight=31.054554733447731 19.522587303072214 16.525562331080437 12.655235171318052 22.992945300415158 25.809232948347926 37.170643176883459 28.761701686307788
leaf_count=237 132 162 17 190 195 170 212
internal_value=0.000158182 0.00553776 -0.00038014 0.00285695 0.00970595 0.00694886 -0.0117876
internal_weight=194.492 134.676 55.1708 35.6482 79.5054 53.6962 59.8163
internal_count=1315 866 339 207 527 332 449
is_linear=0
shrinkage=0.012506


Tree=7
num_leaves=8
num_cat=0
split_feature=8 9 15 13 20 20 16
split_gain=73.6093 25.7079 6.63135 3.89395 5.67947 1.77949 0.47199
threshold=0.48412183676452175 0.40856993054173446 4.5000000000000009 -0.0145996389815759 0.59135000000000015 0.66450000000000009 14.500000000000002
decision_type=2 2 8 8 8 10 2
left_child=1 3 6 -1 -5 -3 -2
right_child=2 5 -4 4 -6 -7 -8
leaf_value=-0.015911956692498303 0.0059374010637722316 0.0014496742087166379 0.013755796715523754 -0.018266312125566841 -0.0049310831666479569 -0.0050612403909634273 0.00056149638597783507
leaf_weight=28.859049506485462 19.753162967041138 49.16510197520256 49.28635535389185 7.9955937266349792 27.805540016852319 8.1656169295310956 6.9624779149889937
leaf_count=218 212 332 220 12 270 11 68
internal_value=0.000341059 -0.00610602 0.0107459 -0.011905 -0.00832522 0.000354911 0.00483138
internal_weight=197.993 121.991 76.002 64.6602 35.8011 57.3307 26.7156
internal_count=1343 843 500 500 282 343 280
is_linear=0
shrinkage=0.0134924


Tree=8
num_leaves=8
num_cat=0
split_feature=6 8 6 17 0 16 1
split_gain=39.3447 12.2987 12.1955 8.93831 4.99135 6.73237 5.88611
threshold=0.58020000000000016 0.53358923955434279 0.69025000000000014 0.41114141047000891 0.50454545454545463 2.5000000000000004 0.46609523809523817
decision_type=8 2 10 10 2 2 2
left_child=4 2 -2 -4 6 -6 -1
right_child=1 -3 3 -5 5 -7 -8
leaf_value=-0.0038003632863934495 -0.0027743763588149875 0.021608162729186076 0.019723885812905972 -0.0052131978676127752 0.0090330297359696547 -0.010522459174864955 -0.016795088539484207
leaf_weight=26.116739337332547 39.785973779857159 25.155090631917119 25.26444449275732 6.8310170136392108 12.725971868261697 16.034267952665687 44.304789777845144
leaf_count=209 269 204 139 55 41 159 281
internal_value=-3.26494e-05 0.00923394 0.00464275 0.01404 -0.00920326 -0.0015241 -0.0121752
internal_weight=196.218 97.0365 71.8814 32.0955 99.1818 28.7602 70.4215
internal_count=1357 667 463 194 690 200 490
is_linear=0
shrinkage=0.020654


Tree=9
num_leaves=8
num_cat=0
split_feature=7 6 8 6 15 22 20
split_gain=38.4652 16.0959 11.7382 14.7504 7.89624 5.51572 3.46168
threshold=0.43149059057141997 0.55545000000000011 0.4534953400227405 0.71220000000000006 6.5000000000000009 3.5000000000000004 0.28375000000000006
decision_type=2 8 2 10 8 8 10
left_child=2 4 3 -1 -2 -3 -6
right_child=1 5 -4 -5 6 -7 -8
leaf_value=-0.015218054783509339 -0.0093079417363300439 -0.00064124052423101434 0.015890465422717458 0.0058413215942123686 -0.0039499274180936237 0.013423283513694973 0.0083896458937107888
leaf_weight=58.804779749363661 21.335765175521374 8.3178605958819372 4.2164835929870597 11.169039046391843 8.5160145238041896 60.155190862715244 20.510101497173309
leaf_count=497 217 14 23 71 59 435 28
internal_value=-2.08501e-05 0.00608389 -0.00988773 -0.0117006 -0.00124198 0.0115771 0.00443551
internal_weight=193.025 118.835 74.1903 69.9738 50.3619 68.4731 29.0261
internal_count=1344 753 591 568 304 449 87
is_linear=0
shrinkage=0.0174693


Tree=10
num_leaves=8
num_cat=0
split_feature=9 9 6 19 16 19 6
split_gain=34.4215 19.2949 23.4403 3.20874 1.23037 1.04209 0.524412
threshold=0.51821038132157171 0.37089587035313371 0.61270000000000013 0.44505000000000006 14.500000000000002 0.57390000000000019 0.37510000000000004
decision_type=2 2 8 8 2 8 8
left_child=1 6 3 -3 -2 -4 -1
right_child=4 2 5 -5 -6 -7 -8
leaf_value=-0.021232041362903947 0.014583700356355346 -0.0010536991846514623 0.011534534732489318 -0.011581077399790413 0.0013201924494874564 0.0045437504872247502 -0.012790784773878655
leaf_weight=15.999429503455756 42.802015416324139 16.392943480983377 27.717566033825278 43.427441185340285 4.3434597104787818 19.769786335527897 19.684798983857036
leaf_count=158 305 43 168 331 43 117 174
internal_value=-0.00037038 -0.00506173 -0.000922596 -0.0088683 0.0135489 0.00887993 -0.0170549
internal_weight=190.137 142.992 107.308 59.8204 47.1455 47.4874 35.6842
internal_count=1339 991 659 374 348 285 332
is_linear=0
shrinkage=0.0190008


Tree=11
num_leaves=8
num_cat=0
split_feature=8 9 13 13 0 18 21
split_gain=29.5238 27.4909 5.89768 5.06749 3.86144 3.05711 1.18355
threshold=0.52593487942999406 0.43362305734190792 1.0000000180025095e-35 0.079267801103661897 0.63423734983618496 0.71330000000000016 2.5000000000000004
decision_type=2 2 8 8 2 10 10
left_child=1 2 -1 6 -5 -2 -3
right_child=5 3 -4 4 -6 -7 -8
leaf_value=-0.018616087472682879 0.017301427647202244 0.0026924931837833 -0.0069421767956652216 0.0051116015127092903 0.020957246823539596 0.0024509587618352425 -0.0039742996583534695
leaf_weight=35.226697072386742 32.36039318703115 19.811620915308595 40.475406585261226 24.899411769583821 8.7728584706783277 8.4338493552058917 19.281470146030188
leaf_count=273 256 79 330 175 33 66 142
internal_value=-0.00015536 -0.00428733 -0.0125825 0.00423105 0.00977724 0.0144961 -0.000346957
internal_weight=189.262 148.467 75.7021 72.7654 33.6723 40.7942 39.0931
internal_count=1354 1032 603 429 208 322 221
is_linear=0
shrinkage=0.0196876


Tree=12
num_leaves=8
num_cat=0
split_feature=9 14 14 7 15 10 16
split_gain=53.9788 12.685 6.26547 5.34096 2.46712 2.30898 0.436158
threshold=0.41988331650725663 0.25303231942442495 0.28129267693721072 0.41023861905567788 23.500000000000004 0.57570034078758603 9.5000000000000018
decision_type=2 8 8 2 8 2 2
left_child=2 3 4 -2 -1 -4 -5
right_child=1 -3 5 6 -6 -7 -8
leaf_value=-0.0070411304538267397 0.011764204809461484 0.0090711597383082189 -0.0043465610651610923 0.0014324243932566534 -0.012935314448710631 0.0031490585807177713 -5.0654216810139176e-06
leaf_weight=26.601411197334528 4.4318358041346064 32.069177057594061 15.757348194718363 65.455473719164729 18.492342842742801 4.1900323051959267 21.164709754288197
leaf_count=322 18 210 143 368 50 12 203
internal_value=-0.000201857 0.00367061 -0.00757716 0.00167468 -0.00968157 -0.00248919 0.00102562
internal_weight=188.162 123.121 65.0411 91.052 45.0938 19.9474 86.6202
internal_count=1326 799 527 589 372 155 571
is_linear=0
shrinkage=0.0100305


Tree=13
num_leaves=8
num_cat=0
split_feature=8 14 9 16 0 19 15
split_gain=45.5208 13.0548 9.16446 4.92461 5.77255 3.556 3.55291
threshold=0.41391473188954042 0.26467553731595878 0.4534953400227405 12.500000000000002 0.51470805617147075 0.53415000000000001 93.500000000000014
decision_type=2 10 2 2 2 10 8
left_child=1 -1 5 4 -4 6 -2
right_child=2 -3 3 -5 -6 -7 -8
leaf_value=-0.0099652316252408623 -0.0010804330657182423 0.0024843704964786131 0.0034891355965707581 2.9953266516065831e-05 0.0097391370316577928 -0.0036783075255659207 0.0086189015983372426
leaf_weight=47.068965451791883 8.4792496170848572 11.921335233375428 36.528258331120014 14.733019992709158 45.789176685735583 19.269596382975578 7.3827376589179048
leaf_count=412 94 82 213 146 302 84 13
internal_value=0.000649534 -0.00733948 0.00427311 0.00602061 0.00706838 -0.000402267 0.00320647
internal_weight=191.172 58.9903 132.182 97.0505 82.3174 35.1316 15.862
internal_count=1346 494 852 661 515 191 107
is_linear=0
shrinkage=0.0110489


Tree=14
num_leaves=8
num_cat=0
split_feature=8 6 6 15 6 19 20
split_gain=59.651 12.2971 9.60016 7.3754 5.45895 6.25421 5.04819
threshold=0.42749124244948172 0.41145000000000004 0.60005000000000019 10.500000000000002 0.6655500000000002 0.45575000000000004 0.51485000000000014
decision_type=2 8 10 8 8 10 10
left_child=2 3 -1 -2 5 -3 -4
right_child=1 4 6 -5 -6 -7 -8
leaf_value=-0.0085776733911872485 -0.0063628635910184302 0.0078920777074851702 0.0017505867994154684 0.0027502537501647162 0.0079529118840941781 0.00015668695188605306 -0.0084456166981546343
leaf_weight=51.63513594865799 12.150032192468645 14.429488351568578 15.185777800157668 18.214169889688492 52.265069477260113 26.171660982072353 4.9857423901557913
leaf_count=435 119 69 132 44 349 191 7
internal_value=0.000259497 0.00421693 -0.00644691 -0.000783173 0.00590329 0.00309134 -0.000725994
internal_weight=195.037 123.23 71.8067 30.3642 92.8662 40.6011 20.1715
internal_count=1346 772 574 163 609 260 139
is_linear=0
shrinkage=0.00933762


Tree=15
num_leaves=8
num_cat=0
split_feature=8 6 6 2 8 20 9
split_gain=51.5867 18.1941 3.28559 2.9084 9.43404 3.25541 1.92429
threshold=0.40288962596036559 0.73583037658828399 0.69025000000000014 -0.16669999999999996 0.4534953400227405 0.27065 0.46481979715787719
decision_type=2 8 8 2 2 10 2
left_child=2 3 -1 5 -5 -2 -3
right_child=1 6 -4 4 -6 -7 -8
leaf_value=-0.012154985797916811 -0.0024212342283431959 0.0032036441024987472 -0.0051703304947200174 -0.0091248745128874945 -3.1880737754124537e-06 0.0051723211317091997 0.0092370160918903415
leaf_weight=45.795032519847155 9.9795037824660557 12.976120667532085 14.399541405960916 17.317641410976648 50.851909678429365 14.427397072315214 26.927680401131511
leaf_count=348 88 79 108 136 362 20 207
internal_value=-0.0023533 0.00138829 -0.0106154 -0.0011954 -0.00237511 0.00185035 0.00745714
internal_weight=192.675 132.48 60.1946 92.5765 68.1696 24.4069 39.9038
internal_count=1348 892 456 606 498 108 286
is_linear=0
shrinkage=0.01082


Tree=16
num_leaves=8
num_cat=0
split_feature=8 0 6 20 3 15 14
split_gain=43.0685 9.2501 5.47631 4.06605 3.3153 5.18049 2.67157
threshold=0.40856993054173446 0.50454545454545463 0.50570000000000015 0.68365000000000009 0.61250000000000016 7.5000000000000009 0.011809508999703013
decision_type=2 2 8 8 2 10 8
left_child=4 2 3 -2 5 -1 -3
right_child=1 6 -4 -5 -6 -7 -8
leaf_value=-0.011796578430477038 -5.2070302761751326e-05 0.0012890025489338403 0.0022699199844268252 -0.012188263061117607 -0.016494200969257206 0.0052072563289992388 0.0079959441362870767
leaf_weight=16.317779500037435 12.576129913330076 24.52903588861227 28.580048907548189 16.081188529729847 38.762762447819114 4.6892830543220034 49.879077621735632
leaf_count=162 17 160 227 134 270 51 331
internal_value=-0.00265847 0.0022727 -0.00231854 -0.00713363 -0.0135705 -0.00760056 0.00590602
internal_weight=191.415 131.645 57.2374 28.6573 59.7698 21.0071 74.4081
internal_count=1352 869 378 151 483 213 491
is_linear=0
shrinkage=0.0155753


Tree=17
num_leaves=8
num_cat=0
split_feature=9 6 6 20 10 15 14
split_gain=49.1717 28.2847 3.39952 2.7047 2.69849 2.67615 1.09463
threshold=0.49558983118971062 0.64000127418860553 0.93470268768108411 0.6442500000000001 0.43943685130636234 6.5000000000000009 0.011809508999703013
decision_type=2 10 8 8 2 8 8
left_child=1 2 -1 -3 6 -4 -2
right_child=4 3 5 -5 -6 -7 -8
leaf_value=-0.01440660059174092 -0.0016435665708566989 -0.0021991350567146452 -0.012803675180844722 0.0083842429068762929 0.011251011759838832 0.00051913546960822914 0.0067733237270902781
leaf_weight=85.897240708582103 7.2983288615941984 7.9192714095115662 6.0367573536932442 22.508288612589244 49.455032987520099 9.0010684691369534 7.1356847658753395
leaf_count=592 37 11 66 195 343 46 63
internal_value=-0.00275921 -0.00871607 -0.0130477 0.00532049 0.00932263 -0.00457994 0.00207782
internal_weight=195.252 131.363 100.935 30.4276 63.889 15.0378 14.434
internal_count=1353 910 704 206 443 112 100
is_linear=0
shrinkage=0.0169621


Tree=18
num_leaves=7
num_cat=0
split_feature=8 14 8 15 15 15
split_gain=64.1077 7.69841 6.45336 3.60737 3.44534 1.54005
threshold=0.42398099622778085 0.2302197649499704 0.55336066405070217 18.500000000000004 3.5000000000000004 27.000000000000004
decision_type=2 8 2 8 8 8
left_child=3 2 5 -1 -4 -2
right_child=1 -3 4 -5 -6 -7
leaf_value=-0.010110001272546599 -0.0029721170746557237 0.011813245933702339 5.9757642074963805e-05 -0.018686099189360969 0.011894844366642796 0.0021875243971570773
leaf_weight=40.240683877840638 28.48284556902945 33.522554526105523 9.7469910327345151 26.542421657592058 21.433805352076888 26.541552379727364
leaf_count=466 282 225 109 77 118 54
internal_value=-0.00142574 0.0054079 0.00277471 -0.0137372 0.00842583 -0.000340246
internal_weight=186.511 119.728 86.2052 66.7831 31.1808 55.0244
internal_count=1331 788 563 543 227 336
is_linear=0
shrinkage=0.0157299


Tree=19
num_leaves=8
num_cat=0
split_feature=8 6 22 5 6 6 17
split_gain=43.1323 14.3221 2.66692 4.19182 4.28861 3.12016 2.52186
threshold=0.46481979715787719 0.70027500000000009 4.5000000000000009 64.500000000000014 0.75495000000000012 0.70027500000000009 0.35900677740573889
decision_type=2 8 8 2 10 8 8
left_child=2 6 -1 4 -4 -5 -2
right_child=1 -3 3 5 -6 -7 -8
leaf_value=-0.014516860252618556 -0.00023284699312142791 0.014246234713391936 -0.010408585437563712 -0.0054613348566604951 0.0025000328015292901 0.0061714933636340787 0.007327764822055406
leaf_weight=16.973607130348682 44.99994751624763 33.470178450457752 57.081768761388958 13.826182968914511 5.6152667868882409 8.0490237995982152 12.635454120114444
leaf_count=32 271 248 551 84 46 21 92
internal_value=-0.00147239 0.00622271 -0.00844966 -0.0070644 -0.00910754 -0.000795946 0.00135234
internal_weight=192.651 91.1056 101.546 84.5722 62.697 21.8752 57.6354
internal_count=1345 611 734 702 597 105 363
is_linear=0
shrinkage=0.01555


Tree=20
num_leaves=8
num_cat=0
split_feature=8 7 14 20 0 14 14
split_gain=47.562 4.0189 7.16829 10.1954 3.71224 2.82794 1.47585
threshold=0.3938652242717639 0.46658723778900629 -0.16302429740677324 0.35945000000000005 0.35712142857142865 0.40092622120520505 1.0000000180025095e-35
decision_type=2 2 8 10 2 8 8
left_child=5 6 3 -3 -4 -1 -2
right_child=1 2 4 -5 -6 -7 -8
leaf_value=-0.0160529294628215 -0.0033167556056284322 -0.014795932233236645 4.2312115571631581e-05 0.010062130215617707 0.0092252160653205559 -0.003421540945267768 0.0017203938936153676
leaf_weight=43.69294720236212 21.514854907989502 8.5371595919132215 10.849453167058526 5.8497643470764151 51.367085604928434 6.6520938333123913 35.461828988045454
leaf_count=340 130 74 70 8 373 66 256
internal_value=-0.00186095 0.00290678 0.00520295 -0.00410426 0.00750472 -0.0145558 -5.80312e-05
internal_weight=183.925 133.58 76.6035 14.3869 62.2165 50.345 56.9767
internal_count=1317 911 525 82 443 406 386
is_linear=0
shrinkage=0.0154103


Tree=21
num_leaves=8
num_cat=0
split_feature=9 14 13 2 17 5 16
split_gain=37.7054 5.96901 4.06086 3.25505 2.82334 6.28051 2.56083
threshold=0.49558983118971062 -0.04860633124399303 0.20145170862712297 -0.18749999999999997 0.28345085680484777 25.500000000000004 6.5000000000000009
decision_type=2 8 10 2 10 2 2
left_child=2 -2 3 -1 6 -6 -3
right_child=1 4 -4 -5 5 -7 -8
leaf_value=-0.0024611979889024721 3.7361798769350817e-05 0.02204971197486897 -0.0011446947551149828 -0.012778797264804706 0.018753566829415189 -0.0036073054040652325 0.006080757485504574
leaf_weight=17.841557689011097 18.500958397984505 19.629161067306999 23.410283988341689 78.393939295783639 8.4237889582291263 9.8499531336128694 7.9808794427663079
leaf_count=89 120 96 191 609 99 51 91
internal_value=-0.00244563 0.00982615 -0.00914972 -0.0109862 0.0136854 0.00642642 0.0179498
internal_weight=184.031 64.3847 119.646 96.2355 45.8838 18.2737 27.61
internal_count=1346 457 889 698 337 150 187
is_linear=0
shrinkage=0.0201073


Tree=22
num_leaves=8
num_cat=0
split_feature=9 13 13 10 15 9 17
split_gain=33.0061 8.82509 5.98158 2.82891 3.91088 1.19681 0.622461
threshold=0.50106099447627261 0.32890000000000003 0.10002083333333334 0.43943685130636234 4.5000000000000009 0.41391473188954042 0.26340354979038244
decision_type=2 10 8 2 8 2 10
left_child=1 2 -1 6 -5 -3 -2
right_child=3 5 -4 4 -6 -7 -8
leaf_value=-0.0057647433657645854 0.0022205090868506814 2.693469865233254e-05 -0.0014798250858318598 0.0013431855928076465 0.006908826325470502 0.0053394356434400226 -0.001040288339171482
leaf_weight=74.285629007965326 7.1803709696978313 6.4491065964102727 39.223042733967304 16.314012452960014 29.75937288440764 6.2654946818947792 6.8983484581112862
leaf_count=514 40 50 294 188 143 51 56
internal_value=-0.00108397 -0.0035652 -0.00433296 0.00403603 0.00506033 0.00282814 0.000371297
internal_weight=186.375 126.223 113.509 60.1521 46.0734 12.7146 14.0787
internal_count=1336 909 808 427 331 101 96
is_linear=0
shrinkage=0.00849752


Tree=23
num_leaves=8
num_cat=0
split_feature=8 20 10 20 14 2 14
split_gain=41.914 5.19897 4.24541 4.31159 3.13333 2.84027 3.66229
threshold=0.41988331650725663 0.73060000000000014 0.71154082440352584 0.28375000000000006 0.071915112540192963 0.16955689655172418 0.12262081152799427
decision_type=2 8 2 10 10 2 10
left_child=2 -2 3 4 -1 -3 -7
right_child=1 5 -4 -5 -6 6 -8
leaf_value=-0.010516743044662748 0.0063408396444104686 0.0024583765710764526 0.00097949083397484509 -0.016047345686546286 -0.0028862957491110675 -0.0074143409995145121 0.0037159798001354292
leaf_weight=23.718501457944512 50.589431464672089 58.183192929252982 4.482236720621585 15.258885025978087 17.087573576718569 10.949406784027817 5.9814489670097819
leaf_count=288 72 620 32 26 173 87 36
internal_value=-0.000744234 0.00327891 -0.00915121 -0.0100929 -0.00754615 0.00110963 -0.00310986
internal_weight=186.251 125.703 60.5472 56.065 40.8061 75.114 16.9309
internal_count=1334 815 519 487 461 743 123
is_linear=0
shrinkage=0.0123361


Tree=24
num_leaves=8
num_cat=0
split_feature=9 6 20 14 8 14 8
split_gain=50.4914 9.8221 9.9208 9.24194 6.40107 3.36447 2.82894
threshold=0.41391473188954042 0.36060000000000009 0.55785000000000007 0.034426552087076519 0.39957924000741291 -0.017321102090918358 0.4534953400227405
decision_type=2 8 8 8 2 10 2
left_child=4 2 -2 -3 -1 -6 -5
right_child=1 3 -4 6 5 -7 -8
leaf_value=-0.0073712832805945747 0.0035090687809164398 -0.00057287692926649681 -0.0056748501111357121 0.0016797854772713562 -0.0050541923517618496 0.0039504283744935349 0.0053202982154561453
leaf_weight=55.691969383507967 10.344346463680266 29.915245151147246 17.473935622721914 21.71472541987896 3.9708419442176819 4.7239656522870046 55.487307583913207
leaf_count=433 14 175 139 122 36 38 404
internal_value=-0.000794919 0.00187118 -0.00210283 0.00294811 -0.00640988 -4.61142e-05 0.00436043
internal_weight=199.322 134.936 27.8183 107.117 64.3868 8.69481 77.202
internal_count=1361 854 153 701 507 74 526
is_linear=0
shrinkage=0.00773375


Tree=25
num_leaves=8
num_cat=0
split_feature=14 6 8 8 20 0 20
split_gain=23.4975 25.3751 11.6454 9.93715 5.31448 3.95301 2.07837
threshold=0.021569021607977915 0.61270000000000013 0.43362305734190792 0.47331820187882229 0.68365000000000009 0.77778888888888897 0.68365000000000009
decision_type=8 8 2 2 8 2 8
left_child=2 6 -1 -3 -4 -6 -2
right_child=1 3 4 -5 5 -7 -8
leaf_value=-0.014111092157688392 -0.013719432471832318 0.001431394927809583 0.0025092513671039715 0.010994114747567613 -0.0084924870926817424 0.0033943192788649444 -0.0050474888472081675
leaf_weight=27.682387021370232 9.1423141956329328 41.191686267033219 16.147225141525269 36.197831552475691 25.570066479966048 4.5476231481879941 19.226821643300358
leaf_count=258 15 270 22 303 210 46 202
internal_value=-0.00178672 0.00211119 -0.00742432 0.00602686 -0.00318013 -0.0064326 -0.00823952
internal_weight=179.706 105.759 73.9473 77.3895 46.2649 30.1177 28.3691
internal_count=1326 790 536 573 278 256 217
is_linear=0
shrinkage=0.0130615


Tree=26
num_leaves=8
num_cat=0
split_feature=8 6 18 18 13 2 18
split_gain=39.5623 6.63237 2.77762 2.29486 2.14149 2.1341 1.17039
threshold=0.43362305734190792 0.38637636230680722 0.49960000000000004 0.71565000000000012 0.30794583333333331 0.34272300469483585 0.70130000000000015
decision_type=2 8 8 8 8 2 10
left_child=4 2 -2 6 -1 -5 -3
right_child=1 3 -4 5 -6 -7 -8
leaf_value=-0.01203279317110788 0.0037587122117437085 0.0066728846933706764 -0.0066693930639472503 0.0044032263399052789 -0.0045259838257943079 -0.0071004332297209902 0.012976518353337518
leaf_weight=53.207881808280945 8.9655312299728411 44.500024421140552 14.818309200927613 23.162251420319084 16.77143682166934 3.7306340448558322 14.638473762199281
leaf_count=430 29 229 111 196 146 19 155
internal_value=-0.00117675 0.00463756 -0.00238929 0.00668244 -0.0103771 0.0024124 0.00846195
internal_weight=179.795 109.815 23.7838 86.0314 69.9793 26.8929 59.1385
internal_count=1315 739 140 599 576 215 384
is_linear=0
shrinkage=0.0156818


Tree=27
num_leaves=8
num_cat=0
split_feature=9 14 6 14 22 15 3
split_gain=30.2409 9.53037 4.9395 3.08917 14.0229 6.70713 6.30545
threshold=0.4627729456380667 0.1010920128214174 0.59342500000000009 -0.14487952104165927 4.5000000000000009 10.500000000000002 0.42265000000000003
decision_type=2 8 8 8 10 8 2
left_child=1 -1 -3 5 -5 -2 -6
right_child=3 2 -4 4 6 -7 -8
leaf_value=-0.016606958662129228 -0.014630731472230235 -0.015559757621729052 -6.2404989134429741e-06 -0.0062475244924908423 -0.0057332443112111066 0.008583092320187986 0.015768841445894615
leaf_weight=44.671389495953918 7.6415647976100471 9.9876576960086805 38.378684900701046 18.457484656944871 4.9755525859072796 11.194137586280702 46.696994604542851
leaf_count=368 76 80 279 102 41 25 371
internal_value=-0.0020274 -0.00996906 -0.00353836 0.00617565 0.00810136 -0.000456584 0.0134432
internal_weight=182.003 93.0377 48.3663 88.9657 70.13 18.8357 51.6725
internal_count=1342 727 359 615 514 101 412
is_linear=0
shrinkage=0.0199


Tree=28
num_leaves=8
num_cat=0
split_feature=9 14 2 0 21 1 0
split_gain=42.2371 17.5802 3.73525 4.9553 2.38736 3.34986 2.77986
threshold=0.38391206938830297 0.21268427360420933 0.16670000000000001 0.35712142857142865 11.500000000000002 0.61046650717703355 0.62625000000000008
decision_type=2 8 2 2 8 2 2
left_child=-1 4 3 -3 6 -6 -2
right_child=1 2 -4 -5 5 -7 -8
leaf_value=-0.011054475196882027 -0.0041269360597393076 0.00080433181081290741 0.00062457448226696229 0.012246655352302568 -0.0010009877885435107 0.0067687402481651591 0.0012606278279791952
leaf_weight=46.37813463434577 39.271708935499191 8.4542030002921802 9.3430898785591108 31.866093980148435 19.878613594919443 12.781107784248887 20.559177443385124
leaf_count=396 295 61 45 212 102 73 170
internal_value=-0.000844392 0.00247372 0.00838219 0.0100216 -0.00066003 0.00190901 -0.00217443
internal_weight=188.532 142.154 49.6634 40.3203 92.4906 32.6597 59.8309
internal_count=1354 958 318 273 640 175 465
is_linear=0
shrinkage=0.0123898


Tree=29
num_leaves=8
num_cat=0
split_feature=6 20 0 20 17 6 20
split_gain=17.6373 12.3095 5.6644 4.88241 4.35705 0.943221 0.686504
threshold=0.50570000000000015 0.39715000000000006 0.75556385362210621 0.47225000000000006 0.29811814427375799 0.75495000000000012 0.61465000000000003
decision_type=8 8 2 8 10 10 8
left_child=3 -2 4 -1 -3 -4 -5
right_child=1 2 5 6 -6 -7 -8
leaf_value=0.00049658249105382388 -0.019395495499688359 0.0068181422320721628 0.018174316888312742 -0.0041428609437863789 -0.003085743900349307 0.0067134170525360521 -0.012953987891335454
leaf_weight=15.238193750381468 8.1821842789649946 46.360402797348797 15.173254167661073 8.5365012884139997 29.414066674187779 9.0534799443557841 50.85323117300868
leaf_count=23 13 373 89 14 273 44 524
internal_value=-0.00151593 0.00372854 0.00582899 -0.00922772 0.00284454 0.0144913 -0.0118951
internal_weight=182.811 108.183 100.001 74.6279 75.7745 24.2267 59.3897
internal_count=1353 792 779 561 646 133 538
is_linear=0
shrinkage=0.0206201


Tree=30
num_leaves=8
num_cat=0
split_feature=8 14 7 14 6 15 0
split_gain=41.5467 13.2134 3.88908 3.49625 3.40818 3.2849 3.16323
threshold=0.40856993054173446 0.021569021607977915 0.44875331415355113 0.17964012412240674 0.72384598014946511 27.000000000000004 0.58200000000000018
decision_type=2 8 2 8 10 8 2
left_child=3 2 -2 -1 6 -5 -3
right_child=1 4 -4 5 -6 -7 -8
leaf_value=-0.011606844625741243 0.0039164763710556171 1.1328723404328958e-05 -0.003408581434983589 -0.00095632768050966412 0.0085827864945831819 -0.0096968590451984547 0.0059297265844047119
leaf_weight=33.45533602964133 10.419628802686928 20.189369823783636 42.402382984757423 13.411205317825081 28.845729826018214 10.975078003481029 24.332817768678069
leaf_count=300 52 184 275 153 215 28 135
internal_value=-0.00121206 0.0023725 -0.00182255 -0.00907695 0.00546526 -0.0052417 0.00325134
internal_weight=184.032 126.19 52.822 57.8416 73.3679 24.3863 44.5222
internal_count=1342 861 327 481 534 181 319
is_linear=0
shrinkage=0.0112517


Tree=31
num_leaves=8
num_cat=0
split_feature=9 14 9 6 15 6 6
split_gain=14.7698 10.2397 8.93769 4.62623 4.64296 4.19155 1.91229
threshold=0.48412183676452175 0.2302197649499704 0.3938652242717639 0.67535000000000012 4.5000000000000009 0.54915000000000003 0.54915000000000003
decision_type=2 10 2 10 8 10 10
left_child=1 5 -3 4 -2 -1 -6
right_child=3 2 -4 -5 6 -7 -8
leaf_value=-0.01567069777929821 -0.0093309070279017359 -0.011645806681232964 0.016606588686488021 0.016322755463859345 0.010695867977933463 -0.00098763312390024111 -0.001011205251340916
leaf_weight=71.119365824386477 15.586980678141115 11.367298603057863 15.679666128009556 18.588218254968524 23.972910962998867 16.967938601970673 10.445893693715332
leaf_count=552 165 84 90 181 107 117 46
internal_value=-0.00330931 -0.0088283 0.00424024 0.00576589 0.00147384 -0.0129952 0.00679375
internal_weight=183.728 115.134 27.047 68.594 50.0058 88.0873 34.4188
internal_count=1342 843 174 499 318 669 153
is_linear=0
shrinkage=0.025101


Tree=32
num_leaves=8
num_cat=0
split_feature=6 8 8 19 8 17 6
split_gain=43.0143 10.463 12.4283 6.48043 5.53638 5.80154 5.70715
threshold=0.60005000000000019 0.35263335438677085 0.43846489675642025 0.45695000000000002 0.52593487942999406 0.24540480226278308 0.62547500000000011
decision_type=8 2 2 8 2 10 10
left_child=1 -1 -3 -4 5 -2 -7
right_child=4 2 3 -5 -6 6 -8
leaf_value=-0.012518987112038608 0.0074351487929496069 -0.0097017427960645452 0.005058456411061279 -0.0031007742151356087 0.010689150105203207 -0.0059376224003435058 0.0038650544113648399
leaf_weight=21.359387558884919 28.786299932748079 26.535860151983798 19.313340123742819 35.153084494173527 22.233358596451581 11.492269350215791 21.285145634785295
leaf_count=201 166 201 76 248 200 82 171
internal_value=-0.0003598 -0.00537122 -0.00335035 -8.40899e-05 0.00568842 0.00372164 0.000220261
internal_weight=186.159 102.362 81.0023 54.4664 83.7971 61.5637 32.7774
internal_count=1345 726 525 324 619 419 253
is_linear=0
shrinkage=0.0114909


Tree=33
num_leaves=8
num_cat=0
split_feature=9 14 14 15 15 14 9
split_gain=48.6013 9.79992 8.74985 6.54898 4.25245 3.84499 3.50322
threshold=0.3938652242717639 -0.04093573516515641 0.13475964698464346 11.500000000000002 9.5000000000000018 -1.0000000180025095e-35 0.61836188705787787
decision_type=2 8 8 8 10 10 2
left_child=4 3 5 6 -1 -3 -2
right_child=1 2 -4 -5 -6 -7 -8
leaf_value=-0.011880801855833805 -0.0087377909689496727 -0.00577099280786777 0.0074150672009693705 0.0024864321060530919 -0.00051035381413730159 0.002488444882669021 0.0015929324345391475
leaf_weight=42.05808015819639 16.567713377997283 9.4148809015750867 59.321312228217721 20.883242782205343 5.890932969748973 26.510354747995734 4.2715023774653664
leaf_count=344 175 53 415 50 67 200 40
internal_value=-0.00073783 0.00270078 0.00473493 -0.00179857 -0.0105956 0.000119327 -0.00633289
internal_weight=184.918 136.969 95.2465 41.7225 47.949 35.9252 20.8392
internal_count=1344 933 668 265 411 253 215
is_linear=0
shrinkage=0.0114366


Tree=34
num_leaves=8
num_cat=0
split_feature=8 6 14 6 20 20 22
split_gain=33.3188 17.9626 11.1329 8.05958 2.82159 2.60335 1.73322
threshold=0.43846489675642025 0.61270000000000013 0.25303231942442495 0.58020000000000016 0.51485000000000014 0.77000000000000013 1.0000000180025095e-35
decision_type=2 8 8 10 8 8 10
left_child=2 3 5 4 -2 -1 -3
right_child=1 6 -4 -5 -6 -7 -8
leaf_value=-0.019799178303424741 0.00663556587209993 0.0012508460825163326 -0.0004172837093815502 -0.019562222353539778 -0.002272231128770993 -0.010461948506484501 0.012637118448851264
leaf_weight=20.532566428184509 12.96457129716873 5.8359485734254113 23.619608551263809 5.8659275583922854 35.141065524891019 28.750249993056059 45.043764046393335
leaf_count=37 18 80 200 35 282 391 294
internal_value=-0.00154192 0.00441458 -0.0101917 -0.00214467 4.19497e-06 -0.0146755 0.0114948
internal_weight=177.754 104.851 72.9024 53.9716 48.1056 49.2828 50.8797
internal_count=1337 709 628 335 300 428 374
is_linear=0
shrinkage=0.016679


Tree=35
num_leaves=8
num_cat=0
split_feature=6 9 9 6 12 6 12
split_gain=18.567 18.8018 3.99121 3.52303 5.1459 2.51588 2.37443
threshold=0.62547500000000011 0.41391473188954042 0.41988331650725663 0.32380000000000003 152.50000000000003 0.53089160226083409 63.500000000000007
decision_type=10 2 2 10 2 10 2
left_child=1 6 -2 4 -3 -5 -1
right_child=2 3 -4 5 -6 -7 -8
leaf_value=-0.0055454749053760665 -0.00082444930375733135 0.013401827125891578 0.012144100767827673 -1.0059872206986982e-05 -0.0043796906413629362 -0.010092114084662597 -0.021243740645762291
leaf_weight=8.2737138066440803 13.818307109177111 17.563028667122129 41.613426557742059 29.13712534122169 12.57756771892309 18.992375388741493 34.108610046096146
leaf_count=87 106 96 313 198 95 123 325
internal_value=-0.0017739 -0.00670342 0.00871462 -9.39288e-05 0.00564838 -0.00393341 -0.0185068
internal_weight=176.084 120.652 55.4317 78.2701 30.1406 48.1295 42.3823
internal_count=1343 924 419 512 191 321 412
is_linear=0
shrinkage=0.0222024


Tree=36
num_leaves=8
num_cat=0
split_feature=8 2 20 6 8 20 0
split_gain=35.1577 10.6066 5.66744 3.96879 3.14536 4.0802 7.13034
threshold=0.43362305734190792 -0.51016260162601601 0.46870000000000006 0.46020000000000005 0.4627729456380667 0.41630000000000006 0.40238095238095245
decision_type=2 2 10 10 2 10 2
left_child=1 -1 3 -3 -2 6 -6
right_child=4 2 -4 -5 5 -7 -8
leaf_value=0.0065609949994051581 -0.00074772320006981547 -0.0071628345229804982 -0.011389620842119797 -0.0021913760350472473 -0.0031876868241467191 0.0058227282673161867 0.0031592276078412449
leaf_weight=4.0290548987686625 21.082021666690707 28.434427872300148 14.103350579738615 25.553037814795971 15.968576358631251 23.215671479701996 49.991530147381127
leaf_count=22 118 347 24 204 107 34 474
internal_value=-0.000961613 -0.00556783 -0.00640611 -0.00493066 0.00202549 0.00273312 0.00154477
internal_weight=182.378 72.1199 68.0908 53.9875 110.258 89.1758 65.9601
internal_count=1330 597 575 551 733 615 581
is_linear=0
shrinkage=0.00850133


Tree=37
num_leaves=8
num_cat=0
split_feature=6 9 21 9 10 13 13
split_gain=11.9294 12.2104 6.80684 5.92709 4.26447 2.31241 4.59107
threshold=0.54915000000000003 0.50106099447627261 3.5000000000000004 0.41391473188954042 0.51198344090492909 -0.13489999999999996 0.079267801103661897
decision_type=8 2 10 2 2 10 10
left_child=1 3 -3 -1 -2 -6 -7
right_child=4 2 -4 -5 5 6 -8
leaf_value=-0.012497087552123344 3.4878130912569441e-06 0.013024448103509643 -0.0024736168953409018 -0.0031160781533220989 0.010435405354014863 -0.00064646870453822797 0.011443162935658193
leaf_weight=30.0368692567572 53.232494822703302 9.7019215561449546 11.488814404234288 30.594843070954084 16.332815308123827 18.5918851075694 8.4196251519024354
leaf_count=297 480 46 87 183 77 92 66
internal_value=-0.000598679 -0.00464085 0.00440567 -0.00794095 0.00275886 0.00606684 0.00302772
internal_weight=178.399 81.8224 21.1907 60.6317 96.5768 43.3443 27.0115
internal_count=1328 613 133 480 715 235 158
is_linear=0
shrinkage=0.0143355


Tree=38
num_leaves=8
num_cat=0
split_feature=8 6 14 6 13 16 10
split_gain=29.551 7.58654 4.38095 4.22417 1.99646 1.92619 1.27078
threshold=0.44837457396425567 0.77705006361333717 0.15760614715339519 0.49525000000000002 0.011869936766820773 11.500000000000002 0.42053751707697212
decision_type=2 10 8 10 10 2 2
left_child=3 2 5 4 -1 -2 -5
right_child=1 -3 -4 6 -6 -7 -8
leaf_value=-0.0085448906158133373 0.00034264257517568382 0.0087260065294647686 0.0044274668787441188 -2.112712775495452e-05 -0.0024892191552805822 -0.0041375315137303402 -0.0039159038735432456
leaf_weight=38.368986737914383 48.297838263213634 13.234889165498315 23.313105510547757 9.5596324093639833 8.8874126272276026 9.6811688244342786 24.962242651730776
leaf_count=353 282 117 172 101 87 95 141
internal_value=-0.00143169 0.00215622 0.000979614 -0.00562424 -0.00753642 -0.000355413 -0.00280991
internal_weight=176.305 94.527 81.2921 81.7783 47.2564 57.979 34.5219
internal_count=1348 666 549 682 440 377 242
is_linear=0
shrinkage=0.00953414


Tree=39
num_leaves=8
num_cat=0
split_feature=8 14 2 20 0 7 15
split_gain=30.3462 14.8933 4.67063 6.36335 2.9102 2.04705 0.211052
threshold=0.48080125260591505 0.17964012412240674 -0.38762019230769229 0.15210000000000004 0.82554310344827597 0.45922115041086109 5.5000000000000009
decision_type=2 10 2 10 2 2 10
left_child=1 4 -3 -4 6 -2 -1
right_child=5 2 3 -5 -6 -7 -8
leaf_value=-0.006730717713045062 0.009665938780546739 0.009013325955711228 0.0033932689537905692 -0.0048271502937206777 -5.3090650421465495e-05 0.0035476681932612524 -0.003865847567400145
leaf_weight=52.669506610371172 5.4949076455086461 4.7823472358286372 17.584425386041406 12.344786643981932 6.5763202104717484 65.884828247129917 13.509705413132904
leaf_count=363 31 24 181 18 44 506 180
internal_value=-0.000343025 -0.0033724 0.0013398 3.49818e-06 -0.0056807 0.00414582 -0.00624428
internal_weight=178.847 107.467 34.7116 29.9292 72.7555 71.3797 66.1792
internal_count=1347 810 223 199 587 537 543
is_linear=0
shrinkage=0.00897815


Tree=40
num_leaves=8
num_cat=0
split_feature=9 6 22 11 6 16 10
split_gain=26.6566 6.31988 5.29061 3.92594 5.12922 2.89188 5.19688
threshold=0.40856993054173446 0.40040000000000003 3.5000000000000004 0.43215434083601295 0.35070000000000007 6.5000000000000009 0.5473758736826968
decision_type=2 8 10 2 10 2 2
left_child=3 5 -3 4 -1 6 -2
right_child=1 2 -4 -5 -6 -7 -8
leaf_value=-0.015589278892116946 -0.0069824284791906392 -0.0031114141099030778 0.007467858317785606 -0.019312790192165512 -1.9538154958660305e-05 -0.013026375977434309 0.012294516468401339
leaf_weight=15.007501599378886 14.158869458362465 19.823238775134087 72.964227519929409 23.189401676878333 15.256687369197605 9.3320264592766744 6.6480169873684636
leaf_count=220 70 132 543 68 182 89 21
internal_value=-0.00214772 0.00261853 0.00509589 -0.0131979 -0.00799111 -0.00463786 -0.000223087
internal_weight=176.38 122.926 92.7875 53.4536 30.2642 30.1389 20.8069
internal_count=1325 855 675 470 402 180 91
is_linear=0
shrinkage=0.018828


Tree=41
num_leaves=8
num_cat=0
split_feature=6 8 9 15 14 20 15
split_gain=13.3904 15.3741 10.2046 11.2028 5.85484 2.7882 1.7474
threshold=0.49525000000000002 0.3938652242717639 0.44837457396425567 5.5000000000000009 0.12262081152799427 0.32635000000000008 29.500000000000004
decision_type=8 2 2 8 8 10 8
left_child=2 6 -1 -4 5 -3 -2
right_child=1 4 3 -5 -6 -7 -8
leaf_value=-0.01710430613335762 -0.0054993263205830919 0.0046517630102683363 -0.016025236447618097 0.01284329976199026 0.013107704628218602 -0.012044090212835801 -0.021082363168335328
leaf_weight=38.004832403734326 12.392857355996968 16.851150734350089 11.855266613885762 18.133734470233321 59.07174683175981 7.5584590435028067 9.1839730236679298
leaf_count=353 152 181 117 68 432 11 22
internal_value=-0.000811833 0.00440664 -0.00901834 0.000931261 0.00909707 -0.000174122 -0.012945
internal_weight=173.052 105.058 67.9938 29.989 83.4814 24.4096 21.5768
internal_count=1336 798 538 185 624 192 174
is_linear=0
shrinkage=0.023696


Tree=42
num_leaves=8
num_cat=0
split_feature=22 8 11 6 3 11 13
split_gain=8.94369 26.4825 7.65664 11.8961 9.54842 2.16668 2.38122
threshold=4.5000000000000009 0.38391206938830297 0.43215434083601295 0.70027500000000009 4.8704388704318946 0.43215434083601295 0.079267801103661897
decision_type=8 2 2 10 2 2 10
left_child=-1 5 3 -3 -4 6 -2
right_child=1 2 4 -5 -6 -7 -8
leaf_value=-0.012497084159574338 -0.016771987334860326 -0.0027180169160287374 0.022717367360726902 0.019210391311248968 -0.0018870445893723828 -0.026790392834547181 -4.5177584636443232e-05
leaf_weight=28.49364648014307 15.002124276012184 53.997333433479071 27.617821145802736 16.974881360307336 10.582186210900543 9.3595747500658018 8.4659957680851203
leaf_count=52 234 592 97 206 20 33 108
internal_value=-0.000692108 0.00163485 0.00722394 0.0024731 0.0156062 -0.0164076 -0.0113396
internal_weight=170.494 142 109.172 70.9722 38.2 32.8277 23.4681
internal_count=1342 1290 915 798 117 375 342
is_linear=0
shrinkage=0.023279


Tree=43
num_leaves=8
num_cat=0
split_feature=6 8 9 9 5 9 2
split_gain=20.4758 18.7174 17.6643 3.33142 3.05946 6.58315 2.34541
threshold=0.56981218119299371 0.43362305734190792 0.38391206938830297 0.3938652242717639 155.50000000000003 0.49558983118971062 0.16955689655172418
decision_type=8 2 2 2 2 2 2
left_child=1 3 -2 -1 5 -3 -4
right_child=2 4 6 -5 -6 -7 -8
leaf_value=-0.010534829754042924 -0.0063039075279458529 -0.0024932810510901945 0.0056178366198729708 -0.0033753438427536774 -0.0043269740953455205 0.0052754906322991183 0.00098898695036940347
leaf_weight=29.123379887081683 16.041997671127319 18.891689011827111 59.852589650079608 11.3937522880733 10.447482340037821 20.592708885669708 16.029881250113249
leaf_count=269 145 122 446 100 46 145 83
internal_value=-0.00049998 -0.00380849 0.00270568 -0.00869337 0.000102243 0.0014488 0.00471223
internal_weight=182.373 90.449 91.9245 40.5171 49.9319 39.4844 75.8825
internal_count=1356 682 674 369 313 267 529
is_linear=0
shrinkage=0.0097662


Tree=44
num_leaves=8
num_cat=0
split_feature=6 20 0 9 22 15 20
split_gain=18.1413 9.17638 5.29355 7.38449 5.09824 4.61746 3.47872
threshold=0.65065000000000006 0.41630000000000006 0.81029411764705894 0.39957924000741291 1.5000000000000002 16.000000000000004 0.54865000000000008
decision_type=8 8 2 2 10 8 8
left_child=2 -2 3 -1 -5 -4 -3
right_child=1 6 5 4 -6 -7 -8
leaf_value=-0.014586150633540448 -0.014030010056902558 0.017396367625307965 -0.0030968238555293239 0.0067960421095143459 -0.0061930477356222499 0.017277081125921471 0.0049528463748755337
leaf_weight=29.451164258643985 5.6578153371810913 7.5249006748199463 7.4797246176749441 8.7284199222922307 53.465924721211195 3.9645887929946193 53.021127092652023
leaf_count=294 9 12 82 40 384 14 507
internal_value=-0.00193958 0.00475464 -0.00632245 -0.00768402 -0.00419055 0.00367892 0.00677266
internal_weight=169.294 66.2038 103.09 91.6455 62.1943 11.4443 60.546
internal_count=1342 528 814 718 424 96 519
is_linear=0
shrinkage=0.0166308


Tree=45
num_leaves=8
num_cat=0
split_feature=9 13 14 14 1 1 20
split_gain=21.5759 5.53575 5.14518 3.81155 2.38431 1.07917 0.799775
threshold=0.4627729456380667 0.23735454545454548 0.2191810691318328 -0.04093573516515641 0.75364077669902929 0.1586000520426751 0.56400000000000017
decision_type=2 8 10 8 2 2 8
left_child=1 -1 3 6 5 -3 -2
right_child=2 4 -4 -5 -6 -7 -8
leaf_value=-0.0065683898506782371 0.00084275731182226795 -0.0072259045282629612 0.0087820662897331262 0.0037013723516022045 0.0067253001368831038 -0.00043484816319076244 -0.0027905416061196173
leaf_weight=66.101776457391679 8.7868707776069623 3.606557557359344 15.615453689359127 42.900716445408762 4.2318432107567778 18.487874120473862 19.854699186980728
leaf_count=491 12 25 128 311 17 179 157
internal_value=-0.00102123 -0.00482996 0.00295776 0.00155509 -0.000230312 -0.00193449 -0.00147531
internal_weight=179.586 92.4281 87.1577 71.5423 26.3263 22.0944 28.6416
internal_count=1320 712 608 480 221 204 169
is_linear=0
shrinkage=0.0112918


Tree=46
num_leaves=8
num_cat=0
split_feature=8 22 22 15 18 20 20
split_gain=21.5709 5.61232 6.79999 2.84532 4.76241 2.23947 0.326714
threshold=0.4534953400227405 4.5000000000000009 12.500000000000002 9.5000000000000018 0.65570000000000006 0.7107500000000001 0.55785000000000007
decision_type=2 10 10 10 10 8 8
left_child=3 6 -3 4 -1 -6 -2
right_child=1 2 -4 -5 5 -7 -8
leaf_value=-0.0077971484722200307 -0.0024328548170205492 0.0080959993242710124 0.0014993499069608802 0.0003166304043877997 0.00036453681026457385 -0.0039262605707963772 -1.2262088182138988e-05
leaf_weight=28.914013992063701 12.858150720596312 19.571845829486847 45.349253481253982 8.2963725551962835 11.365524202585219 36.023623567074537 10.7409610953182
leaf_count=164 18 30 496 98 17 392 110
internal_value=-0.00092306 0.00219921 0.00360566 -0.00423747 -0.00479749 -0.00280854 -0.00145919
internal_weight=173.12 88.5202 64.9211 84.5995 76.3032 47.3891 23.5991
internal_count=1325 654 526 671 573 409 128
is_linear=0
shrinkage=0.00916887


Tree=47
num_leaves=8
num_cat=0
split_feature=9 6 15 5 0 6 6
split_gain=29.6693 9.23309 2.87885 2.16727 0.947931 0.878152 10.9191
threshold=0.44837457396425567 0.51830000000000009 3.5000000000000004 64.500000000000014 0.60771903698188134 0.26040000000000008 0.58020000000000016
decision_type=2 8 8 2 2 8 8
left_child=5 2 -2 4 -3 -1 -7
right_child=1 3 -4 -5 -6 6 -8
leaf_value=-0.01522849104097727 -0.0099064756434008097 0.0097189265175443677 0.00187621188395319 0.0054357237346069828 0.018558311556384242 -0.01696888732462648 -0.00078102581197875374
leaf_weight=13.6701817009598 9.8548043295741063 20.002054902724922 26.106237437576056 22.88678240031004 15.980084836483 29.073755922727287 35.338502278551459
leaf_count=161 106 191 121 93 169 239 261
internal_value=-0.000909086 0.00626835 -0.00117831 0.0109627 0.0141042 -0.00973192 -0.00831327
internal_weight=172.912 94.83 35.961 58.8689 35.9821 78.0824 64.4123
internal_count=1341 680 227 453 360 661 500
is_linear=0
shrinkage=0.0193091


Tree=48
num_leaves=8
num_cat=0
split_feature=8 14 14 1 16 19 19
split_gain=42.229 6.86862 8.28139 3.07081 3.99649 1.06419 0.270063
threshold=0.38103225304075977 -0.13084195587834777 0.034426552087076519 0.41430000000000006 2.5000000000000004 0.56950000000000001 0.54200000000000015
decision_type=2 8 8 2 2 8 10
left_child=-1 3 6 -2 -5 -4 -3
right_child=1 2 5 4 -6 -7 -8
leaf_value=-0.0083058647148017157 0.0020402334124455493 -3.2476096473576664e-06 0.0051526051199235626 8.3275772994838909e-06 -0.0077051796132018707 0.002438027811735962 -0.0018004875886526441
leaf_weight=41.76546639110893 7.5688764881342676 20.503030281513929 52.799736713059247 7.8740296550095108 10.354546749964355 25.97115220874548 12.926381466910241
leaf_count=376 42 129 370 33 110 217 73
internal_value=-0.000543949 0.00179735 0.00276248 -0.00219012 -0.00421471 0.00433218 -0.000808655
internal_weight=179.763 137.998 112.2 25.7975 18.2286 78.7709 33.4294
internal_count=1350 974 789 185 143 587 202
is_linear=0
shrinkage=0.00886549


Tree=49
num_leaves=8
num_cat=0
split_feature=8 2 20 0 6 11 6
split_gain=24.2482 5.98461 7.35612 4.84551 6.49598 4.2228 3.72146
threshold=0.40856993054173446 -0.51016260162601601 0.28375000000000006 0.73215000000000019 0.6655500000000002 0.43215434083601295 0.41145000000000004
decision_type=2 2 10 2 10 2 10
left_child=5 2 -2 4 -3 6 -1
right_child=1 3 -4 -5 -6 -7 -8
leaf_value=-0.0079433495412969159 0.00013300872364067218 -0.0019776913907934984 0.01602743397586753 0.0055505276034639554 0.0067865814025109038 -0.012109925286491669 0.00029137372300075295
leaf_weight=17.164830140769485 7.1766542717814472 62.120885256677866 10.027906596660612 32.118824454955757 15.876725594513116 19.592375751584768 13.51819145772606
leaf_count=264 67 400 15 224 161 61 156
internal_value=-0.000171871 0.00268145 0.00944362 0.00152858 -7.64739e-05 -0.00746976 -0.00417382
internal_weight=177.596 127.321 17.2046 110.116 77.9976 50.2754 30.683
internal_count=1348 867 82 785 561 481 420
is_linear=0
shrinkage=0.0124445


Tree=50
num_leaves=8
num_cat=0
split_feature=8 14 20 20 14 13 20
split_gain=20.9234 6.6577 4.85528 4.38446 3.04452 2.16269 1.07256
threshold=0.43362305734190792 0.15760614715339519 0.52770000000000017 0.74715000000000009 0.32615850078375574 0.11520000000000001 0.51765000000000005
decision_type=2 8 8 10 10 10 8
left_child=4 2 -2 -4 5 6 -1
right_child=1 -3 3 -5 -6 -7 -8
leaf_value=-0.025485972671242547 0.0093269785892218307 0.010848663751910927 -0.0016143900242486431 -0.023881305597567296 -0.00046568878393790978 -0.0035952044995732711 -0.013710610473375948
leaf_weight=8.8188635706901533 17.629397749900818 40.014087479561567 46.732130691409111 4.419997811317443 10.990267366170881 10.337902605533598 34.62038701120764
leaf_count=20 25 295 414 6 68 115 396
internal_value=-0.00218791 0.00369128 -0.000358158 -0.0039844 -0.0121827 -0.0143682 -0.0166219
internal_weight=173.563 108.796 68.7815 51.1521 64.7674 53.7772 43.4393
internal_count=1339 740 445 420 599 531 416
is_linear=0
shrinkage=0.0222534


Tree=51
num_leaves=8
num_cat=0
split_feature=8 14 8 8 8 6 3
split_gain=19.9161 10.8348 4.86815 5.2079 3.52869 4.37199 0.805548
threshold=0.37089587035313371 0.19291138286885043 0.63653393431327521 0.51821038132157171 0.48080125260591505 0.85226204728609256 0.38761250000000008
decision_type=2 8 2 2 2 8 2
left_child=6 2 3 -2 5 -3 -1
right_child=1 4 -4 -5 -6 -7 -8
leaf_value=-0.0036687461411876558 -0.0031851707044665812 0.0046766174648338451 0.0033774228766317595 0.0019303698806828844 0.0065548112559970541 -0.0013218414129705538 -0.0082891504835638959
leaf_weight=9.4180718567222375 63.03496228903532 18.018668208271265 14.128732723183928 18.106845501810312 20.813133061863482 16.025740722194314 20.745032327249646
leaf_count=119 415 116 108 120 181 90 210
internal_value=-0.00066296 0.000613692 -0.00112408 -0.00198212 0.00369294 0.00175235 -0.00705416
internal_weight=180.291 150.128 95.2705 81.1418 54.8575 34.0444 30.1631
internal_count=1359 1030 643 535 387 206 329
is_linear=0
shrinkage=0.00870532


Tree=52
num_leaves=8
num_cat=0
split_feature=6 9 8 8 15 19 21
split_gain=20.1487 10.0523 7.24467 6.46837 2.44204 2.45428 1.59459
threshold=0.67535000000000012 0.38103225304075977 0.55336066405070217 0.4458089018677211 3.5000000000000004 0.44235000000000008 3.5000000000000004
decision_type=8 2 2 2 8 10 10
left_child=2 -2 3 -1 5 -3 -4
right_child=1 4 6 -5 -6 -7 -8
leaf_value=-0.0052840904180010738 -0.0036620099851982159 -0.0033361363317277251 0.0032925722846901461 -0.0013156589887154677 0.0049681690303645509 0.002962715659293924 -0.00051247125977654806
leaf_weight=49.95856520626694 10.681700060144065 3.889050915837287 10.793904390186073 48.207500075921416 38.880995058454573 11.176817633211611 9.859837953001259
leaf_count=440 103 33 46 279 227 135 86
internal_value=-0.000698043 0.00261301 -0.00253453 -0.00338894 0.00395689 0.0010458 0.00131802
internal_weight=183.448 64.6286 118.82 98.1661 53.9469 15.0659 20.6537
internal_count=1349 498 851 719 395 168 132
is_linear=0
shrinkage=0.00746684


Tree=53
num_leaves=8
num_cat=0
split_feature=9 14 9 18 16 18 0
split_gain=20.5777 7.99634 5.21723 3.78595 2.53407 2.21005 1.04314
threshold=0.49099491512749577 0.15760614715339519 0.3938652242717639 0.83030000000000015 12.500000000000002 0.72275000000000011 0.38762019230769246
decision_type=2 10 2 10 2 10 2
left_child=1 2 5 4 6 -1 -2
right_child=3 -3 -4 -5 -6 -7 -8
leaf_value=-0.020365985825086662 0.0029988871560111853 0.00096871651688183323 -0.0059368142643236154 -0.0088553115870072772 6.1168601754609528e-05 -0.00023562964998875244 0.013383833413019079
leaf_weight=24.196775670163337 8.1072679897770268 35.912611762061715 44.232531767338514 4.0854291953146449 9.837583623826502 3.4260032046586266 38.968162037432194
leaf_count=286 47 253 293 32 106 17 308
internal_value=-0.00127891 -0.00683335 -0.0108658 0.00833518 0.00984814 -0.0181435 0.0118527
internal_weight=168.766 107.768 71.8553 60.9984 56.913 27.6228 47.0754
internal_count=1342 849 596 493 461 303 355
is_linear=0
shrinkage=0.0209902


Tree=54
num_leaves=8
num_cat=0
split_feature=9 0 14 20 14 0 14
split_gain=23.5155 6.18183 6.5291 3.56762 2.12586 0.76032 0.332193
threshold=0.45663286338527498 0.78028017241379322 0.16783584747457661 0.63595000000000013 0.24280458215026671 0.50454545454545463 -0.23084575660138357
decision_type=2 2 10 8 8 2 8
left_child=4 2 3 -2 6 -6 -1
right_child=1 -3 -4 -5 5 -7 -8
leaf_value=-0.0018723215150322492 0.0031104290077506032 0.0088949332243646127 0.0077656679971805859 -0.0021576838493880396 -0.0037690916245065199 -0.00011283553488126752 -0.0065927655809842204
leaf_weight=5.4284292459487915 22.308076858520508 14.869416543282567 13.737234300933777 36.03583568148315 19.469440884888172 13.536354614421723 48.398247213102877
leaf_count=43 32 107 135 347 183 59 433
internal_value=-0.0010034 0.00280578 0.00142344 -4.1702e-05 -0.00487205 -0.00245227 -0.0062288
internal_weight=173.783 86.9506 72.0811 58.3439 86.8325 33.0058 53.8267
internal_count=1339 621 514 379 718 242 476
is_linear=0
shrinkage=0.0104944


Tree=55
num_leaves=8
num_cat=0
split_feature=9 14 9 19 20 19 20
split_gain=20.9688 6.9016 5.75529 2.61546 6.16453 2.91599 2.23001
threshold=0.42398099622778085 0.13475964698464346 0.39957924000741291 0.51715000000000011 0.39715000000000006 0.53080000000000005 0.70710000000000017
decision_type=2 8 2 8 10 8 8
left_child=2 3 6 4 -2 -5 -1
right_child=1 -3 -4 5 -6 -7 -8
leaf_value=-0.043275581237420709 -0.0057430823590271379 0.015819594552747084 -8.3567258632443812e-05 -0.034637190836594209 0.024746986373565878 -0.0040470696052467871 -0.021213000231272084
leaf_weight=12.519631564617155 25.096411069855094 47.338608003221452 13.088826840743421 4.9062617756426361 12.367193102836607 25.764202998951077 28.71463312767446
leaf_count=27 178 353 118 43 18 192 405
internal_value=-0.00351271 0.00515871 -0.0221453 -0.0020394 0.00405174 -0.0100228 -0.0287875
internal_weight=169.796 115.473 54.3231 68.1341 37.4636 30.6705 41.2343
internal_count=1334 784 550 431 196 235 432
is_linear=0
shrinkage=0.0364962


Tree=56
num_leaves=8
num_cat=0
split_feature=14 21 2 20 14 4 2
split_gain=7.19449 7.95199 4.13373 5.29069 5.25949 3.94353 1.72763
threshold=0.24280458215026671 11.500000000000002 -0.066200000000000023 0.27065 0.11016608020633685 0.99999985920288448 -0.10717703349282291
decision_type=8 8 2 10 10 2 2
left_child=2 6 3 -1 -4 -6 -2
right_child=1 -3 4 -5 5 -7 -8
leaf_value=-0.002855909614582674 0.0115001282060333 -0.0018128289647124471 -0.0046941827618816297 0.0056086395212724162 0.0048172430227496326 -0.0036774643319307829 0.0044905163241594171
leaf_weight=16.223506787791848 7.8562863422557738 21.279544501565397 65.776544554159045 16.935237050056458 14.370514785870911 10.418561534956096 21.039348803460598
leaf_count=175 53 187 549 26 138 50 142
internal_value=-0.000407603 0.00301921 -0.00184892 0.00131788 -0.00307174 0.00101566 0.00674417
internal_weight=173.9 50.1752 123.724 33.1587 90.5656 24.7891 28.8956
internal_count=1320 382 938 201 737 188 195
is_linear=0
shrinkage=0.0109291


Tree=57
num_leaves=8
num_cat=0
split_feature=14 8 9 19 15 17 19
split_gain=9.28694 16.7793 12.8001 2.08004 0.675717 0.586321 2.13849
threshold=0.15760614715339519 0.38103225304075977 0.39957924000741291 0.68045000000000011 23.500000000000004 0.40337762236595159 0.51790000000000014
decision_type=8 2 2 10 8 10 10
left_child=2 -2 -1 4 -4 6 -3
right_child=1 5 3 -5 -6 -7 -8
leaf_value=-0.016659885791282945 -0.013798580756723843 0.0059133169965092901 -0.0014810895500429744 -0.011794858108499982 0.0022193954584755729 0.0030561993917384762 0.015622178487367756
leaf_weight=24.18847696762532 13.499795684590934 24.29513687081635 42.55873872898519 5.1279639005661002 29.60761010274291 8.9494284670799953 18.475312285125256
leaf_count=280 137 176 464 7 66 92 141
internal_value=-0.00113292 0.00435842 -0.00476036 -0.000827647 -8.25171e-07 0.00938796 0.010458
internal_weight=166.702 65.2197 101.483 77.2943 72.1663 51.7199 42.7704
internal_count=1363 546 817 537 530 409 317
is_linear=0
shrinkage=0.0189924


Tree=58
num_leaves=8
num_cat=0
split_feature=8 2 14 8 14 18 6
split_gain=13.1249 4.95196 6.38409 2.94972 1.71891 0.640249 1.24491
threshold=0.52593487942999406 -0.045628124999999992 0.30731767027185036 0.38103225304075977 0.084728972058868937 0.7108000000000001 0.46020000000000005
decision_type=2 2 8 2 10 8 10
left_child=1 4 3 -3 -1 -2 -7
right_child=5 2 -4 -5 -6 6 -8
leaf_value=-0.0007360722232419096 0.012010553783011833 -0.017564597802917279 0.0014847775600107611 -0.0071413476237913425 0.0088937456994193365 -0.0023790837679723595 0.0091511255117747454
leaf_weight=22.975922487676144 23.8738873898983 19.975377570837736 27.107454747892916 52.153022551909089 11.209066714160143 5.053376790136098 9.2293763514608127
leaf_count=118 173 223 203 398 80 61 91
internal_value=-0.00132449 -0.00453237 -0.00696089 -0.0102766 0.00219451 0.00951747 0.0044219
internal_weight=171.577 133.421 99.2359 72.1284 34.185 38.1566 14.2828
internal_count=1347 1022 824 621 198 325 152
is_linear=0
shrinkage=0.0213202


Tree=59
num_leaves=8
num_cat=0
split_feature=0 8 16 12 8 19 6
split_gain=7.65918 7.14973 3.95376 5.85316 2.18931 1.64503 1.64207
threshold=0.63423734983618496 0.35263335438677085 5.5000000000000009 47.500000000000007 0.45663286338527498 0.54020000000000012 0.67535000000000012
decision_type=2 2 2 2 2 10 10
left_child=1 -1 3 -2 -3 -6 -4
right_child=2 4 6 -5 5 -7 -8
leaf_value=-0.017851937085283404 0.0031979260312365904 -0.005357830048549451 -0.0077308414209001572 0.023961094642781768 -0.00039965824407751899 0.008902089608200622 0.0066990941122155086
leaf_weight=19.363343116827309 23.230332227423787 42.516266318038106 11.893941378220918 15.023829760961233 36.997983342967927 15.901497527956961 7.2497222870588294
leaf_count=252 52 358 127 104 242 126 85
internal_value=-0.000218648 -0.00405341 0.00719627 0.0118835 -0.00103855 0.00221856 -0.00155024
internal_weight=172.177 114.779 57.3978 38.2542 95.4157 52.8995 19.1437
internal_count=1346 978 368 156 726 368 212
is_linear=0
shrinkage=0.0252753


Tree=60
num_leaves=8
num_cat=0
split_feature=14 7 10 10 18 21 15
split_gain=7.52668 5.948 5.33079 3.27154 3.60065 3.58397 3.18578
threshold=0.11016608020633685 0.44182028487873015 0.49859335195263449 0.43542952841345989 0.36705000000000004 2.5000000000000004 8.5000000000000018
decision_type=8 2 2 2 10 10 8
left_child=-1 2 6 5 -5 -3 -2
right_child=1 3 -4 4 -6 -7 -8
leaf_value=-0.0016190849293311054 -0.00010609717520095815 -0.0042636804314895123 0.002526440093342516 -0.00054111591502765944 0.0040240504703362894 0.0025114459741436028 -0.0041194750494043348
leaf_weight=89.37814833689481 15.365143284201624 4.2652684915810806 10.513488747179506 5.606760509312152 27.1740369098261 4.5551547147333622 13.270415121689437
leaf_count=698 196 33 44 63 177 44 64
internal_value=-0.000461058 0.00078723 -0.000763321 0.00230855 0.00315233 -0.000492683 -0.00210077
internal_weight=170.128 80.7503 39.149 41.6012 32.7808 8.82042 28.6356
internal_count=1319 621 304 317 240 77 260
is_linear=0
shrinkage=0.00576398


Tree=61
num_leaves=8
num_cat=0
split_feature=7 15 9 8 9 13 19
split_gain=9.16763 7.19365 3.11793 9.8071 4.14081 3.60457 0.646367
threshold=0.50008959413855247 4.5000000000000009 0.25833238156929084 0.38103225304075977 0.48412183676452175 0.06731347691920149 0.50550000000000017
decision_type=2 8 2 2 2 8 10
left_child=2 6 -1 5 -5 -4 -2
right_child=1 -3 3 4 -6 -7 -8
leaf_value=-0.019818863483689397 -0.010809035865617577 0.019661840307309549 -0.024130806790555705 -0.003138884512244056 0.0069059852831639566 -0.0044994309239901106 -1.3059823463744604e-05
leaf_weight=6.6244381032884112 3.693280583247545 19.101140106096864 14.704904869198797 69.262770143337548 36.306491667404771 11.75562859978527 8.9958871677517873
leaf_count=93 45 118 145 477 244 127 108
internal_value=-0.00120644 0.0103389 -0.00397253 -0.00300774 0.000217646 -0.0160656 -0.00291234
internal_weight=170.445 31.7903 138.654 132.03 105.569 26.4605 12.6892
internal_count=1357 271 1086 993 721 272 153
is_linear=0
shrinkage=0.0243045


Tree=62
num_leaves=8
num_cat=0
split_feature=9 21 11 14 6 6 21
split_gain=16.7057 7.78806 5.20162 4.80243 2.81767 1.91051 1.70346
threshold=0.48080125260591505 5.5000000000000009 0.43215434083601295 0.16783584747457661 0.33847500000000003 0.53089160226083409 8.5000000000000018
decision_type=2 8 2 10 10 8 8
left_child=1 5 3 -2 -3 -1 -4
right_child=2 4 6 -5 -6 -7 -8
leaf_value=-0.025580863219121765 -0.0020604579476219856 -0.0098620541404454629 0.025952050138366295 0.020678732001725299 0.0026682318106393613 -0.010758344459577008 0.010353811541811883
leaf_weight=14.815858515910802 29.17842130549252 18.770798196084797 14.295134095475079 8.1600339422002417 40.236201290041208 22.130231529474258 15.770011561922727
leaf_count=94 322 270 44 119 348 82 47
internal_value=-0.000199152 -0.00757096 0.01007 0.0027844 -0.00114866 -0.0173182 0.0184969
internal_weight=163.357 95.9531 67.4036 37.3385 59.007 36.9461 30.0651
internal_count=1326 794 532 441 618 176 91
is_linear=0
shrinkage=0.0272748


Tree=63
num_leaves=8
num_cat=0
split_feature=6 8 21 22 13 17 20
split_gain=9.00108 16.0021 6.51432 5.12986 4.30758 3.03624 2.93825
threshold=0.41145000000000004 0.4534953400227405 2.5000000000000004 3.5000000000000004 -0.089799999999999949 0.31462591886520391 0.70925000000000016
decision_type=8 2 10 10 10 10 8
left_child=2 -2 6 4 -3 -5 -1
right_child=1 3 -4 5 -6 -7 -8
leaf_value=0.0019397282340683009 -0.0016494145089059548 0.0032777704974038613 -0.0047354824760093206 0.0029685522386371124 -0.0037345617501059803 0.0070452043186609876 -0.003143909276541935
leaf_weight=15.404145151376722 60.219485550187528 7.5932458639144897 28.003435491584241 37.989093475975096 7.8850916037335974 14.912610141560434 7.5330615807324675
leaf_count=24 407 67 294 290 40 130 104
internal_value=-4.65221e-05 0.000911906 -0.00251693 0.00321475 -7.09753e-05 0.00423863 7.87365e-05
internal_weight=179.54 128.6 50.9406 68.38 15.4783 52.9017 22.9372
internal_count=1356 934 422 527 107 420 128
is_linear=0
shrinkage=0.00694208


Tree=64
num_leaves=8
num_cat=0
split_feature=9 21 6 22 6 17 9
split_gain=14.1543 8.37747 3.76343 3.83996 3.75048 3.68494 2.78441
threshold=0.41988331650725663 7.5000000000000009 0.54915000000000003 12.500000000000002 0.33847500000000003 0.06194685027003289 0.3938652242717639
decision_type=2 8 8 10 10 10 2
left_child=6 2 3 -2 -4 -3 -1
right_child=1 5 4 -5 -6 -7 -8
leaf_value=-0.012276695599226246 -5.6809855690417589e-05 0.019499935625151708 0.014944942709721064 -0.015250518850679186 -0.0013901911896513363 0.0052801183945446794 -0.00014020112848955608
leaf_weight=36.316223461180925 11.780498206615448 8.0792278088629228 5.6110378801822689 12.8286905400455 24.625198015011847 53.707040860317647 10.439680105075238
leaf_count=419 17 35 9 133 174 457 112
internal_value=-0.000909331 0.00259489 -0.00270351 -0.00823743 0.00154074 0.00743961 -0.00978102
internal_weight=163.388 116.632 54.8454 24.6092 30.2362 61.7863 46.7559
internal_count=1356 825 333 150 183 492 531
is_linear=0
shrinkage=0.019141


Tree=65
num_leaves=7
num_cat=0
split_feature=9 20 20 2 20 6
split_gain=13.4187 3.99525 1.99375 8.09309 3.60771 0.695296
threshold=0.49099491512749577 0.52770000000000017 0.7107500000000001 -0.32049999999999995 0.74715000000000009 0.38637636230680722
decision_type=2 8 10 2 8 10
left_child=2 -2 3 5 -5 -1
right_child=1 -3 -4 4 -6 -7
leaf_value=0.026617068983853069 0.029651587230726011 0.0073111769185583318 -0.025250702091947245 -0.017171012086725702 -0.0036770996272360249 0.0068707836442624855
leaf_weight=5.037513626739381 9.672650218009947 47.843083749525249 5.3250313103198996 33.481755435466766 52.206872642971575 7.2014124672859907
leaf_count=32 17 469 9 63 705 46
internal_value=-0.000239304 0.0115609 -0.00698848 -0.00570803 -0.00919734 0.0168258
internal_weight=160.768 57.5157 103.253 97.9276 85.6886 12.2389
internal_count=1341 486 855 846 768 78
is_linear=0
shrinkage=0.0309263


Tree=66
num_leaves=8
num_cat=0
split_feature=9 2 21 18 18 18 6
split_gain=6.74173 8.19386 4.33348 3.70879 2.92558 2.24164 3.07767
threshold=0.49459124505762037 -0.38762019230769229 2.5000000000000004 0.86830000000000007 0.45535000000000009 0.71565000000000012 0.65065000000000006
decision_type=2 2 8 8 10 10 8
left_child=1 -1 -2 4 -3 -4 -7
right_child=2 3 5 -5 -6 6 -8
leaf_value=0.013108062393832413 0.020050262034673763 -3.0571808073049659e-05 0.0057372707622052651 0.0030846641910476542 -0.010447214829441557 -0.011803774802440083 0.0084917421808108733
leaf_weight=11.074131511151789 7.9880310893058768 16.156147670000792 34.41486591566354 15.138765140436588 59.782834766432643 9.2723659314215148 4.4911867976188669
leaf_count=53 35 68 322 196 549 59 43
internal_value=-0.000530281 -0.00394562 0.00546479 -0.00621155 -0.00822382 0.00263159 -0.0042893
internal_weight=158.318 102.152 56.1664 91.0777 75.939 48.1784 13.7636
internal_count=1325 866 459 813 617 424 102
is_linear=0
shrinkage=0.0219604


Tree=67
num_leaves=8
num_cat=0
split_feature=6 0 16 20 4 20 6
split_gain=6.38437 5.7448 9.19063 5.38301 3.34836 5.0754 3.54068
threshold=0.6655500000000002 0.81029411764705894 1.5000000000000002 0.68365000000000009 0.99999984968187283 0.41255000000000003 0.26040000000000008
decision_type=10 2 2 8 2 10 10
left_child=1 4 -3 -2 6 -6 -1
right_child=3 2 -4 -5 5 -7 -8
leaf_value=-0.0076965907258558985 -0.004089791705883263 0.02456858585028248 -0.0045808541138469116 0.01015081964294791 -0.0025602483671184222 -0.015918763852351771 0.0019656563490121183
leaf_weight=21.224750707857311 13.00565782189369 6.1471176687628022 8.1445169374346715 28.583457126282156 25.522899186238647 19.973827302455902 35.526745580136776
leaf_count=261 22 21 93 335 183 38 369
internal_value=-0.000851105 -0.00320014 0.00769494 0.00545792 -0.00485323 -0.00873991 -0.00152211
internal_weight=158.129 116.54 14.2916 41.5891 102.248 45.4967 56.7515
internal_count=1322 965 114 357 851 221 630
is_linear=0
shrinkage=0.019155


Tree=68
num_leaves=8
num_cat=0
split_feature=9 6 22 20 6 10 5
split_gain=6.50905 4.19539 3.95374 3.82485 3.81866 3.14074 1.50752
threshold=0.41391473188954042 0.72384598014946511 4.5000000000000009 0.46870000000000006 0.53089160226083409 0.5473758736826968 54.500000000000007
decision_type=2 8 10 10 10 2 2
left_child=3 5 -3 4 -1 -2 -7
right_child=1 2 -4 -5 -6 6 -8
leaf_value=-0.012757752618071555 -0.0055165328752304951 -0.0017531160455042626 0.015729408700233819 -0.026814660226933507 0.0041268071590368233 0.013922560024305631 0.0002165936247768948
leaf_weight=20.890719201415777 47.320912726223469 11.810839573852716 22.830074975267053 7.3832388520240775 13.856618545949457 8.8984095454216021 17.355245862156153
leaf_count=342 377 107 183 22 128 84 68
internal_value=-0.00130379 0.00198513 0.00943454 -0.00997429 -0.00569387 -0.00138748 0.00551569
internal_weight=150.346 108.215 34.6409 42.1306 34.7473 73.5746 26.2537
internal_count=1311 819 290 492 470 529 152
is_linear=0
shrinkage=0.0260702


Tree=69
num_leaves=7
num_cat=0
split_feature=8 20 14 14 15 13
split_gain=13.5953 4.8299 2.98611 3.9976 1.68991 0.200338
threshold=0.41988331650725663 0.63065000000000015 0.34491069131832813 -0.083278320544125636 10.500000000000002 0.18407500000000013
decision_type=2 10 10 8 10 8
left_child=4 2 3 -2 5 -1
right_child=1 -3 -4 -5 -6 -7
leaf_value=-0.0053485711634550489 -0.00082940564979465479 -0.0028236725325136683 0.007970291252351009 0.0029621484738018792 -3.2967353429154078e-05 -0.002814624831262933
leaf_weight=27.292019603773952 28.847130481153727 15.605346500873564 6.4637383855879298 67.266964606940746 5.3582510352134696 15.395887298509477
leaf_count=305 204 23 56 548 71 152
internal_value=-4.50195e-05 0.0015326 0.00225204 0.00177956 -0.00398905 -0.00457795
internal_weight=166.229 118.183 102.578 96.1141 48.0462 42.6879
internal_count=1359 831 808 752 528 457
is_linear=0
shrinkage=0.00880147


Tree=70
num_leaves=8
num_cat=0
split_feature=6 6 8 15 21 17 17
split_gain=11.5942 10.8651 7.67338 4.55055 3.1948 4.93005 1.77718
threshold=0.55545000000000011 0.59342500000000009 0.40856993054173446 21.000000000000004 12.500000000000002 0.13813397288322452 0.34368249773979193
decision_type=8 8 2 8 8 10 8
left_child=2 -2 -1 -4 6 -6 -3
right_child=1 4 3 -5 5 -7 -8
leaf_value=-0.0071056161834877427 -0.0080124876634108874 0.0071879105150819472 -0.003093297638345999 0.0027044955499774129 0.0087886161072207088 -0.0010590162520545347 0.0023342473985917978
leaf_weight=24.411529446952045 7.4675170332193366 32.059727287851274 27.991339109838009 25.665647592395544 6.0303300330415395 20.765615273267031 15.500192621722816
leaf_count=324 58 256 284 55 44 213 128
internal_value=0.000263139 0.00293657 -0.00247543 -0.000229865 0.00416005 0.00111022 0.00574721
internal_weight=159.892 81.8234 78.0685 53.657 74.3559 26.7959 47.5599
internal_count=1362 699 663 339 641 257 384
is_linear=0
shrinkage=0.0100968


Tree=71
num_leaves=8
num_cat=0
split_feature=0 13 0 19 21 13 13
split_gain=6.29675 2.10718 1.99358 7.24784 4.84745 5.13131 1.61585
threshold=0.79062500000000013 0.32890000000000003 0.60188679245283028 0.5051500000000001 7.5000000000000009 0.40410000000000007 -0.19414817073170731
decision_type=2 8 2 10 10 10 10
left_child=2 -2 4 -4 5 -1 -5
right_child=1 -3 3 6 -6 -7 -8
leaf_value=-0.0032320469544942117 0.0020167348118386992 0.0084228091051828016 0.0055035640234093134 -0.0050215165233313177 0.0020038069396252842 0.0049547242321403536 -0.00020364638525941753
leaf_weight=74.390043254010379 22.1905149044469 5.3170641846954849 14.313848620280622 8.4706260599195975 20.321899412199855 5.2727556414902201 17.191398628056049
leaf_count=578 154 15 99 47 258 50 114
internal_value=-0.000177598 0.00353951 -0.000950398 0.000602252 -0.00161531 -0.00260185 -0.00202169
internal_weight=167.468 27.5076 139.961 39.9759 99.9847 79.6628 25.662
internal_count=1315 169 1146 260 886 628 161
is_linear=0
shrinkage=0.0086785


Tree=72
num_leaves=8
num_cat=0
split_feature=8 10 12 14 14 20 20
split_gain=11.078 4.18911 5.40022 4.50819 3.19746 1.33039 1.04889
threshold=0.4534953400227405 0.44811342323335285 50.500000000000007 -0.0068549911334681848 0.38149926564804298 0.41630000000000006 0.41630000000000006
decision_type=2 2 2 10 8 10 8
left_child=4 3 -3 -2 6 -6 -1
right_child=1 2 -4 -5 5 -7 -8
leaf_value=-0.0075184591409416393 -0.0032455589221932262 0.0005027357534324329 0.0052948972833997583 0.0022213583494474997 -0.0012491473013925268 0.0027657841344351391 -0.0028824318976264215
leaf_weight=3.8551697432994843 17.80097639746964 33.015677087008953 24.177326933480799 14.61790752224624 11.130790796130897 6.8161988854408255 55.420782203786075
leaf_count=9 106 244 195 120 124 11 525
internal_value=-0.00037564 0.0013916 0.00262122 -0.000665236 -0.00247026 0.000102816 -0.00331049
internal_weight=166.835 89.6119 57.193 32.4189 77.2229 17.947 59.276
internal_count=1334 665 439 226 669 135 534
is_linear=0
shrinkage=0.00751804


Tree=73
num_leaves=8
num_cat=0
split_feature=8 20 22 6 21 14 20
split_gain=25.3029 5.98029 5.39076 11.3691 4.17938 3.95997 0.778371
threshold=0.41988331650725663 0.63065000000000015 3.5000000000000004 0.61270000000000013 7.5000000000000009 0.071915112540192963 0.5968500000000001
decision_type=2 8 8 8 8 10 8
left_child=1 -1 -2 4 -4 -3 -5
right_child=2 5 3 6 -6 -7 -8
leaf_value=-0.0078058359550519383 -0.0017374624386362661 -0.0043118927399734223 -0.001852205376055574 0.0062214630224306927 0.0016258007973530969 -6.2830644647236803e-06 0.0033630760186246036
leaf_weight=13.052278041839598 18.862182468175888 21.441006368026137 28.069469414651394 9.0957792699336988 25.81808072514832 15.572198340669273 40.18646236602217
leaf_count=29 31 312 177 15 212 173 399
internal_value=-0.000290443 -0.0040679 0.00124494 0.00182918 -0.00012564 -0.00258234 0.00401064
internal_weight=172.097 50.0655 122.032 103.17 53.8876 37.0132 49.2822
internal_count=1348 514 834 803 389 485 414
is_linear=0
shrinkage=0.00633144


Tree=74
num_leaves=8
num_cat=0
split_feature=6 9 15 17 18 15 17
split_gain=7.45741 3.52206 2.51785 3.19471 2.0056 0.931377 0.704676
threshold=0.50570000000000015 0.50586022407734377 1.5000000000000002 0.15501025319099429 0.70510000000000017 50.500000000000007 0.17098872363567355
decision_type=8 2 10 10 10 8 8
left_child=1 -1 3 -2 -3 -5 -4
right_child=2 4 6 5 -6 -7 -8
leaf_value=-0.0090071817461726492 0.0061579069704626246 0.0076649472087610823 2.4029646251771518e-05 0.00016546805892498113 -0.0049267555603247411 -0.0050239165466008061 0.0065294065847778552
leaf_weight=48.703662959858775 15.70914721675217 7.5049721449613562 8.3868720773607475 13.237691143527625 8.3219990339130145 32.492623365484178 30.162557213567197
leaf_count=459 76 49 99 157 51 67 388
internal_value=-0.00160946 -0.00653502 0.00149468 -0.000710853 0.000510376 -0.00332499 0.00521443
internal_weight=164.52 64.5306 99.9889 61.4395 15.827 45.7303 38.5494
internal_count=1346 559 787 300 100 224 487
is_linear=0
shrinkage=0.0185958


Tree=75
num_leaves=8
num_cat=0
split_feature=8 8 8 7 2 15 20
split_gain=8.35363 4.96484 16.153 6.883 6.12038 2.53204 0.793484
threshold=0.31994828308713913 0.63653393431327521 0.46481979715787719 0.47369596284387289 -0.38762019230769229 9.5000000000000018 0.7107500000000001
decision_type=2 2 2 2 2 8 8
left_child=6 2 4 -4 -2 -3 -1
right_child=1 5 3 -5 -6 -7 -8
leaf_value=-7.4781150236865809e-05 0.0025707761960879465 0.00055126088656812624 0.0050261010937487438 0.00055970060953788273 -0.0030073344237847538 0.006183611813837587 -0.005421557889184375
leaf_weight=2.6198271214962006 8.71133094280958 8.129300946369769 23.607332523912191 45.109727894887328 63.978570573963225 8.2314248476177436 12.736273031681774
leaf_count=5 42 95 155 320 509 34 182
internal_value=-0.000151184 0.000287031 -9.32434e-05 0.00216607 -0.00227481 0.00366394 -0.00471121
internal_weight=173.124 157.768 141.407 68.7171 72.6899 16.3607 15.3561
internal_count=1342 1155 1026 475 551 129 187
is_linear=0
shrinkage=0.0066


Tree=76
num_leaves=8
num_cat=0
split_feature=8 8 6 14 19 14 8
split_gain=2.31428 8.67495 3.48648 1.73038 1.40971 0.921689 3.34929
threshold=0.61836188705787787 0.48080125260591505 0.59342500000000009 -0.20345200039974673 0.55765000000000009 -0.0068549911334681848 0.42749124244948172
decision_type=2 2 10 8 8 8 2
left_child=1 5 -2 -3 -5 6 -1
right_child=2 3 -4 4 -6 -7 -8
leaf_value=-0.021060772188453161 -0.0033442859486580438 -0.0016859239242868289 0.023798415106444017 0.016074762897280506 7.9303763656712176e-05 -0.0040389946747451562 -4.0353117598962189e-05
leaf_weight=16.324906627647582 7.2279711402952698 8.0484507232904416 9.4195655426010472 30.090882727876306 9.1147671639919263 66.68404284119606 14.396211704239247
leaf_count=221 56 38 100 220 118 523 80
internal_value=0.000161779 -0.00104686 0.0112832 0.00995381 0.0127679 -0.00657418 -0.0114199
internal_weight=161.307 144.659 16.6475 47.2541 39.2056 97.4052 30.7211
internal_count=1356 1200 156 376 338 824 301
is_linear=0
shrinkage=0.0318884


Tree=77
num_leaves=8
num_cat=0
split_feature=9 2 2 0 4 6 6
split_gain=12.774 2.0427 3.02655 2.5382 1.9195 3.5799 1.53134
threshold=0.3938652242717639 0.16670000000000001 -0.35256410256410248 0.75311355311355321 0.83170000000000011 0.22467500000000004 0.38637636230680722
decision_type=2 2 2 2 2 10 10
left_child=4 2 -2 -4 6 -6 -1
right_child=1 -3 3 -5 5 -7 -8
leaf_value=-0.011739170675672792 0.012713499778327331 -0.0011159179795482315 8.6908175853563416e-05 0.0093197786574984089 -0.00025417677140091569 -0.021386948710322758 0.0014445196314381988
leaf_weight=6.5803165398538095 18.719734735786915 35.213818458840251 56.760516772978008 19.634107443504035 4.384355220943692 15.243805322796105 7.1310537364333868
leaf_count=148 100 174 542 143 48 94 107
internal_value=0 0.00312084 0.00480531 0.00265201 -0.0119435 -0.0165215 -0.00433033
internal_weight=163.668 130.328 95.1144 76.3946 33.3395 19.6282 13.7114
internal_count=1356 959 785 685 397 142 255
is_linear=0
shrinkage=0.0218884


Tree=78
num_leaves=8
num_cat=0
split_feature=9 0 16 0 19 15 0
split_gain=15.7649 3.68651 3.29495 3.08175 3.03548 2.1851 1.86448
threshold=0.41988331650725663 0.79062500000000013 4.5000000000000009 0.63082317073170746 0.45575000000000004 10.500000000000002 0.5472785714285715
decision_type=2 2 2 2 8 10 2
left_child=5 3 -3 4 -2 6 -1
right_child=1 2 -4 -5 -6 -7 -8
leaf_value=-0.0064650078720693734 0.0022010977386209716 0.0076481197655125423 4.511092582384617e-05 0.0032943959370778817 -0.0018342548092087267 0.00021346643447556519 -0.00089491706275480164
leaf_weight=37.624702241271734 24.247533332556486 13.574429313652219 7.7134537473320952 26.363494101911783 48.718779821880162 4.9071020353585473 8.8171848393976671
leaf_count=401 80 58 89 181 427 63 63
internal_value=-0.000483088 0.00136238 0.00491709 0.000531347 -0.000420634 -0.00487786 -0.00552449
internal_weight=171.967 120.618 21.2879 99.3298 72.9663 51.349 46.4419
internal_count=1362 835 147 688 507 527 464
is_linear=0
shrinkage=0.00949492


Tree=79
num_leaves=8
num_cat=0
split_feature=8 6 7 19 16 22 20
split_gain=16.1378 12.2266 5.47972 7.63573 3.40647 2.14874 2.10589
threshold=0.41988331650725663 0.62547500000000011 0.45160635968219692 0.49340000000000006 13.500000000000002 3.5000000000000004 0.46870000000000006
decision_type=2 8 2 8 2 8 8
left_child=-1 2 3 -2 6 -4 -3
right_child=1 4 5 -5 -6 -7 -8
leaf_value=-0.0030970102897300545 0.0070756515296200731 0.00062717408851937822 -0.0040837929740814953 -0.0019814114512880375 3.2136939798150419e-05 -0.00067491303260862519 0.0050819027892619762
leaf_weight=47.564470891840756 8.0192284174263442 7.1124001741409302 10.335562884807585 5.9409229904413232 7.2234259024262419 41.641056682914495 36.708920511417091
leaf_count=513 29 12 15 52 82 318 308
internal_value=5.87374e-05 0.0013783 -0.000430303 0.00303251 0.00376002 -0.00144869 0.00444133
internal_weight=164.546 116.982 65.9368 13.9602 51.0447 51.9766 43.8213
internal_count=1329 816 414 81 402 333 320
is_linear=0
shrinkage=0.00651548


Tree=80
num_leaves=7
num_cat=0
split_feature=8 6 6 2 4 14
split_gain=20.1074 9.10479 2.69108 2.41027 2.20384 0.789328
threshold=0.40288962596036559 0.67535000000000012 0.65065000000000006 -0.15340000000000001 0.97329396431581849 0.17964012412240674
decision_type=2 8 8 2 2 10
left_child=2 3 5 -2 -5 -1
right_child=1 -3 -4 4 -6 -7
leaf_value=-0.0057696277031820996 0.0014858366923873872 0.0032192434649098637 -0.0013804322135271818 0.00061587733985301305 -0.0019493951452051875 -0.0017990554070485528
leaf_weight=24.354783390648667 19.995401669293642 46.493244425393641 14.468473375774918 18.711080390959978 38.081960244104266 5.5910794604569665
leaf_count=283 94 371 122 230 193 48
internal_value=-0.000333207 0.000984327 -0.0040288 -0.000339074 -0.00104819 -0.00516929
internal_weight=167.696 123.282 44.4143 76.7884 56.793 29.9459
internal_count=1341 888 453 517 423 331
is_linear=0
shrinkage=0.0064338


Tree=81
num_leaves=8
num_cat=0
split_feature=9 8 14 14 20 21 17
split_gain=12.9877 6.04522 4.54733 4.3597 10.4316 3.23101 2.26865
threshold=0.41391473188954042 0.3938652242717639 -0.0068549911334681848 -0.030869914721096067 0.59135000000000015 8.5000000000000018 0.15501025319099429
decision_type=2 2 10 8 8 10 10
left_child=1 -1 -3 4 -2 -6 -5
right_child=3 2 -4 6 5 -7 -8
leaf_value=-0.0078672972264840404 0.0066397776479506909 -0.0063274124252161654 0.0080933798349493678 0.0066057695116869281 -0.0072860032604885891 0.0024944458542599667 0.0018596920642173697
leaf_weight=35.770043617114425 13.246050059795378 4.2263300810009241 6.1463770866394025 20.082594912499189 23.180130576714877 4.1808676570653907 57.790224548429251
leaf_count=408 19 44 48 137 197 43 436
internal_value=-0.00041412 -0.00560389 0.00162037 0.00157523 -0.00138054 -0.00553898 0.00319209
internal_weight=164.623 46.1428 10.3727 118.48 40.607 27.361 77.8728
internal_count=1332 500 92 832 259 240 573
is_linear=0
shrinkage=0.0115603


Tree=82
num_leaves=8
num_cat=0
split_feature=9 6 6 20 1 15 19
split_gain=17.3922 8.34546 4.75554 3.29697 2.74645 2.48789 5.12384
threshold=0.41988331650725663 0.59342500000000009 0.73583037658828399 0.43415000000000009 0.36931818181818188 7.5000000000000009 0.54440000000000011
decision_type=2 8 10 8 2 8 8
left_child=2 5 4 -3 -1 -2 -7
right_child=1 3 -4 -5 -6 6 -8
leaf_value=-0.0022161014302791563 -0.0025919327368388234 -0.00086760004139604171 0.00076240029026485132 0.0043982720088112815 -0.0071011944803294922 0.0028392549036159289 -0.0031991932375548112
leaf_weight=15.264083097688852 24.048698542639613 7.3111147582530975 8.4533402398228628 49.239297361113131 25.166969408281147 24.641861621290445 12.933608107268808
leaf_count=194 259 12 50 425 268 90 32
internal_value=-0.000226775 0.00141508 -0.0042483 0.00363794 -0.00540159 -0.000571574 0.000631007
internal_weight=167.059 118.175 48.8844 56.5504 40.4311 61.6242 37.5755
internal_count=1330 818 512 437 462 381 122
is_linear=0
shrinkage=0.00803465


Tree=83
num_leaves=8
num_cat=0
split_feature=6 22 17 17 4 0 15
split_gain=5.0463 3.57553 3.53385 7.89061 3.102 4.03999 2.69547
threshold=0.54915000000000003 3.5000000000000004 0.40337762236595159 0.26340354979038244 0.99999985920288448 0.51470805617147075 16.000000000000004
decision_type=8 10 10 10 2 2 8
left_child=6 2 3 -2 5 -3 -1
right_child=1 4 -4 -5 -6 -7 -8
leaf_value=-0.0089624830237192456 0.011886857009124679 0.0021979755935663085 -0.022715412718987547 -0.022267608962837599 0.0019036924807599694 0.022376798810776085 0.00063675462415239384
leaf_weight=39.778446518816054 14.807848645374184 13.509691344574096 4.4774179179221383 5.9483420336619011 30.838813116773963 17.570427401922643 35.052716723643243
leaf_count=525 110 165 42 59 172 159 110
internal_value=0.000566583 0.00490724 -0.00296953 0.0011351 0.00833396 0.0141763 -0.00431345
internal_weight=161.984 87.1525 25.2336 20.7562 61.9189 31.0801 74.8312
internal_count=1342 707 211 169 496 324 635
is_linear=0
shrinkage=0.0262051


Tree=84
num_leaves=8
num_cat=0
split_feature=8 2 6 17 16 13 14
split_gain=12.8485 6.27248 9.25246 2.90527 2.84146 1.95107 0.953956
threshold=0.53358923955434279 -0.15340000000000001 0.62547500000000011 0.14356862753629687 14.500000000000002 -0.12067499999999996 -0.04093573516515641
decision_type=2 2 8 10 2 10 10
left_child=1 3 -3 -1 6 -4 -2
right_child=4 2 5 -5 -6 -7 -8
leaf_value=0.0047352412781895854 0.002068524917596716 -0.003320435369236892 0.0023798638979804845 0.00020357249684273051 -0.00089108511814653391 -0.00041986060505668681 0.0049999029434037731
leaf_weight=7.2117563299834719 13.412569591775538 60.165487956255674 14.322631588205693 25.502658961340785 4.240304358303546 25.183991089463234 18.467030274681747
leaf_count=29 102 531 124 149 45 197 162
internal_value=-3.7957e-05 -0.00096753 -0.0017662 0.00135601 0.00324552 0.000531463 0.00391234
internal_weight=168.506 132.387 99.6721 32.7144 36.1199 39.5066 31.8796
internal_count=1339 1030 852 178 309 321 264
is_linear=0
shrinkage=0.00630868


Tree=85
num_leaves=8
num_cat=0
split_feature=6 6 22 21 3 22 7
split_gain=6.27148 8.59168 3.76305 2.47799 2.00609 1.54407 1.45558
threshold=0.48507500000000003 0.60005000000000019 12.500000000000002 2.5000000000000004 0.57141428571428576 12.500000000000002 0.45922115041086109
decision_type=8 8 10 10 2 10 2
left_child=3 4 -3 -1 -2 -6 -5
right_child=1 2 -4 6 5 -7 -8
leaf_value=-0.00051119961774928027 0.00053189115370367614 0.00035361555971788998 0.0034341781803887798 -0.0046376320191063849 -0.0052502448884949255 -0.0012064865918806175 -0.0013922021185836387
leaf_weight=29.562697224318981 5.5331465825438526 46.07440440915525 33.707803240045905 19.86263987980783 11.835929457098249 11.392420159652826 15.618880860507486
leaf_count=167 63 221 393 236 28 114 122
internal_value=-0.000443301 0.000534482 0.00171022 -0.00211792 -0.00257731 -0.00347344 -0.0033399
internal_weight=173.588 108.544 79.7822 65.0442 28.7615 23.2283 35.4815
internal_count=1344 819 614 525 205 142 358
is_linear=0
shrinkage=0.00681737


Tree=86
num_leaves=8
num_cat=0
split_feature=8 13 8 10 16 6 22
split_gain=9.48726 6.40199 6.27516 4.30244 2.79115 2.10635 1.02073
threshold=0.55336066405070217 0.088321164021163981 0.4458089018677211 0.73396054655663845 12.500000000000002 0.60005000000000019 12.500000000000002
decision_type=2 8 2 2 2 10 8
left_child=1 2 -1 -3 5 6 -2
right_child=4 3 -4 -5 -6 -7 -8
leaf_value=-0.0051793767544813987 0.0033364302513994451 -0.00038574724301678148 -0.00081727411591259441 0.0066777135740955238 -0.0012077691393369747 0.0057097568051266085 1.2433105440004514e-05
leaf_weight=33.51673093624413 6.5354155302047729 55.685135335661471 35.815856790170074 3.9483621120452872 6.0463325306773177 12.724358462728558 8.351476553827526
leaf_count=349 10 462 225 6 65 117 89
internal_value=-0.000667005 -0.00155137 -0.00299702 8.07821e-05 0.00258744 0.00356426 0.00138007
internal_weight=162.624 128.966 69.3326 59.6335 33.6576 27.6113 14.8869
internal_count=1323 1042 574 468 281 216 99
is_linear=0
shrinkage=0.00703043


Tree=87
num_leaves=8
num_cat=0
split_feature=8 9 6 21 13 6 2
split_gain=16.4043 9.94882 13.7815 2.0085 1.97773 0.649846 3.00414
threshold=0.37089587035313371 0.51167956189710628 0.60005000000000019 4.5000000000000009 0.32890000000000003 0.50570000000000015 0.24072398190045255
decision_type=2 2 8 8 10 8 2
left_child=4 2 -2 -4 -1 -3 -7
right_child=1 5 3 -5 -6 6 -8
leaf_value=-0.0061390480353382326 -0.0033518223432302276 0.0011538299515004573 -0.00059967275398076876 0.0025338408542779174 -7.9875720132920652e-05 0.0048058771702617839 2.7731878109859961e-05
leaf_weight=25.355279437266294 54.597301171161234 12.943503784015773 10.872554060071705 35.877018876373768 2.981460837647318 23.098423901014034 7.7104135956615201
leaf_count=295 369 96 35 251 28 214 45
internal_value=-0.000735786 0.000190507 -0.000977544 0.0017256 -0.00551142 0.00295383 0.00357741
internal_weight=173.436 145.099 101.347 46.7496 28.3367 43.7523 30.8088
internal_count=1333 1010 655 286 323 355 259
is_linear=0
shrinkage=0.00694215


Tree=88
num_leaves=8
num_cat=0
split_feature=9 6 20 14 15 20 22
split_gain=15.1572 8.59967 3.99117 3.62023 2.87333 1.97192 1.91347
threshold=0.41988331650725663 0.61270000000000013 0.73060000000000014 0.32615850078375574 6.5000000000000009 0.77000000000000013 12.500000000000002
decision_type=2 8 8 8 10 8 10
left_child=3 2 -2 5 -4 -1 -5
right_child=1 -3 4 6 -6 -7 -8
leaf_value=-0.03936127144210818 0.01075673460372027 0.019822740755538699 -0.014463975163118361 -0.010098835645763207 0.0085525145661026879 -0.015505076674293084 0.016702628980419128
leaf_weight=8.9753867387771589 24.568319320678711 52.546798869036138 28.030360488221049 10.346108776517211 8.7040037699043733 22.883664817549292 4.9251392465084782
leaf_count=26 35 416 275 75 82 366 53
internal_value=0.0013408 0.00881288 -0.000401066 -0.016207 -0.00843301 -0.0233088 -4.78081e-05
internal_weight=160.98 113.849 61.3027 47.1303 36.7344 31.8591 15.2712
internal_count=1328 808 392 520 357 392 128
is_linear=0
shrinkage=0.0373499


Tree=89
num_leaves=8
num_cat=0
split_feature=6 2 19 16 17 19 17
split_gain=9.97225 3.46599 3.23934 4.2103 2.87798 1.66834 0.77847
threshold=0.60005000000000019 -0.11287878787878783 0.32010000000000005 1.0000000180025095e-35 0.28345085680484777 0.50230000000000008 0.31462591886520391
decision_type=10 2 10 2 10 10 10
left_child=2 -2 -1 -4 5 -3 -6
right_child=1 4 3 -5 6 -7 -8
leaf_value=-0.014463423758366036 0.020456442746609512 0.019585530289604382 0.005193347266525916 -0.0071884888759824375 -0.011855778513661453 0.0042547944924998544 -5.7544271652793808e-06
leaf_weight=18.970831314101815 13.520261211320756 9.5270803719759005 29.804550264030695 46.396947958506644 3.6731328442692783 15.729818174615501 17.343038933351636
leaf_count=189 87 65 70 579 34 128 152
internal_value=0.00034411 0.00875491 -0.00482341 -0.00217271 0.00487291 0.0108059 -0.00174359
internal_weight=154.966 59.7933 95.1723 76.2015 46.2731 25.2569 21.0162
internal_count=1304 466 838 649 379 193 186
is_linear=0
shrinkage=0.026191


Tree=90
num_leaves=8
num_cat=0
split_feature=8 20 13 20 14 18 2
split_gain=16.7816 5.45495 2.00319 1.48651 6.85884 1.27694 1.26126
threshold=0.43846489675642025 0.77985000000000004 -0.099423076923076878 0.78920000000000012 1.0000000180025095e-35 0.65570000000000006 0.16955689655172418
decision_type=2 8 10 8 10 10 2
left_child=1 -1 5 -2 -5 -3 -6
right_child=3 2 -4 4 6 -7 -8
leaf_value=-0.018907212854319577 0.0077694385963141882 -0.0015785028718963052 -7.0487974642044503e-06 -0.005899106879027693 0.012146142902736577 -0.015177899874722279 0.00051532103080846798
leaf_weight=20.926628291606903 45.776022672653198 7.9674512352794435 22.479579957202077 25.945021718740463 21.441850541159514 9.9951925864443165 8.229181341826914
leaf_count=46 72 113 307 276 290 165 73
internal_value=-0.000658266 -0.00974745 -0.00457467 0.00475812 0.00204181 -0.00993133 0.00932735
internal_weight=162.761 61.3689 40.4422 101.392 55.6161 17.9626 29.671
internal_count=1342 631 585 711 639 278 363
is_linear=0
shrinkage=0.0220082


Tree=91
num_leaves=8
num_cat=0
split_feature=8 5 10 14 10 22 15
split_gain=8.16079 4.35669 3.04134 11.1331 2.30651 4.14386 2.2319
threshold=0.49558983118971062 76.500000000000014 0.42053751707697212 0.19291138286885043 0.39373074322392126 3.5000000000000004 5.5000000000000009
decision_type=2 2 2 8 2 8 8
left_child=2 -2 4 -4 5 -1 -6
right_child=1 -3 3 -5 6 -7 -8
leaf_value=0.018707179155982225 0.012667873814056301 1.728496986593298e-05 -0.016282399359572829 0.003437006384009603 9.6530719720190454e-05 -0.0062541191335728644 0.021192878703007789
leaf_weight=3.6900890469551086 32.085009288974106 25.991190351545811 35.517608178779483 27.667193789035082 4.7166489660739872 25.049937000498179 4.8820808175951251
leaf_count=5 350 97 304 188 67 279 45
internal_value=-0.00014386 0.00686213 -0.00428409 -0.00749621 0.000722203 -0.00233646 0.0107149
internal_weight=159.6 58.0762 101.524 63.1848 38.3388 28.74 9.59873
internal_count=1335 447 888 492 396 284 112
is_linear=0
shrinkage=0.0238329


Tree=92
num_leaves=7
num_cat=0
split_feature=9 8 7 7 3 3
split_gain=8.05549 2.57226 4.5043 3.03072 1.54829 0.944847
threshold=0.47331820187882229 0.30428704842065452 0.36305437270067503 0.41023861905567788 0.64708333333333334 0.40835000000000005
decision_type=2 2 2 2 2 2
left_child=1 -1 -3 -4 5 -2
right_child=4 2 3 -5 -6 -7
leaf_value=-0.016710358346472862 -0.0081682598829674082 0.019193041182345136 0.0014532530355532956 -0.0087966103763435187 0.0096396253070185137 0.0057891378353124925
leaf_weight=8.9250120026990754 5.2670849272981268 5.1672844849526873 32.005358727648854 39.42874239012599 54.970095781609416 6.2663853969424963
leaf_count=143 49 54 278 291 385 114
internal_value=0.00114571 -0.00394002 -0.00218287 -0.00404589 0.00785639 4.07067e-05
internal_weight=152.03 85.5264 76.6014 71.4341 66.5036 11.5335
internal_count=1314 766 623 569 548 163
is_linear=0
shrinkage=0.0256003


Tree=93
num_leaves=8
num_cat=0
split_feature=9 6 5 2 18 0 1
split_gain=7.39822 3.78064 4.4385 3.35558 2.01621 1.88022 2.51252
threshold=0.43362305734190792 0.67535000000000012 155.50000000000003 -0.44229999999999997 0.72275000000000011 0.75311355311355321 0.33331666666666671
decision_type=2 8 2 2 8 2 2
left_child=3 5 -3 -1 -5 6 -2
right_child=1 2 -4 4 -6 -7 -8
leaf_value=0.01108009564904658 0.010756672637677139 0.016116251204686811 -0.0064634525849350463 -0.014259583704538673 -4.114639226405992e-05 0.010066759961692434 -0.0050591988323788291
leaf_weight=4.9897734336554995 8.6822504419833404 29.536760522052646 7.7318634055554858 39.606168676167727 12.38253948651254 11.284106638282536 48.383124608546495
leaf_count=32 23 281 43 409 160 82 324
internal_value=-0.000570824 0.00378557 0.0109981 -0.00885186 -0.0111507 3.86677e-06 -0.00231404
internal_weight=162.597 105.618 37.2686 56.9785 51.9887 68.3495 57.0654
internal_count=1354 753 324 601 569 429 347
is_linear=0
shrinkage=0.0284361


Tree=94
num_leaves=8
num_cat=0
split_feature=8 6 6 20 4 20 0
split_gain=13.623 8.61128 5.42997 4.53245 4.22123 1.98802 1.61923
threshold=0.4627729456380667 0.61270000000000013 0.65065000000000006 0.56400000000000017 0.99999994697811989 0.46215000000000006 0.35712142857142865
decision_type=2 8 8 10 2 10 2
left_child=1 -1 3 -2 5 -3 -4
right_child=2 4 6 -5 -6 -7 -8
leaf_value=-0.0026457824805314104 0.00051718338907451246 2.0089478368621561e-06 2.6082151141361933e-05 -0.0030081654614291884 -0.0027546034150271368 0.002482703679168816 0.0026705612883397003
leaf_weight=46.652897114865482 44.153090130537748 22.13183620013297 6.4572368608787682 6.5434375405311576 6.8287495449185363 7.4005127549171439 25.296406607143581
leaf_count=475 294 224 36 9 33 11 254
internal_value=-0.000295078 -0.00148088 0.000875665 1.20449e-06 -2.27478e-06 0.000713176 0.00219963
internal_weight=165.464 83.014 82.4502 50.6965 36.3611 29.5323 31.7536
internal_count=1336 743 593 303 268 235 290
is_linear=0
shrinkage=0.0041325


Tree=95
num_leaves=8
num_cat=0
split_feature=8 11 9 14 6 2 17
split_gain=20.8296 2.23752 1.25056 2.97583 1.90785 1.47815 1.38651
threshold=0.39957924000741291 0.43215434083601295 0.60714828429282541 0.20216214349201375 0.46020000000000005 0.099504950495049496 0.28345085680484777
decision_type=2 2 2 8 10 2 10
left_child=1 -1 3 -2 -4 -5 -6
right_child=2 -3 4 5 6 -7 -8
leaf_value=-0.0023657588350084022 1.0122922115129264e-06 -0.0057907677131630369 2.5130619384776756e-05 0.0028335591297761458 0.0048767719945094481 1.5583122163729456e-05 0.00039466956692283609
leaf_weight=23.501151848584414 61.968564510345459 16.063200292177498 5.7189175486564663 30.043318089097738 11.109697289764883 9.7706176396459323 5.4184057731181374
leaf_count=362 417 61 50 245 101 40 50
internal_value=-1.1895e-05 -0.00388252 0.00121005 0.000867534 0.00258845 0.00216605 0.0036325
internal_weight=163.594 39.5644 124.03 101.783 22.247 39.8139 16.5281
internal_count=1326 423 903 702 201 285 151
is_linear=0
shrinkage=0.00615181


Tree=96
num_leaves=8
num_cat=0
split_feature=8 14 20 20 15 21 21
split_gain=17.508 3.11167 3.73124 2.92213 1.88332 1.86699 1.18919
threshold=0.38103225304075977 -0.0068549911334681848 0.77985000000000004 0.43415000000000009 8.5000000000000018 9.5000000000000018 3.5000000000000004
decision_type=2 8 8 8 10 8 10
left_child=4 2 -2 -3 -1 -4 -5
right_child=1 3 5 6 -6 -7 -8
leaf_value=-0.0079914301215746747 0.0020467259264995079 -0.0024338672617933172 -0.0050896814989203412 0.0013100215233746804 -0.00016279652272987785 0.00017557902075965916 0.0041381533228471616
leaf_weight=28.853846769779921 20.315928995609283 10.504037439823149 19.494040383026007 35.602230379357934 4.8311517499387255 7.328557967208325 38.936085953377187
leaf_count=292 29 17 203 244 65 90 402
internal_value=-0.000626444 0.000986057 -0.000993297 0.00214286 -0.00701331 -0.00348062 0.00287084
internal_weight=165.866 132.181 47.1385 85.0424 33.685 26.8226 74.5383
internal_count=1342 985 322 663 357 293 646
is_linear=0
shrinkage=0.0100005


Tree=97
num_leaves=8
num_cat=0
split_feature=9 14 9 14 14 3 14
split_gain=10.2375 7.44583 5.84603 3.01961 2.50508 0.729528 0.625888
