tree
version=v4
num_class=1
num_tree_per_iteration=1
label_index=0
max_feature_idx=22
objective=binary sigmoid:1
feature_names=hit_rate_lifetime hit_rate_recent momentum avg_freq recency n_samples_lifetime kalshi_odds hit_rate_word_global hit_rate_word_in_event_type hit_rate_speaker_event_type hit_rate_credibility event_type_prior word_rank market_vs_history market_vs_word_prior days_since_last_event events_in_last_30d topic_match rel_max rel_mean rel_top3_mean rel_count_hi rel_n
feature_infos=[0.015384615384615385:1] [0.015384615384615385:1] [-0.96153846153846156:0.88135593220338981] [0.046153846153846156:107.07317073170732] [0.25519999999999998:0.99999997912883587] [2:201] [0.044105360616486677:0.95991210182955422] [0.16370072713356296:0.69407273974952832] [0.06566816268308806:0.74263863870303659] [0.06566816268308806:0.74263863870303659] [0.1156003024746738:0.90714041253819766] [0.37616108890882566:0.60256096566348583] [1:999] [-0.93745734106261858:0.83461538461538454] [-0.53613184079601983:0.57445248756218903] [1:139] [0:17] [0.0026121539995074272:0.8154754638671875] [0.1164:0.92689999999999995] [0.1164:0.76670000000000005] [0.1164:0.79310000000000003] [1:15] [1:20]
tree_sizes=994 995 992 1000 989 999 995 996 997 998 1003 1003 992 996 988 1004 1007 1002 1002 1001 1000 1014 1001 1008 1002 1003 992 1004 1003 1008 1002 992 894 1000 1002 995 994 1008 1000 1007 1009 1005 1003 1001 998 1012 1005 1013 1014 997 1008 1004 1015 1005 993 1014 1007 1005 1000 1004 1011 1009 1016 1006 1016 1009 1018 1005 1002 1004 999 1000 1001 1016 1003 1003 1007 1014 1003 1014 1011 983 1010 1004 1002 1012 1000 1008 1008 1007 1008 1008 1003 1002 1000 1003 1009 1007 1007 1011 1008 1002 1011 1013 1013 1006 1018 1013 1011 1003 1016 1001 1003 1010 1015 1005 1011 906 1006 1012 1005 1008 1016 1007 999 1006 1016 999 999 1027 1001 903 1005 1013 989 1015 1007 1008 1008 992 1004 1014 1014 1003 1015 1005 1017 1014 986 988 1014 1005 1015 907 1012 1016 1011 1014 1014 1003 1019 1004 1021 1015 1010 1006 1007 1000 1001 1019 1016 1002 1006 1017 1001 998 1018 1006 1003 1014 1014 1016 1006 1018 1006 795 1014 994 1013 1005 1010 1006 1013 789 1014 1008 1011 1005 1012 1013 907 1016 1018 1018 1003 1019 1019 1014 1000 1001 1011 1009 1002 1014 996 1002 1016 1017 893 906 1017 1007 897 998 990 1006 1014 1001 891 1003 906 1002 1002 1016 1015 1020 1021 1025 1014 1004 1017 1016 1014 997 997 997 1002 1017 998 1024 1000 1000 1016 990 1014 1022 1004 1011 1018 1006 1021 1007 1019 1015 993 1017 1010 796 1001 1004 1016 1015 1012 1003 993 1025 997 895 913 998 1007 1018 1003 1011 794 1023 906 1022 1023 992 1001 910 692 1013 1012 1019 993 1024 1004 996 986 996 1013 1004 1010 1021 998 1029 1003 991 581 1024 1026 991 1004 898 1009 991 1010 1000 1019 1019 998 909 1001 1005 1023 999 1021 1000 1012 987 1023 908 999 1015 1015 1013 1012 899 1017 994 1009 696 895 1016 989 785 1019 908 1026 1019 801 1000 1020 1029 1005 1014 1021 1006 1008 993 1023 1010 1017 791 1020 1033 999 1019 883 1016 999 983 1014 1024 1002 1004 1000 895 898 1024 1028 991 999 1015 1012 1007 1001 910 910 1024 1020 912 1019 789 1020 995 912 992

Tree=0
num_leaves=8
num_cat=0
split_feature=8 6 8 8 10 8 16
split_gain=167.528 45.0252 30.8013 20.1183 11.3304 11.0358 7.42516
threshold=0.48792223095051063 0.64000127418860553 0.46507612165927736 0.39231175471847118 0.41795139593623215 0.37117864624247193 5.5000000000000009
decision_type=2 10 2 2 2 2 2
left_child=1 2 5 -3 -2 -1 -6
right_child=4 3 -4 -5 6 -7 -8
leaf_value=-0.072737467272973588 -0.042664561877051081 -0.057864797514560973 -0.040928784665933714 -0.031884355353651792 -0.021263989465053524 -0.061012233536606314 -0.033319221070407572
leaf_weight=49.611769510433078 17.377529511228204 13.02823520451784 14.684587055817245 22.297577541321516 39.908644700422883 58.661416633054614 34.179393116384745
leaf_count=281 97 69 57 118 170 292 225
internal_value=-0.0478424 -0.0585005 -0.0633923 -0.0417831 -0.0295377 -0.0665543 -0.0265867
internal_weight=249.749 158.284 122.958 35.3258 91.4656 108.273 74.088
internal_count=1309 817 630 187 492 573 395
is_linear=0
shrinkage=0.213668


Tree=1
num_leaves=8
num_cat=0
split_feature=6 8 8 8 20 20 6
split_gain=83.874 56.8395 43.3469 53.954 16.3246 15.8013 3.61037
threshold=0.47360000000000008 0.42899170880793408 0.33883079121934195 0.48068022400308347 0.55785000000000007 0.52060000000000006 0.55545000000000011
decision_type=8 2 2 2 8 8 8
left_child=1 -1 -2 4 -4 -3 -5
right_child=2 5 3 6 -6 -7 -8
leaf_value=-0.016440521003066765 -0.011817608497099816 0.013336081185531173 -0.011962466576774917 0.0075071189632132263 0.0028853128711339143 -0.0025075437182777833 0.016127373000692315
leaf_weight=56.440866217017174 17.889091290533543 11.882533669471739 12.560946285724638 12.604038942605255 59.681860517710447 33.050250690430403 63.739450162276626
leaf_count=308 102 16 17 69 324 192 344
internal_value=0.000261206 -0.00838389 0.00557322 0.00775364 0.000151119 0.0016487 0.0148245
internal_weight=267.849 101.374 166.475 148.586 72.2428 44.9328 76.3435
internal_count=1372 516 856 754 341 208 413
is_linear=0
shrinkage=0.0121338


Tree=2
num_leaves=8
num_cat=0
split_feature=8 6 14 0 20 8 6
split_gain=169.825 45.556 12.7527 5.26785 6.53862 2.29669 2.87028
threshold=0.40709123483404092 0.65065000000000006 0.26414918253848602 0.78028017241379322 0.54865000000000008 0.49437371963710863 0.85226204728609256
decision_type=2 8 10 2 8 2 8
left_child=2 3 -1 4 -2 6 -3
right_child=1 5 -4 -5 -6 -7 -8
leaf_value=-0.020698740202540849 0.0099491286760193271 0.020768746798756559 -0.0029983188670448151 0.012456928882779546 -0.0015196255181064702 0.023090321338612382 0.0087290755243420656
leaf_weight=74.383311238139868 16.411856651306152 14.598357204347851 14.447393087670205 11.923701025545595 63.453336549922824 43.418180825188756 15.482484377920626
leaf_count=409 22 78 78 68 361 249 61
internal_value=0.000430451 0.0103676 -0.0179126 0.00247446 0.000792245 0.0200403 0.0150994
internal_weight=254.119 165.288 88.8307 91.7889 79.8652 73.499 30.0808
internal_count=1326 839 487 451 383 388 139
is_linear=0
shrinkage=0.0165506


Tree=3
num_leaves=8
num_cat=0
split_feature=9 9 14 14 14 18 13
split_gain=91.5109 76.0861 14.7237 15.823 13.6342 10.9183 5.81571
threshold=0.50035573276181389 0.39231175471847118 0.047433582089552236 0.2017493911350019 0.047433582089552236 0.47950000000000009 -0.0145996389815759
decision_type=2 2 8 10 8 8 8
left_child=1 6 5 -4 -2 -3 -1
right_child=4 2 3 -5 -6 -7 -8
leaf_value=-0.017627114716721862 0.0047260963047320269 0.0069531900212815839 0.00019720576317461996 0.013066105181133478 0.014826549665676828 -0.0072776929651881105 -0.0099052169584365
leaf_weight=34.692617639899254 36.172140806913376 10.206484995782374 29.98301057703793 27.785942122340202 51.885502869263291 26.989146385341883 39.449835252016783
leaf_count=185 172 28 153 124 281 159 221
internal_value=0.000739226 -0.00447406 0.00268197 0.00654349 0.010783 -0.00313712 -0.0136821
internal_weight=257.165 169.107 94.9646 57.769 88.0576 37.1956 74.1425
internal_count=1323 870 464 277 453 187 406
is_linear=0
shrinkage=0.0121805


Tree=4
num_leaves=8
num_cat=0
split_feature=9 6 6 18 15 3 6
split_gain=121.757 16.8122 13.2829 8.72561 7.72525 2.26669 2.73144
threshold=0.4596425050957535 0.40040000000000003 0.81275000000000008 0.64975000000000016 4.5000000000000009 1.9625350140056026 0.38637636230680722
decision_type=2 8 8 10 8 2 10
left_child=2 4 5 -4 -2 6 -1
right_child=1 -3 3 -5 -6 -7 -8
leaf_value=-0.014298278042400072 -0.0092704032269423 0.012107879062355012 -0.0051639546204582431 0.012472793973350825 0.0052760583251357691 -0.005034710712799751 -0.008764010911865695
leaf_weight=39.498068442568183 9.0006642527878302 102.47508406639099 12.206202853471043 7.1837767660617819 18.120016004890203 17.239350773394108 51.282216304913163
leaf_count=256 62 515 91 21 58 72 273
internal_value=0.00059406 0.00965319 -0.00857028 0.00116806 0.000143819 -0.0103915 -0.0113093
internal_weight=257.005 129.596 127.41 19.39 27.1207 108.02 90.7803
internal_count=1348 635 713 112 120 601 529
is_linear=0
shrinkage=0.0132756


Tree=5
num_leaves=8
num_cat=0
split_feature=8 6 14 6 18 3 13
split_gain=117.993 17.179 14.3296 9.82459 6.72302 2.82961 3.67224
threshold=0.39231175471847118 0.80015000000000014 0.14657975314813484 0.50570000000000015 0.28305000000000008 0.7596153846153848 0.3786734693877552
decision_type=2 8 10 10 10 2 10
left_child=5 2 3 -2 -3 6 -1
right_child=1 4 -4 -5 -6 -7 -8
leaf_value=-0.01523057767397289 -0.0029944586400331747 0.0057825528642608129 0.013368150060010388 0.0082793971287885241 0.021883447839174903 -0.02107826623977669 -0.00018945014938370389
leaf_weight=21.138511005789045 62.021444316953421 12.743548793718217 38.195434875786304 34.275099517777562 28.978484129533172 46.569895418360829 4.5121026076376429
leaf_count=151 311 103 208 193 109 239 31
internal_value=0.00010476 0.00767562 0.00458871 0.000958966 0.0172534 -0.0181622 -0.0123143
internal_weight=248.435 176.214 134.492 96.2965 41.722 72.2205 25.6506
internal_count=1345 924 712 504 212 421 182
is_linear=0
shrinkage=0.0170917


Tree=6
num_leaves=8
num_cat=0
split_feature=7 9 4 10 0 18 10
split_gain=34.2794 20.9961 8.7098 13.9921 6.95979 3.84413 3.98798
threshold=0.48628731343283588 0.33710778040885325 0.9999998661391688 0.38821979409432023 0.6097402597402598 0.7350000000000001 0.49845305504509491
decision_type=2 2 2 2 2 8 2
left_child=1 -1 3 -2 -5 6 -3
right_child=2 5 -4 4 -6 -7 -8
leaf_value=-0.012555853231112822 -0.0080789767667298531 -0.0038843254211743902 0.0012717152190060105 0.0056826325156242308 0.016786804549716667 0.0036544931488790883 0.001074765743458107
leaf_weight=33.827915051952004 5.3842347823083392 78.283245684579015 35.791490847244859 18.911572650074959 24.697666520252824 19.960286531597376 36.643935039639473
leaf_count=218 34 402 135 129 144 152 126
internal_value=-0.000290666 -0.00363914 0.00627631 0.00976911 0.012227 -0.0013154 -0.00224761
internal_weight=253.5 168.715 84.785 48.9935 43.6092 134.887 114.927
internal_count=1340 898 442 307 273 680 528
is_linear=0
shrinkage=0.0127691


Tree=7
num_leaves=8
num_cat=0
split_feature=8 22 13 8 13 13 21
split_gain=105.171 12.0009 10.1433 6.01089 8.28689 1.96654 1.32057
threshold=0.41528601014068423 4.5000000000000009 0.16999999999999998 0.5709635105949814 0.30794583333333331 -0.23237499999999997 6.5000000000000009
decision_type=2 8 10 2 8 8 10
left_child=2 -2 -1 4 -3 -5 -4
right_child=1 3 6 5 -6 -7 -8
leaf_value=-0.013943664731571815 -0.0023666883564596318 0.0039856028059400122 -0.0052388793169668166 0.0049379871835556286 0.013233306759361321 0.014677317444006698 0.0014482879871434129
leaf_weight=69.907572338357568 21.475506365299225 78.458592753857374 10.5097275916487 7.5446394346654415 24.177105968818069 29.962994825094938 7.677098471671342
leaf_count=417 29 415 63 47 126 190 52
internal_value=0.000216228 0.00671109 -0.0115881 0.00816362 0.00628915 0.0129617 -0.0021333
internal_weight=249.713 161.619 88.0944 140.143 102.636 37.5076 18.1868
internal_count=1339 807 532 778 541 237 115
is_linear=0
shrinkage=0.0135186


Tree=8
num_leaves=8
num_cat=0
split_feature=8 14 8 22 16 22 14
split_gain=41.6953 59.3405 25.4101 6.50555 5.12332 4.17947 2.68764
threshold=0.5593274230352 0.17939059522642523 0.41528601014068423 3.5000000000000004 6.5000000000000009 4.5000000000000009 -0.0070046512108770101
decision_type=2 8 2 10 2 10 8
left_child=1 -1 5 -4 -2 -3 -6
right_child=4 2 3 -5 6 -7 -8
leaf_value=-0.0094846508851183856 0.018172514683851893 -0.010129499775544002 0.0042726155699196432 0.017193330896717533 6.5878249701798662e-05 0.00062810324299844046 0.010865634710991291
leaf_weight=123.65227407217026 24.27345997095108 12.096485503017901 14.462028652429579 36.187203750014305 7.3866012580692768 20.213705822825432 12.61057408899069
leaf_count=652 121 84 71 169 46 116 90
internal_value=2.12425e-05 -0.00281745 0.00701969 0.0137049 0.0133004 -0.00323972 0.00678546
internal_weight=250.882 206.612 82.9594 50.6492 44.2706 32.3102 19.9972
internal_count=1349 1092 440 240 257 200 136
is_linear=0
shrinkage=0.0151726


Tree=9
num_leaves=8
num_cat=0
split_feature=9 6 0 15 6 20 0
split_gain=66.1734 42.0221 5.82559 4.40578 3.76728 6.99704 3.19164
threshold=0.50596093606043868 0.58020000000000016 0.63082317073170746 2.5000000000000004 0.74515000000000009 0.61465000000000003 0.60771903698188134
decision_type=2 8 2 10 10 8 2
left_child=1 -1 3 -3 5 -2 -7
right_child=4 2 -4 -5 -6 6 -8
leaf_value=-0.010215688542286185 0.014890455486544604 -0.0031227932061741437 0.008515965409177987 0.0044978950470862629 0.015374104325321361 0.00032444004399362114 0.0077704581584007292
leaf_weight=94.985198322683573 17.794082164764404 26.622505431994796 21.458254799246788 23.484290773048997 18.552727503702044 18.519756603986025 25.709226913750172
leaf_count=539 24 119 82 179 121 124 154
internal_value=0.000123704 -0.00453901 0.00291535 0.000335158 0.00980482 0.0079335 0.00484133
internal_weight=247.126 166.55 71.5651 50.1068 80.5758 62.0231 44.229
internal_count=1342 919 380 298 423 302 278
is_linear=0
shrinkage=0.0130407


Tree=10
num_leaves=8
num_cat=0
split_feature=8 8 14 6 6 10 16
split_gain=51.9458 30.3502 28.0625 6.02476 3.65838 3.37974 2.4953
threshold=0.37117864624247193 0.55740514382112438 0.16865513956192899 0.51830000000000009 0.60005000000000019 0.4476514079269262 1.0000000180025095e-35
decision_type=2 2 8 8 10 2 2
left_child=3 2 5 -1 -4 -2 -3
right_child=1 6 4 -5 -6 -7 -8
leaf_value=-0.014856305189206855 -0.002242331795892138 0.01618652271316192 0.00033921220052242021 -0.0048858516903460304 0.007417974182166596 -0.0076730160409062415 0.0086204503095060336
leaf_weight=32.890762116760015 37.85025835596025 13.445320490747688 17.026565659791231 16.936054302379489 48.831155760213733 42.902785196900368 35.63585451617837
leaf_count=204 207 30 86 117 226 190 245
internal_value=-0.000344353 0.00252802 -0.000278525 -0.0116463 0.00568284 -0.00522673 0.0109496
internal_weight=245.519 195.692 146.611 49.8268 65.8577 80.753 49.0812
internal_count=1305 984 709 321 312 397 275
is_linear=0
shrinkage=0.0124698


Tree=11
num_leaves=8
num_cat=0
split_feature=8 14 20 6 14 20 6
split_gain=103.881 18.2487 17.6369 11.2089 8.05888 5.78559 8.55069
threshold=0.42101719721746528 -0.05759724106739033 0.70710000000000017 0.51830000000000009 0.073281451033602049 0.77000000000000013 0.72384598014946511
decision_type=2 8 8 8 8 8 10
left_child=3 2 -2 -1 -3 -5 -7
right_child=1 4 -4 5 -6 6 -8
leaf_value=-0.01309788242355554 0.010022235235229318 0.0030055229953122277 -0.005055295703971556 -0.011392123626349051 0.010695745604893989 -0.0054345594511495893 0.0080594426268571009
leaf_weight=49.607044463977218 15.363219261169432 27.265249501913786 30.186884634196758 11.707489013671873 83.637866143137217 22.2976209204644 8.0661414861679059
leaf_count=314 21 146 186 17 424 174 55
internal_value=0.00052638 0.00632514 1.40247e-05 -0.00928266 0.00887364 -0.00456912 -0.00158305
internal_weight=248.132 156.453 45.5501 91.6783 110.903 42.0713 30.3638
internal_count=1337 777 207 560 570 246 229
is_linear=0
shrinkage=0.0116822


Tree=12
num_leaves=8
num_cat=0
split_feature=8 6 6 6 19 3 5
split_gain=75.274 32.8946 6.04112 4.46556 9.85931 1.79768 1.53891
threshold=0.40709123483404092 0.6655500000000002 0.48507500000000003 0.33847500000000003 0.57250000000000012 0.56620000000000015 27.500000000000004
decision_type=2 8 8 10 10 2 2
left_child=2 3 -1 -2 -5 -3 -7
right_child=1 5 -4 4 -6 6 -8
leaf_value=-0.01583148754386857 -0.0051894241377876222 0.0058799919031285366 -0.007011281954866261 0.004272470693970091 -0.0099693352901055222 0.018275233069153261 0.011474073303168037
leaf_weight=41.864506479352713 25.314963396638632 10.193367252126334 35.148724403232336 59.749820182099938 11.401262689381836 21.419473940506577 34.787145715206861
leaf_count=268 120 90 207 313 37 137 144
internal_value=-0.000175867 0.00537299 -0.0119555 5.41087e-06 0.00181895 0.0131763 0.0143322
internal_weight=239.879 162.866 77.0132 96.466 71.1511 66.4 56.2066
internal_count=1316 841 475 470 350 371 281
is_linear=0
shrinkage=0.0144968


Tree=13
num_leaves=8
num_cat=0
split_feature=9 8 6 15 15 0 6
split_gain=63.6433 12.1191 8.891 18.9671 6.54297 6.31766 4.01468
threshold=0.46507612165927736 0.37900796342960524 0.51830000000000009 7.5000000000000009 4.5000000000000009 0.63082317073170746 0.69025000000000014
decision_type=2 2 8 8 10 2 10
left_child=1 6 3 -2 5 -3 -1
right_child=2 4 -4 -5 -6 -7 -8
leaf_value=-0.01543673030199009 -0.0075811311142802151 -0.009531427860813858 0.012548542053584688 0.014735509830819987 0.0045567114856034305 0.0013227224168461274 -0.0001952904464272321
leaf_weight=43.529114432632923 20.827387742698193 42.123805260285735 74.638367647305131 17.994600566104054 19.160596283152699 19.030160211026669 4.9446899481117716
leaf_count=319 137 204 410 51 132 62 32
internal_value=0.000350519 -0.00742768 0.00924391 0.00263323 -0.00338566 -0.00602625 -0.0138656
internal_weight=242.249 128.788 113.46 38.822 80.3146 61.154 48.4738
internal_count=1347 749 598 188 398 266 351
is_linear=0
shrinkage=0.0162792


Tree=14
num_leaves=8
num_cat=0
split_feature=8 6 18 15 6 13 15
split_gain=49.3566 22.5716 9.74787 5.44557 7.97219 2.57085 1.66011
threshold=0.46507612165927736 0.59342500000000009 0.69580000000000009 4.5000000000000009 0.65065000000000006 0.156775 9.5000000000000018
decision_type=2 8 10 8 8 10 10
left_child=1 6 -3 5 -5 -2 -1
right_child=3 2 -4 4 -6 -7 -8
leaf_value=-0.01466590420315261 0.00016067127755462217 -0.0061419646523133602 0.0081323337635225684 0.0056453634136596487 0.017571728572675568 0.0099761464244713677 -0.00528216609295349
leaf_weight=63.442231459543109 33.238406468182802 26.93798971734941 26.212016195058823 42.852467367425561 28.999813731759787 10.062902964651583 9.8043252713978273
leaf_count=380 240 146 156 147 131 74 68
internal_value=-0.00017737 -0.00749123 0.000738013 0.00777464 0.0106639 0.00274148 -0.0135534
internal_weight=241.55 126.397 53.15 115.154 71.8523 43.3013 73.2466
internal_count=1342 750 302 592 278 314 448
is_linear=0
shrinkage=0.0169172


Tree=15
num_leaves=8
num_cat=0
split_feature=9 9 6 14 3 15 4
split_gain=50.5948 9.76456 12.678 8.8433 4.89696 3.59823 3.32549
threshold=0.41528601014068423 0.46507612165927736 0.69025000000000014 0.21964581457790414 0.56620000000000015 27.000000000000004 0.99999991837764424
decision_type=2 2 8 10 2 8 2
left_child=3 6 5 4 -1 -3 -2
right_child=1 2 -4 -5 -6 -7 -8
leaf_value=-0.0050342558291126948 0.0022390793021997402 0.00030622900292240162 0.01275442771490186 -0.00052660238566080606 -0.014526770915098599 0.0072527403115610909 -0.0054527029549134151
leaf_weight=18.595397589728236 27.393383853137493 40.964560374617577 44.376750221475959 19.723920008167624 38.457132244482636 23.166247215121984 16.338013999164104
leaf_count=173 155 275 256 114 246 43 56
internal_value=0.000213867 0.00485309 0.00707329 -0.00886265 -0.0116156 0.00296791 -0.000500838
internal_weight=229.015 152.239 108.508 76.7764 57.0525 64.1308 43.7314
internal_count=1318 785 574 533 419 318 211
is_linear=0
shrinkage=0.0138281


Tree=16
num_leaves=8
num_cat=0
split_feature=8 6 15 6 22 8 20
split_gain=72.0455 17.7999 7.34641 8.93775 6.74537 5.30345 1.54509
threshold=0.42899170880793408 0.70027500000000009 1.0000000180025095e-35 0.78972500000000012 4.5000000000000009 0.55740514382112438 0.74715000000000009
decision_type=2 8 10 10 10 2 8
left_child=2 5 -1 -4 -3 -2 -7
right_child=1 4 3 -5 -6 6 -8
leaf_value=-0.012024042853315726 -0.00012504688259455166 0.0024637284542435669 -0.0063799094818689853 0.0079840370281182987 0.011030434400222911 0.0087355741732006251 0.0028746937215901941
leaf_weight=26.560367016121745 68.844988077878952 14.949272898957132 60.485176883637905 3.8979758210480204 37.05894235894084 8.6240872144699079 19.303349718451503
leaf_count=50 311 90 503 24 195 12 133
internal_value=-0.000348684 0.00394997 -0.00741673 -0.00536697 0.0086948 0.00131829 0.00497601
internal_weight=239.724 148.781 90.9435 64.3832 52.0082 96.7724 27.9274
internal_count=1318 741 577 527 285 456 145
is_linear=0
shrinkage=0.0100954


Tree=17
num_leaves=8
num_cat=0
split_feature=7 6 6 3 20 22 7
split_gain=18.1823 9.48959 5.78223 6.32347 6.92027 4.90104 4.75062
threshold=0.45501787130599597 0.32380000000000003 0.48507500000000003 1.2625000000000004 0.41630000000000006 12.500000000000002 0.42317955676164637
decision_type=2 8 8 2 10 8 2
left_child=2 -2 6 4 -4 -5 -1
right_child=1 -3 3 5 -6 -7 -8
leaf_value=-0.0093121032710867559 -0.0063382530605321967 0.0043382654342939298 -0.0013312643513402971 0.011317516561063333 -0.014606428734180246 -0.0013099715679982238 -0.00047782914297731487
leaf_weight=38.458927251398563 13.79468512535095 102.82329671643674 36.883172497153282 8.6827720999717695 7.0907466411590567 7.7182098384946611 14.487113591283558
leaf_count=284 71 553 276 12 11 52 63
internal_value=-0.000432606 0.00299138 -0.00400864 -0.00122745 -0.00376388 0.00510646 -0.00702747
internal_weight=229.939 116.618 113.321 60.3749 43.9739 16.401 52.946
internal_count=1322 624 698 351 287 64 347
is_linear=0
shrinkage=0.0124938


Tree=18
num_leaves=8
num_cat=0
split_feature=9 6 21 22 21 20 6
split_gain=31.1241 16.082 4.81418 5.51848 2.1691 1.99531 9.14793
threshold=0.33883079121934195 0.53089160226083409 11.500000000000002 4.5000000000000009 8.5000000000000018 0.43415000000000009 0.65065000000000006
decision_type=2 8 8 8 10 10 10
left_child=-1 2 4 -4 -2 6 -3
right_child=1 5 3 -5 -6 -7 -8
leaf_value=-0.014111062494939619 -0.0069749224131604483 0.0012225511631430675 -0.0074886893589953376 0.0073295653309337896 -4.3700662033982483e-05 0.001925130734501797 0.011432940085887997
leaf_weight=33.157157875597477 48.538919961079955 40.907751465216279 8.0704295635223371 17.583527004346255 11.304070789366959 31.842829525470734 48.561274442821741
leaf_count=249 241 279 12 111 86 46 334
internal_value=-0.000226989 0.00199519 -0.00310316 0.00227479 -0.00554998 0.00565297 0.00688149
internal_weight=239.966 206.809 85.4969 25.654 59.843 121.312 89.469
internal_count=1358 1109 450 123 327 659 613
is_linear=0
shrinkage=0.0155757


Tree=19
num_leaves=8
num_cat=0
split_feature=6 0 2 20 21 21 0
split_gain=47.1991 9.88058 9.58915 11.3062 6.7711 3.77345 2.47836
threshold=0.60005000000000019 0.5472785714285715 -0.045628124999999992 0.77000000000000013 3.5000000000000004 7.5000000000000009 0.66668333333333341
decision_type=8 2 2 8 10 10 2
left_child=2 4 3 -1 -2 -6 -4
right_child=1 -3 6 -5 5 -7 -8
leaf_value=0.010123573354801893 -0.003210060403799985 0.0095312582424968133 -0.0088736092418304838 -0.005577952499841653 0.00020522132675657786 0.011136392484486961 -0.0028880166799342397
leaf_weight=12.806241393089293 24.82353969104588 66.575839957222342 74.459183804690838 19.612423302605748 11.403370898216965 13.308157805353401 19.590760488063097
leaf_count=19 159 321 446 139 67 93 119
internal_value=3.0421e-05 0.00617573 -0.00556162 0.000476302 0.00149593 0.00643955 -0.00771376
internal_weight=242.58 116.111 126.469 32.4187 49.5351 24.7115 94.0499
internal_count=1363 640 723 158 319 160 565
is_linear=0
shrinkage=0.0133302


Tree=20
num_leaves=8
num_cat=0
split_feature=9 10 0 13 13 17 13
split_gain=38.4227 9.02635 6.03141 10.4499 4.38709 6.16079 3.76898
threshold=0.36567903050967471 0.51992100083923465 0.60188679245283028 0.13834166666666667 0.10002083333333334 0.39264735579490667 0.3786734693877552
decision_type=2 2 2 8 8 8 8
left_child=6 2 3 -2 5 -3 -1
right_child=1 4 -4 -5 -6 -7 -8
leaf_value=-0.01420075511780002 -0.0047127260262789118 0.0026184678328319486 0.01111942009873898 0.0042344482900532705 0.013389004091262195 0.015641148638463557 -0.0018366945502212219
leaf_weight=33.872109029442072 56.038437763229012 49.457670414820313 10.218119895085691 54.262390797957778 19.139443174004555 9.1681418754160386 7.9470519442111245
leaf_count=246 298 215 92 319 83 41 64
internal_value=0.000567264 0.00328947 0.000708768 -0.000245172 0.0071669 0.00491463 -0.0120327
internal_weight=240.103 198.284 120.519 110.301 77.7653 58.6258 41.8192
internal_count=1358 1048 709 617 339 256 310
is_linear=0
shrinkage=0.0146348


Tree=21
num_leaves=8
num_cat=0
split_feature=9 13 14 17 10 19 4
split_gain=73.1236 5.91088 11.9657 5.05755 4.38228 2.58945 1.63739
threshold=0.49495207784606382 -0.23237499999999997 -1.0000000180025095e-35 0.41114141047000891 0.44936037051094685 0.5051500000000001 0.74170000000000014
decision_type=2 8 8 10 2 8 2
left_child=1 -1 -3 -4 6 -6 -2
right_child=4 2 3 -5 5 -7 -8
leaf_value=-0.0089327795901465289 0.0047934212140813195 -0.0083715762136103346 -0.0013930357778339304 -0.0062348702976679866 0.0084514838595158466 0.004271564409339409 -0.00014056543625243299
leaf_weight=26.503885703161359 5.7935644425451782 37.716783851385117 73.956218371167779 21.307044239714742 23.998981557786465 36.98356344923377 14.732741719111798
leaf_count=171 49 185 372 138 91 246 65
internal_value=-0.00170054 -0.00509064 -0.00426226 -0.00255201 0.00486729 0.00604107 0.00115502
internal_weight=240.993 159.484 132.98 95.2633 81.5089 60.9825 20.5263
internal_count=1317 866 695 510 451 337 114
is_linear=0
shrinkage=0.00859304


Tree=22
num_leaves=8
num_cat=0
split_feature=14 9 9 20 9 15 14
split_gain=15.9414 41.7204 14.2643 11.1399 7.60021 4.40621 3.8158
threshold=1.0000000180025095e-35 0.41182473960606331 0.4596425050957535 0.63065000000000015 0.48068022400308347 21.000000000000004 0.4832410684671879
decision_type=8 2 2 8 2 8 8
left_child=2 5 -1 -4 6 -2 -3
right_child=1 4 3 -5 -6 -7 -8
leaf_value=-0.010565358612721763 -0.0042859444002701598 6.7893734070324112e-06 0.011185240388041503 -0.0037008906954336214 0.0099509526080515682 -0.012838744788301829 0.0098590486064808903
leaf_weight=43.135067561641335 31.761155899614096 32.97770132869482 11.135492086410521 34.311732096597552 59.145238464698195 19.387043526396155 8.4960827324539405
leaf_count=269 248 173 15 199 336 50 39
internal_value=-0.00067995 0.00189677 -0.00515303 -1.04524e-05 0.0068791 -0.007735 0.00228802
internal_weight=240.35 151.767 88.5823 45.4472 100.619 51.1482 41.4738
internal_count=1329 846 483 214 548 298 212
is_linear=0
shrinkage=0.0132696


Tree=23
num_leaves=8
num_cat=0
split_feature=9 6 8 0 8 3 13
split_gain=49.8225 19.2661 19.7735 8.7043 5.16235 4.81285 7.13231
threshold=0.47263948641120762 0.65065000000000006 0.42899170880793408 0.79062500000000013 0.45603295907034702 0.40835000000000005 -0.0145996389815759
decision_type=2 10 2 2 2 2 10
left_child=1 2 -1 5 -3 -2 -7
right_child=3 4 -4 -5 -6 6 -8
leaf_value=-0.0068517694431370268 -0.003494313845437344 -0.00044085373028928413 -0.00057092358136647187 0.0064100212716523995 0.0058379804818000664 -0.00023142618605601864 0.0039262074079950918
leaf_weight=78.610838452354074 7.1581685002893201 24.530091902241114 34.251987777650356 20.840533431619406 6.9372648410499087 33.16742854565382 39.311127163469791
leaf_count=470 43 125 165 107 26 170 236
internal_value=-0.00111635 -0.00367354 -0.0049834 0.00252232 0.000905788 0.00142989 0.00198758
internal_weight=244.807 144.33 112.863 100.477 31.4674 79.6367 72.4786
internal_count=1342 786 635 556 151 449 406
is_linear=0
shrinkage=0.00678641


Tree=24
num_leaves=8
num_cat=0
split_feature=8 9 6 15 19 11 6
split_gain=29.0789 56.397 21.5218 13.257 2.78324 2.15495 0.799815
threshold=0.33207445283868725 0.39231175471847118 0.44492500000000007 21.000000000000004 0.55765000000000009 0.43257295084859398 0.54915000000000003
decision_type=2 2 8 8 8 2 10
left_child=6 5 3 -3 -4 -2 -1
right_child=1 2 4 -5 -6 -7 -8
leaf_value=-0.0095981412997152675 -0.0065928154282751785 -0.0055343978134709676 0.0065831131050881559 0.0041836925472156514 0.003344730325831438 -0.012499861127737358 -0.0032298353870949862
leaf_weight=24.550540916621689 19.787133438512683 31.176260966807604 77.052098829299212 18.83542713150382 46.584088951349258 15.921944539994 5.0018834583461276
leaf_count=184 166 214 403 38 266 37 34
internal_value=-0.000116377 0.00109558 0.00332017 -0.00176275 0.00541671 -0.00946489 -0.008711
internal_weight=238.909 209.357 173.648 50.0117 123.636 35.7091 29.5524
internal_count=1342 1124 921 252 669 203 218
is_linear=0
shrinkage=0.00935116


Tree=25
num_leaves=8
num_cat=0
split_feature=8 7 14 8 3 16 14
split_gain=55.2676 9.23039 11.9014 10.3486 6.75659 4.50989 4.42842
threshold=0.43597870137049249 0.48054519071310126 -0.0862105475130613 0.55740514382112438 0.66668333333333341 8.5000000000000018 0.094053648027803541
decision_type=2 2 10 2 2 2 8
left_child=4 5 -3 -4 -1 -2 -6
right_child=1 2 3 -5 6 -7 -8
leaf_value=-0.0037923580391697326 0.013564479688748169 -0.0056067491002880828 -0.00046139960923942175 0.012421039838377987 -0.017154083504277891 0.00098952457179896742 -0.0082001842718661781
leaf_weight=34.342237140983343 37.242330798879266 29.741634428501129 26.977767188102007 31.90389789827168 33.08155183494091 10.284050665795801 34.297464245930314
leaf_count=266 161 163 131 192 197 70 159
internal_value=-0.00108895 0.00542056 0.00228904 0.00642412 -0.00986066 0.0110188 -0.0128022
internal_weight=237.871 136.15 88.6233 58.8817 101.721 47.5264 67.379
internal_count=1339 717 486 323 622 231 356
is_linear=0
shrinkage=0.0157405


Tree=26
num_leaves=8
num_cat=0
split_feature=8 8 2 22 0 21 21
split_gain=25.7827 19.1529 13.0714 12.4368 7.35483 3.08489 5.00656
threshold=0.5593274230352 0.44213447490409458 -0.44229999999999997 12.500000000000002 0.90049504950495063 4.5000000000000009 7.5000000000000009
decision_type=2 2 2 8 2 10 10
left_child=1 2 -1 -4 -3 -2 -7
right_child=5 4 3 -5 -6 6 -8
leaf_value=0.0094312322515775412 0.013920923322274129 1.1618865782825049e-05 -0.019733006098365587 -0.006342196831457151 0.014132408843377806 -0.0020896676667058176 0.011945004158583102
leaf_weight=8.314917676150797 21.497859936207533 74.595601707696915 23.126429378986359 69.670551812276244 9.5128393638879043 10.803038172423841 11.039461869746445
leaf_count=40 108 364 39 565 52 77 83
internal_value=-0.00104604 -0.0035966 -0.00813679 -0.00985429 0.0017822 0.00957803 0.00478408
internal_weight=228.561 185.22 101.112 92.797 84.1084 43.3404 21.8425
internal_count=1328 1060 644 604 416 268 160
is_linear=0
shrinkage=0.0154982


Tree=27
num_leaves=8
num_cat=0
split_feature=6 20 6 19 21 6 6
split_gain=26.3998 16.5092 5.70055 9.46868 2.84664 1.63218 1.47214
threshold=0.46020000000000005 0.55785000000000007 0.53089160226083409 0.68045000000000011 6.5000000000000009 0.69025000000000014 0.36060000000000009
decision_type=8 8 8 8 10 10 10
left_child=1 -1 4 6 -2 -5 -4
right_child=2 -3 3 5 -6 -7 -8
leaf_value=0.0043173841758707828 -0.0053775491246494432 -0.0084887383561715428 0.010527955983046755 -0.0042771571728778936 0.0033052535138795177 0.0027523382059584022 0.0045926034724710577
leaf_weight=17.197881758213043 16.78884920664132 66.076213970780373 8.1274216175079328 21.114298706874255 6.3215549737215033 4.4357701484113923 97.778857793658972
leaf_count=25 69 470 12 157 47 29 538
internal_value=-0.00031916 -0.00574871 0.00257803 0.00356174 -0.00269366 -0.00276378 0.00515476
internal_weight=237.841 83.2741 154.567 131.456 23.1104 25.5501 105.906
internal_count=1347 495 852 736 116 186 550
is_linear=0
shrinkage=0.0119687


Tree=28
num_leaves=8
num_cat=0
split_feature=9 6 6 1 8 5 13
split_gain=60.7779 19.1199 11.7438 3.17734 3.09094 3.77836 1.47468
threshold=0.42899170880793408 0.58020000000000016 0.56981218119299371 0.89502670226969305 0.44213447490409458 111.00000000000001 -0.043208673139238839
decision_type=2 8 8 2 2 2 8
left_child=2 4 -1 -4 -2 -6 -3
right_child=1 6 3 -5 5 -7 -8
leaf_value=-0.011985374695559861 -0.0082456782612646135 0.0044224921886014549 -0.0044266949071162494 0.004654261456045021 0.0021069039179437091 -0.0049646349710394406 0.0091989979842269538
leaf_weight=57.025602729991078 6.7573447339236727 20.199142534285784 30.05842250213027 6.1297939196228972 43.23481729067862 15.033943012356756 64.096738623455167
leaf_count=364 39 92 202 22 239 45 360
internal_value=-0.000608658 0.00426574 -0.00846153 -0.00267613 -0.00069433 0.000142982 0.00815304
internal_weight=242.536 149.322 93.2138 36.1882 65.0261 58.2688 84.2959
internal_count=1363 775 588 224 323 284 452
is_linear=0
shrinkage=0.0124108


Tree=29
num_leaves=8
num_cat=0
split_feature=9 14 13 18 20 7 17
split_gain=29.3503 11.8522 7.36599 6.55172 5.76556 2.98708 2.94291
threshold=0.50035573276181389 -0.028394136640032177 0.18407500000000013 0.71565000000000012 0.39715000000000006 0.43118221154762587 0.24540480226278308
decision_type=2 8 8 8 8 2 10
left_child=1 4 5 -2 -1 -3 -4
right_child=3 2 6 -5 -6 -7 -8
leaf_value=0.0011042077593548534 0.011982697433494767 -0.0096415450322574307 0.0092240752894823044 0.00014479506491757031 -0.015609511965756679 -0.00067399279400498415 1.1621254917089754e-05
leaf_weight=7.269148588180542 56.647247401997447 34.389568315818906 19.580712448805571 25.19270415790379 42.071422975510359 24.57635510340333 25.671798577532172
leaf_count=10 284 194 114 173 299 102 174
internal_value=-0.000528871 -0.00539504 -0.00168958 0.00846068 -0.01294 -0.00608901 0.00384664
internal_weight=235.399 153.559 104.218 81.84 49.3406 58.9659 45.2525
internal_count=1350 893 584 457 309 296 288
is_linear=0
shrinkage=0.0187607


Tree=30
num_leaves=8
num_cat=0
split_feature=9 14 3 3 15 17 8
split_gain=37.3349 8.2862 6.66472 6.37806 4.31929 5.50523 2.19133
threshold=0.46507612165927736 0.21400374976967027 1.1086956521739133 0.64708333333333334 3.5000000000000004 0.17660948634147647 0.39231175471847118
decision_type=2 10 2 2 8 10 2
left_child=2 4 3 -1 -2 -6 -4
right_child=1 -3 6 -5 5 -7 -8
leaf_value=-0.0043782792555666274 -0.0014547282120767197 0.015691604778809359 -0.007879062207443473 -0.013790423025215678 -0.00083252168343438105 0.0097600720486430044 0.002160927592651169
leaf_weight=41.904888086020947 28.885351184755564 21.390092227607965 7.8260521367192295 51.37958812341094 19.100818682461977 41.82213431969285 22.885146796703339
leaf_count=333 206 131 56 308 63 186 76
internal_value=-0.000966739 0.00616143 -0.00742738 -0.0096964 0.00372185 0.00630763 -0.000247669
internal_weight=235.194 111.198 123.996 93.2845 89.8083 60.923 30.7112
internal_count=1359 586 773 641 455 249 132
is_linear=0
shrinkage=0.0170898


Tree=31
num_leaves=8
num_cat=0
split_feature=8 8 10 3 8 8 15
split_gain=57.3298 9.25728 6.11602 6.87552 4.75537 6.69293 2.6625
threshold=0.46314756531763607 0.43382048092868991 0.44029627541715383 2.183333333333334 0.40319005496315879 0.39231175471847118 5.5000000000000009
decision_type=2 2 2 2 2 2 8
left_child=1 4 -2 -4 5 -1 -5
right_child=2 -3 3 6 -6 -7 -8
leaf_value=-0.011841789547447282 0.000723510621198222 -0.0001596632215884683 0.011296632150731033 2.0722057069043792e-05 -0.0035197959805272705 0.00035095640096769858 0.0066487693796481
leaf_weight=67.549765093252063 32.458582360297441 27.254722187295556 41.251827575266361 18.149593703448772 24.897713109850883 7.1448431238532057 17.973415240645409
leaf_count=425 164 130 284 110 149 44 43
internal_value=-0.0011365 -0.00707561 0.00566418 0.00764703 -0.00890294 -0.010582 0.00321192
internal_weight=236.68 126.847 109.833 77.3748 99.5923 74.6946 36.123
internal_count=1349 748 601 437 618 469 153
is_linear=0
shrinkage=0.012956


Tree=32
num_leaves=7
num_cat=0
split_feature=9 6 6 3 16 14
split_gain=44.9958 21.84 15.1811 3.4234 1.77792 0.142028
threshold=0.43597870137049249 0.61270000000000013 0.61270000000000013 0.42265000000000003 14.500000000000002 0.14657975314813484
decision_type=2 8 8 2 2 10
left_child=2 3 -1 -2 -5 -3
right_child=1 5 -4 4 -6 -7
leaf_value=-0.015469239158237506 -0.011851472519570361 0.010119166349083443 -0.00082483266024742125 0.0016128787407450158 -0.0069694845197193723 0.014716968356211899
leaf_weight=56.862113535404205 7.0767934117466202 28.08044932410121 37.176676377654076 55.66305860131979 7.6958778351545325 39.266124907881021
leaf_count=393 48 160 224 245 51 226
internal_value=-0.00043953 0.00589739 -0.00979631 -0.00081275 0.000373314 0.0130064
internal_weight=231.821 137.782 94.0388 70.4357 63.3589 67.3466
internal_count=1347 730 617 344 296 386
is_linear=0
shrinkage=0.0175504


Tree=33
num_leaves=8
num_cat=0
split_feature=9 6 0 15 14 6 6
split_gain=27.0975 10.3723 6.92985 7.47041 4.93711 3.05385 2.77528
threshold=0.37900796342960524 0.77705006361333717 0.60771903698188134 4.5000000000000009 0.2526848020434227 0.83205000000000007 0.48507500000000003
decision_type=2 10 2 8 8 10 8
left_child=6 2 4 -4 -2 -3 -1
right_child=1 5 3 -5 -6 -7 -8
leaf_value=-0.013155866544793086 -0.0027495675662921001 0.01696300738219654 -0.0010808248800770167 0.0087039665729106864 0.0062233263321736509 0.0056805505358949633 -0.0051220558841991743
leaf_weight=23.804296430200338 75.637371258810163 11.24191400781274 24.273755997419357 39.598934108391404 14.112794686108826 14.226330958306788 21.566268177703023
leaf_count=205 422 62 171 144 95 76 154
internal_value=0.000209364 0.00275035 0.00127875 0.00488564 -0.00122428 0.0111386 -0.00957128
internal_weight=224.462 179.091 153.623 63.8727 89.7502 25.4682 45.3706
internal_count=1329 970 832 315 517 138 359
is_linear=0
shrinkage=0.0143349


Tree=34
num_leaves=8
num_cat=0
split_feature=6 8 6 6 18 18 9
split_gain=29.8092 10.1139 6.41428 4.06253 3.87956 2.99393 2.80841
threshold=0.70027500000000009 0.40319005496315879 0.62547500000000011 0.85226204728609256 0.46390000000000003 0.83030000000000015 0.46314756531763607
decision_type=8 2 10 8 8 8 2
left_child=2 -2 4 -3 -1 -5 -4
right_child=1 3 6 5 -6 -7 -8
leaf_value=-0.00070254962058397159 -0.0036202233058729096 0.016666846180161312 -0.0020298650203412626 0.01113120653161917 -0.0087376050877014527 4.6550858540288422e-05 0.0096955404915130567
leaf_weight=26.612460594624281 16.382063899189234 28.783744281157851 13.867232933640482 16.833533752709631 101.10632542148232 12.376241749152539 10.062166828662155
leaf_count=97 102 178 70 63 655 99 64
internal_value=-0.000960648 0.00820847 -0.00553114 0.0117301 -0.00713796 0.00637747 0.0026106
internal_weight=226.024 74.3756 151.648 57.9935 127.719 29.2098 23.9294
internal_count=1328 442 886 340 752 162 134
is_linear=0
shrinkage=0.0178595


Tree=35
num_leaves=8
num_cat=0
split_feature=1 12 2 14 14 5 16
split_gain=6.39549 11.2034 7.20291 6.60558 4.02669 9.90832 3.75752
threshold=0.62957317073170749 61.500000000000007 0.27063106796116509 -0.18973432244129435 0.24358596176821987 86.500000000000014 11.500000000000002
decision_type=2 2 2 8 10 2 2
left_child=1 -1 3 -2 5 -3 -5
right_child=2 4 -4 6 -6 -7 -8
leaf_value=0.010540055202725407 -0.0094588055577488808 -0.012913768807535612 -0.003660600501601483 0.017338380725783996 0.0037845881968670272 0.011861334582284947 0.0014291074228530284
leaf_weight=28.161251109093428 7.8316728714853525 70.248630337417126 32.729187972843647 41.691997552290559 15.643907602876423 10.702129222452639 14.11229235678911
leaf_count=209 44 528 124 204 96 34 108
internal_value=0.00066122 -0.00300616 0.00552817 0.0104538 -0.00712859 -0.0094131 0.0135671
internal_weight=221.121 124.756 96.3652 63.636 96.5947 80.9508 55.8043
internal_count=1347 867 480 356 658 562 312
is_linear=0
shrinkage=0.0250137


Tree=36
num_leaves=8
num_cat=0
split_feature=6 0 20 5 13 7 8
split_gain=22.5324 11.9104 6.30017 5.12717 4.74386 3.84923 2.29136
threshold=0.67535000000000012 0.56050000000000011 0.77985000000000004 51.500000000000007 0.26832500000000009 0.43118221154762587 0.43382048092868991
decision_type=10 2 8 2 10 2 2
left_child=1 4 -3 -4 -1 -2 -7
right_child=5 2 3 -5 -6 6 -8
leaf_value=-0.00636616671096341 0.0013968926902427987 0.0083111137643599124 0.0021941183041508947 -0.0074842243383365951 0.002154804447700494 0.00014524018480748747 0.010667500165859359
leaf_weight=96.899552430957556 17.361525179818273 17.71662825345993 27.806489918380976 13.30689627677202 11.160792404785751 4.3950859382748595 31.556970331817865
leaf_count=617 95 26 210 70 70 20 214
internal_value=-0.000401925 -0.00281075 0.00185628 -0.00083304 -0.00541253 0.0069644 0.00944061
internal_weight=220.204 166.89 58.83 41.1134 108.06 53.3136 35.9521
internal_count=1322 993 306 280 687 329 234
is_linear=0
shrinkage=0.0131674


Tree=37
num_leaves=8
num_cat=0
split_feature=8 8 11 14 13 10 6
split_gain=31.518 12.2572 9.86494 7.00425 7.97723 4.37476 1.66311
threshold=0.53147210376688003 0.49495207784606382 0.43257295084859398 0.34535496070372773 0.011869936766820773 0.42158952075067707 0.85226204728609256
decision_type=2 2 2 10 8 2 10
left_child=1 3 5 4 -1 -2 -5
right_child=2 -3 -4 6 -6 -7 -8
leaf_value=-0.0067630844728480714 -0.0027185007697434235 0.0018848471520793841 0.0092445948830581354 0.0025760209177905628 -0.0026813078030698185 0.0030566609394878379 -0.0019070145191292917
leaf_weight=65.335608009248972 10.310686936601995 24.407073842361569 14.5013962816447 10.065203165635468 68.012593757361174 30.383432066068053 9.2415286116301996
leaf_count=386 70 115 42 52 391 245 37
internal_value=-0.00156775 -0.00322549 0.00365385 -0.00407572 -0.00472853 0.00148068 0.000215949
internal_weight=232.258 177.062 55.1955 152.655 133.348 40.6941 19.3067
internal_count=1338 981 357 866 777 315 89
is_linear=0
shrinkage=0.00801174


Tree=38
num_leaves=8
num_cat=0
split_feature=8 6 4 20 4 17 21
split_gain=13.9684 16.5355 2.61175 3.04326 2.36598 1.40305 1.21776
threshold=0.50596093606043868 0.69025000000000014 0.99999984968187283 0.7228500000000001 0.99999996695931648 0.36707195639610296 5.5000000000000009
decision_type=2 10 2 8 2 10 8
left_child=1 4 -2 -4 6 -3 -1
right_child=2 5 3 -5 -6 -7 -8
leaf_value=-0.012799819485634205 0.010491601543725089 0.011864918425739376 0.0091866569785965455 -0.0033290799184659214 0.00010009731682899623 0.00086943524781687466 -0.0071176067413608393
leaf_weight=32.419894615188241 37.50601670332253 21.52802021428943 13.935909807682036 18.015213988721374 11.644705317914484 9.2749055437743646 79.73592684045434
leaf_count=151 280 98 21 107 41 55 575
internal_value=-0.000978622 -0.00451448 0.0067132 0.00188546 -0.00796815 0.00890061 -0.00890327
internal_weight=224.061 154.603 69.4571 31.9511 123.801 30.8029 112.156
internal_count=1328 920 408 128 767 153 726
is_linear=0
shrinkage=0.020915


Tree=39
num_leaves=8
num_cat=0
split_feature=8 2 14 21 14 20 14
split_gain=32.2945 5.91085 6.0798 5.77436 9.50053 4.89292 11.8496
threshold=0.44878835350353202 -0.16668333333333327 0.19178792377132428 5.5000000000000009 -0.016423179556761643 0.7107500000000001 0.11142342454394695
decision_type=2 2 10 8 8 8 10
left_child=1 2 -1 -3 -5 -2 -7
right_child=5 3 -4 4 -6 6 -8
leaf_value=-0.0047199830291510163 0.010233361803684792 -0.015078060095302817 0.014428527398304677 -0.015584627895745157 -0.0013461066225606238 -0.00093694110198594383 0.011677742221017634
leaf_weight=11.831615906208755 36.454844295978546 25.430983850732446 5.5415006279945365 16.779909264296293 43.026415782049298 57.773727629333735 26.864551844075322
leaf_count=68 55 130 30 158 290 392 222
internal_value=-0.000241108 -0.00684127 0.00118346 -0.00857955 -0.00557972 0.00529187 0.00302464
internal_weight=223.704 102.61 17.3731 85.2373 59.8063 121.093 84.6383
internal_count=1345 676 98 578 448 669 614
is_linear=0
shrinkage=0.0159641


Tree=40
num_leaves=8
num_cat=0
split_feature=9 14 11 9 15 6 14
split_gain=40.2564 8.64289 8.51997 6.39949 10.419 4.83567 4.43089
threshold=0.43597870137049249 0.21964581457790414 0.42954547220804146 0.55740514382112438 4.5000000000000009 0.49525000000000002 -0.1318089930780878
decision_type=2 10 2 2 8 10 8
left_child=1 -1 -3 6 5 -5 -2
right_child=3 2 -4 4 -6 -7 -8
leaf_value=-0.0073436233909902606 -0.0031079900944301106 0.0030045710128252302 -0.0082249662310976968 -0.0056351144823651661 0.009856792809412103 0.0038723787496333776 0.0020851718635977057
leaf_weight=71.09160402789712 18.092382792383432 17.775710029527549 8.8663600943982583 7.2146349325776127 23.784209867939353 13.101526908576487 75.885562008246779
leaf_count=485 83 121 24 46 120 108 371
internal_value=-0.000819501 -0.00557836 -0.000665224 0.00252277 0.00557034 0.000221621 0.00102094
internal_weight=235.812 97.7337 26.6421 138.078 44.1004 20.3162 93.9779
internal_count=1358 630 145 728 274 154 454
is_linear=0
shrinkage=0.00969807


Tree=41
num_leaves=8
num_cat=0
split_feature=6 9 0 19 0 11 20
split_gain=30.4056 24.9252 4.40911 3.06424 2.63843 13.4894 1.5655
threshold=0.43010000000000009 0.42101719721746528 0.63423734983618496 0.44325000000000009 0.69768951194184847 0.43257295084859398 0.28375000000000006
decision_type=8 2 2 8 2 2 10
left_child=3 4 6 -1 5 -2 -3
right_child=1 2 -4 -5 -6 -7 -8
leaf_value=-0.00077313789010409397 -0.00047998400780420604 0.0039681063468631952 0.007534329729583864 -0.0072918948696654362 0.0010156239958793068 -0.01311209454474313 1.4646250118950918e-05
leaf_weight=11.59657174348831 27.554970597848296 42.25049527361989 45.741694433614612 60.398001730442047 7.6525614485144606 14.841281617060302 16.985270261764526
leaf_count=23 221 328 232 429 32 36 24
internal_value=-0.000608187 0.00202169 0.00498556 -0.00631579 -0.00406736 -0.00513204 0.00288531
internal_weight=227.021 155.026 104.977 71.9946 50.0488 42.3963 59.2358
internal_count=1325 873 584 452 289 257 352
is_linear=0
shrinkage=0.0106527


Tree=42
num_leaves=8
num_cat=0
split_feature=8 6 9 8 21 21 0
split_gain=19.5448 15.1459 10.4709 9.09348 7.82023 5.96505 5.64968
threshold=0.37117864624247193 0.59342500000000009 0.47263948641120762 0.48068022400308347 5.5000000000000009 7.5000000000000009 0.33974358974358981
decision_type=2 8 2 2 8 8 2
left_child=-1 3 4 6 -3 -5 -2
right_child=1 2 -4 5 -6 -7 -8
leaf_value=-0.012744083878267349 0.00079930958097621115 -0.010488438461937095 0.011372284218030666 -0.0057164447300675414 0.0052271066771696663 0.007107483315880507 -0.013252112438462377
leaf_weight=39.762302454560995 10.176357652992008 15.130893230438231 49.437058931216598 19.359754726290703 25.255453504621983 24.542479444295168 34.541514232754707
leaf_count=334 72 45 322 98 153 115 195
internal_value=-0.00163448 0.000824417 0.00595785 -0.00428159 -0.000498458 0.00123869 -0.00986012
internal_weight=218.206 178.444 89.8234 88.6201 40.3863 43.9022 44.7179
internal_count=1334 1000 520 480 198 213 267
is_linear=0
shrinkage=0.0176669


Tree=43
num_leaves=8
num_cat=0
split_feature=6 6 7 7 12 11 11
split_gain=14.6041 5.89257 3.68403 8.91936 4.08576 3.3124 3.89282
threshold=0.46020000000000005 0.6655500000000002 0.40762470542026713 0.48054519071310126 81.500000000000014 0.43257295084859398 0.40213432617870287
decision_type=8 10 2 2 2 2 2
left_child=-1 2 4 -4 -2 6 -3
right_child=1 5 3 -5 -6 -7 -8
leaf_value=-0.0073071804834594078 0.0015855511845796815 5.8357109447063958e-05 0.0097368877095235593 -0.0037763021914550771 -0.012083066082009418 0.00032221902069597157 0.013148711797417225
leaf_weight=77.475957803428173 9.8067451976239699 10.353518534451721 24.446118367835879 36.639053698629141 15.037662513554094 20.203914923593402 26.536888241767883
leaf_count=501 49 95 146 193 93 61 198
internal_value=-0.00115176 0.00213675 -0.000685635 0.00152498 -0.00638828 0.00650896 0.00962892
internal_weight=220.5 143.024 85.9296 61.0852 24.8444 57.0943 36.8904
internal_count=1336 835 481 339 142 354 293
is_linear=0
shrinkage=0.0176204


Tree=44
num_leaves=8
num_cat=0
split_feature=9 8 2 20 14 14 21
split_gain=17.931 22.2558 5.15669 5.0504 6.28635 5.60029 5.32566
threshold=0.4693103418832611 0.39231175471847118 -0.27267156862745096 0.51485000000000014 -0.11363329575210458 0.17939059522642523 8.5000000000000018
decision_type=2 2 2 10 8 10 8
left_child=1 -1 -3 4 6 -6 -2
right_child=3 2 -4 -5 5 -7 -8
leaf_value=-0.011412989684233901 -0.012807838097155621 0.010327939809914519 -0.00030136698128876966 0.013034073007531427 0.002191897265566099 0.012172743061411738 0.0024789848516427481
leaf_weight=54.635146949440241 8.9633118994534033 12.15724555402994 54.707156842574477 13.744354307651518 48.482245890423656 18.979229668155313 9.9132786002010089
leaf_count=411 59 49 308 22 300 157 42
internal_value=-0.000254206 -0.00421911 0.00158353 0.00447967 0.00295998 0.00518316 -0.00450584
internal_weight=221.582 121.5 66.8644 100.082 86.3381 67.4615 18.8766
internal_count=1348 768 357 580 558 457 101
is_linear=0
shrinkage=0.0152719


Tree=45
num_leaves=8
num_cat=0
split_feature=8 9 8 6 7 10 6
split_gain=12.2698 12.4944 16.6487 10.4695 6.59237 4.42469 4.21502
threshold=0.53604398917393026 0.48792223095051063 0.37117864624247193 0.61270000000000013 0.50069312878332806 0.41103200766617443 0.64000127418860553
decision_type=2 2 2 8 2 2 10
left_child=1 2 6 -4 -3 -2 -1
right_child=5 4 3 -5 -6 -7 -8
leaf_value=-0.0074998325362787633 -0.0029463811071893235 0.0049368357547321219 -0.0028183786657355993 0.0021661131170846626 -0.0023306687716363327 0.0039841575856160499 -6.6642930536023185e-05
leaf_weight=35.697544580325484 5.4009325429797164 26.642680199816823 57.413448913022876 47.594249833375216 9.6519790329039079 46.080083625391126 6.0806400980800381
leaf_count=294 40 135 299 215 60 276 46
internal_value=-0.000233718 -0.00121231 -0.00225803 -0.000523024 0.00287255 0.00314423 -0.00646436
internal_weight=234.562 183.081 146.786 105.008 36.2947 51.481 41.7782
internal_count=1365 1049 854 514 195 316 340
is_linear=0
shrinkage=0.00793684


Tree=46
num_leaves=8
num_cat=0
split_feature=9 9 6 10 14 3 19
split_gain=18.1371 11.3952 5.81458 2.43472 2.29312 3.29026 1.81736
threshold=0.33883079121934195 0.4693103418832611 0.61270000000000013 0.45116684509939758 0.27713792150359318 0.55585000000000007 0.57110000000000005
decision_type=2 2 8 2 10 2 10
left_child=-1 4 -3 -4 5 -2 -6
right_child=1 2 3 -5 6 -7 -8
leaf_value=-0.0094425136090150047 0.00069156169246209584 0.000884333029551387 0.0014868102325984794 0.0088773235040476954 0.0039891001843964415 -0.0049840638050809884 -0.0033713849855090757
leaf_weight=29.374010492116213 21.532500818371773 47.695920979604125 11.638149969279764 37.017450571060181 14.872427608817818 48.252099147066474 6.7383630275726309
leaf_count=262 175 238 81 242 78 244 25
internal_value=-0.000283312 0.00114073 0.00418682 0.00725941 -0.00200563 -0.0031465 0.0013584
internal_weight=217.121 187.747 96.3515 48.6556 91.3954 69.7846 21.6108
internal_count=1345 1083 561 323 522 419 103
is_linear=0
shrinkage=0.012657


Tree=47
num_leaves=8
num_cat=0
split_feature=9 6 15 14 14 22 16
split_gain=47.1826 15.1498 6.25822 4.19872 4.10579 2.94216 2.68176
threshold=0.41528601014068423 0.60005000000000019 93.500000000000014 0.12516839577069275 -0.11363329575210458 12.500000000000002 11.500000000000002
decision_type=2 8 8 10 8 10 2
left_child=3 2 4 -1 -2 -5 -3
right_child=1 6 -4 5 -6 -7 -8
leaf_value=-0.0061512759768476942 -0.0042477560676160552 0.0050793484938992575 0.0025050068948020169 -0.0053753950648398217 -4.2258589784879966e-06 -0.00039460866134974836 0.0011158711690961174
leaf_weight=47.232139343395829 18.588057044893503 57.83468010276556 27.146790768951178 9.8163290861994046 28.541908249258995 17.871724724769592 13.077675282955168
leaf_count=361 132 329 43 29 201 134 94
internal_value=-0.000260405 0.00207571 -0.000112544 -0.00481584 -0.00171147 -0.00235982 0.00440468
internal_weight=220.109 145.189 74.2768 74.9202 47.13 27.6881 70.9124
internal_count=1323 799 376 524 333 163 423
is_linear=0
shrinkage=0.00708196


Tree=48
num_leaves=8
num_cat=0
split_feature=8 0 2 13 16 20 14
split_gain=19.4137 9.25436 4.48837 4.68567 3.34851 2.78602 10.5057
threshold=0.5119418532338309 0.7511904761904763 -0.12052238805970153 0.22107142857142861 1.5000000000000002 0.77000000000000013 1.0000000180025095e-35
decision_type=2 2 2 10 2 8 10
left_child=1 2 -1 -4 -3 -2 -7
right_child=5 4 3 -5 -6 6 -8
leaf_value=-9.0003304869968746e-06 0.0083433474920781743 0.0070767283228242266 -0.0057650330034632897 -0.00030068761043202476 -0.00016734410092326913 -0.0021397097858451048 0.0075477409513654064
leaf_weight=32.985171932727098 16.126087188720703 12.723589867353441 85.080137113109231 25.235002011060715 12.630770701915024 23.111742362380028 25.754399972036481
leaf_count=143 24 22 548 158 91 157 222
internal_value=-0.000535161 -0.00246604 -0.00353713 -0.00456726 0.00330922 0.00437049 0.00288433
internal_weight=233.647 168.655 143.3 110.315 25.3544 64.9922 48.8661
internal_count=1365 962 849 706 113 403 379
is_linear=0
shrinkage=0.0106867


Tree=49
num_leaves=8
num_cat=0
split_feature=9 9 9 9 0 15 17
split_gain=14.8679 8.83076 10.0652 5.22483 8.84413 4.76646 4.25785
threshold=0.36567903050967471 0.42101719721746528 0.39998444349849099 0.43382048092868991 0.78028017241379322 34.000000000000007 0.13813397288322452
decision_type=2 2 2 2 2 8 8
left_child=6 2 5 -3 -5 -2 -1
right_child=1 3 -4 4 -6 -7 -8
leaf_value=0.0023724626200787549 -0.0050916985439849677 -0.0087323822465815663 0.0046480171041024141 0.0023881472457777842 0.015536928948115765 -0.023640303831075665 -0.015430186618503303
leaf_weight=4.8283967450261107 12.860497549176218 10.807472566142676 16.647012304514647 116.3530458137393 23.557617204263806 11.364495439454911 28.646607525646687
leaf_count=45 115 47 116 632 123 27 252
internal_value=-0.000624209 0.00143615 -0.00645714 0.00366008 0.00472402 -0.0144632 -0.0125264
internal_weight=225.065 191.59 40.872 150.718 139.911 24.225 33.475
internal_count=1357 1060 258 802 755 142 297
is_linear=0
shrinkage=0.0195203


Tree=50
num_leaves=8
num_cat=0
split_feature=9 8 14 18 6 2 14
split_gain=38.9262 8.9885 9.53153 2.59189 2.21133 2.0559 1.8067
threshold=0.38214816133150048 0.47263948641120762 -0.15085252902155885 0.69950000000000012 0.60005000000000019 -0.045628124999999992 0.34535496070372773
decision_type=2 2 8 8 8 2 10
left_child=4 3 5 -2 -1 -3 -5
right_child=1 2 -4 6 -6 -7 -8
leaf_value=-0.006172823376806056 -0.001973761221115174 0.00032499230071100939 0.0035155147013541544 8.1772927191983046e-07 -0.0028895113172208026 -0.0035224837535808395 0.0038400891282546136
leaf_weight=35.880608489736915 30.539653830230236 9.8999817259609717 72.947341814637184 38.486085973680019 18.934177031740546 9.439333448186515 4.9422126132994881
leaf_count=265 115 37 444 253 125 58 30
internal_value=-0.00043862 0.00109936 0.00244113 -0.000534518 -0.00512455 -0.00141722 0.000412953
internal_weight=221.069 166.255 92.2867 73.968 54.8148 19.3393 43.4283
internal_count=1327 937 539 398 390 95 283
is_linear=0
shrinkage=0.00644291


Tree=51
num_leaves=8
num_cat=0
split_feature=6 9 16 22 10 14 16
split_gain=26.2512 5.39132 4.19521 4.11292 3.12348 7.25219 2.98882
threshold=0.61270000000000013 0.53147210376688003 11.500000000000002 12.500000000000002 0.53663932870902442 -0.23185510356713163 6.5000000000000009
decision_type=10 2 2 8 2 10 2
left_child=4 3 -3 -2 -1 -6 -5
right_child=1 2 -4 6 5 -7 -8
leaf_value=-0.0044552774348176555 -0.0018417189774982267 0.012909831299766765 0.00061176921025207591 0.0093643222716238862 0.0063260836828160074 -0.0043523609976457963 0.0014464487588811124
leaf_weight=111.85328397341073 16.367666304111481 19.00293863192201 6.5535190701484671 14.975236801430581 14.313298150897024 24.972654927521944 17.467112168669701
leaf_count=738 25 133 51 106 48 127 129
internal_value=-0.000460576 0.00543308 0.0100296 0.00283145 -0.00341083 -0.000275325 0.00536684
internal_weight=225.506 74.3665 25.5565 48.81 151.139 39.286 32.4423
internal_count=1357 444 184 260 913 175 235
is_linear=0
shrinkage=0.0122404


Tree=52
num_leaves=8
num_cat=0
split_feature=8 14 20 0 20 14 10
split_gain=41.3115 14.4819 9.06932 3.50852 2.26014 6.71718 1.39013
threshold=0.41182473960606331 1.0000000180025095e-35 0.73060000000000014 0.73215000000000019 0.23625000000000004 0.16015661475586851 0.43579647674240751
decision_type=2 8 8 2 10 10 2
left_child=4 2 -2 -4 5 -1 -3
right_child=1 6 3 -5 -6 -7 -8
leaf_value=-0.0078759511775337646 0.0042541551768180887 0.0028004364297063429 -0.0055750427011640475 0.0011976967947833019 -0.010239098627139877 -1.7660498424005512e-05 0.006053743986326003
leaf_weight=34.352172696962953 19.926013648509979 27.018581548705697 30.982478108257055 8.5911882389336807 17.148641735315323 17.302092351019382 67.899792164564133
leaf_count=326 28 168 190 58 31 123 399
internal_value=-0.000150949 0.00273757 -0.00110517 -0.00396629 -0.00667553 -0.00531581 0.00519667
internal_weight=223.221 154.418 59.4997 39.5737 68.8029 51.6543 94.9184
internal_count=1323 843 276 248 480 449 567
is_linear=0
shrinkage=0.0101464


Tree=53
num_leaves=8
num_cat=0
split_feature=9 6 19 6 6 4 20
split_gain=27.3825 5.48623 9.30773 6.06406 5.13112 4.08787 2.08802
threshold=0.40319005496315879 0.54915000000000003 0.47045000000000003 0.36060000000000009 0.62547500000000011 0.99999982654287478 0.77985000000000004
decision_type=2 10 8 8 10 2 8
left_child=6 2 5 -4 -3 -2 -1
right_child=1 4 3 -5 -6 -7 -8
leaf_value=-0.013442979417573853 0.00046571321903178851 -0.00068733611607819424 -0.010306056804094745 -3.3380294341998592e-05 0.0074295148865265361 0.01173122431929753 -0.0066992271277549623
leaf_weight=18.684030324220657 14.408667810261251 20.267071384936571 18.292803324759007 35.90017750300467 55.247450860217214 14.096331357955931 41.329198591411114
leaf_count=38 68 103 110 229 344 20 408
internal_value=-0.000744599 0.00236366 -0.000114893 -0.00369315 0.00515862 0.00636868 -0.00900267
internal_weight=218.226 158.213 82.698 54.193 75.5145 28.505 60.0132
internal_count=1320 874 427 339 447 88 446
is_linear=0
shrinkage=0.0144069


Tree=54
num_leaves=8
num_cat=0
split_feature=8 14 9 13 5 13 5
split_gain=44.7765 8.34836 3.81103 2.22457 5.19897 1.99293 1.59904
threshold=0.40319005496315879 0.047433582089552236 0.51848777630487919 0.12606282051282058 44.000000000000007 0.041600000000000005 86.500000000000014
decision_type=2 8 2 10 2 10 2
left_child=5 2 -2 4 -3 -1 -5
right_child=1 3 -4 6 -6 -7 -8
leaf_value=-0.011363149994020485 -0.0022459663183902944 0.008019441730086509 0.0039382161312921955 0.0069101805023964779 1.6089143535880381e-05 -0.0055465712620661502 0.015216429055108803
leaf_weight=38.900651182979345 40.983554344624281 30.83172538690269 27.925105091184378 25.330788742750883 25.682325307279825 23.328418079763651 7.634737901389598
leaf_count=297 206 219 147 191 86 162 33
internal_value=0 0.00370181 0.000182711 0.00632742 0.00445669 -0.00933423 0.00922892
internal_weight=220.617 158.388 68.9087 89.4796 56.5141 62.2291 32.9655
internal_count=1341 882 353 529 305 459 224
is_linear=0
shrinkage=0.013079


Tree=55
num_leaves=8
num_cat=0
split_feature=8 6 20 0 14 6 10
split_gain=18.9758 10.9416 9.40639 7.22575 4.58043 4.04112 3.06768
threshold=0.47263948641120762 0.65065000000000006 0.38380000000000009 0.77778888888888897 -0.016423179556761643 0.62547500000000011 0.41461687939962261
decision_type=2 8 10 2 10 10 2
left_child=1 2 4 5 -1 6 -2
right_child=3 -3 -4 -5 -6 -7 -8
leaf_value=-0.0086092376473277891 -0.0046449434494575314 0.0015698182702901891 -0.016932378190780414 0.011862679355305078 -0.00065218620727686149 0.0067200874085292179 0.0023737508977889153
leaf_weight=30.350324116647243 19.345355125144124 40.299098648130894 16.718136161565781 19.460429767146707 32.50336348079145 24.987630007788539 33.998708285391331
leaf_count=268 82 229 32 119 244 191 180
internal_value=-0.000499932 -0.00433413 -0.00741133 0.00412463 -0.00464818 0.00204686 -5.90616e-05
internal_weight=217.663 119.871 79.5718 97.7921 62.8537 78.3317 53.3441
internal_count=1345 773 544 572 512 453 262
is_linear=0
shrinkage=0.0143078


Tree=56
num_leaves=8
num_cat=0
split_feature=9 9 22 16 14 14 14
split_gain=11.2357 11.2913 7.22799 4.48704 3.8139 2.46354 1.45635
threshold=0.49495207784606382 0.42899170880793408 2.5000000000000004 15.500000000000002 -0.016423179556761643 -0.016423179556761643 0.2526848020434227
decision_type=2 2 10 2 8 8 8
left_child=1 4 -3 5 -1 -2 -4
right_child=3 2 6 -5 -6 -7 -8
leaf_value=-0.013439202266302536 0.0011878908201065912 0.013307846765211013 -0.0023379067617480737 -0.0080578097820187319 -0.0048040722660239073 0.0083107201003858652 0.0037272230190059409
leaf_weight=20.881095748394728 22.439339941367507 11.374160891398786 38.30607408285141 5.5303275883197776 55.805179860442877 43.906142715364695 13.217482274398206
leaf_count=202 117 60 195 39 363 302 53
internal_value=-0.000394599 -0.00312652 0.00188495 0.00478019 -0.00733189 0.00604603 -0.000594075
internal_weight=211.46 139.584 62.8977 71.8758 76.6863 66.3455 51.5236
internal_count=1331 873 308 458 565 419 248
is_linear=0
shrinkage=0.016328


Tree=57
num_leaves=8
num_cat=0
split_feature=9 6 17 19 20 9 17
split_gain=16.9244 6.4162 2.30048 2.19698 1.468 1.23379 4.45455
threshold=0.33883079121934195 0.65065000000000006 0.17098872363567355 0.51575000000000015 0.7107500000000001 0.55740514382112438 0.44104789197444921
decision_type=2 8 8 8 8 2 10
left_child=-1 2 4 -4 -2 6 -3
right_child=1 5 3 -5 -6 -7 -8
leaf_value=-0.013160112930073773 -4.8870865253434681e-05 0.0074466748814453667 -0.0016443435282743402 0.0041957045819418512 -0.0082414115583555152 0.011333943842607759 -0.0056203503584914358
leaf_weight=25.769773043692112 9.8880947828292829 45.506719194352627 40.791768711060286 42.051670720800757 16.356108311563734 17.896315367892385 9.4598117377608997
leaf_count=250 15 244 199 286 118 147 61
internal_value=0.000517488 0.00254092 -0.000196668 0.00121603 -0.00493596 0.00673846 0.00499023
internal_weight=207.72 181.95 109.088 82.8434 26.2442 72.8628 54.9665
internal_count=1320 1070 618 485 133 452 305
is_linear=0
shrinkage=0.0183548


Tree=58
num_leaves=8
num_cat=0
split_feature=0 9 16 19 18 13 21
split_gain=15.6367 16.6647 12.0839 5.49609 3.98015 3.35602 2.7333
threshold=0.62625000000000008 0.42899170880793408 3.5000000000000004 0.54020000000000012 0.46390000000000003 0.10002083333333334 7.5000000000000009
decision_type=2 2 2 10 8 8 8
left_child=1 5 -2 4 -3 -1 -4
right_child=2 3 6 -5 -6 -7 -8
leaf_value=-0.0042203973689153938 0.00443513880447382 0.0022003397327996616 -0.0020836531409179002 0.0031224214575219446 -0.0011173393825557685 -0.0015595726384401889 0.0010891981450273733
leaf_weight=38.192233297973871 37.057658433914185 15.549413777887819 14.448054950684307 22.206315292045474 41.618243100121617 34.821166358888149 20.317023672163486
leaf_count=278 122 44 104 137 255 243 170
internal_value=0 -0.00103851 0.00218574 0.000743202 -0.000150371 -0.00300718 -0.000154342
internal_weight=224.21 152.387 71.8227 79.374 57.1677 73.0134 34.7651
internal_count=1353 957 396 436 299 521 274
is_linear=0
shrinkage=0.00571876


Tree=59
num_leaves=8
num_cat=0
split_feature=1 8 16 4 14 8 14
split_gain=5.62405 20.6162 5.64836 10.6884 5.16396 3.37374 3.00435
threshold=0.53291260162601628 0.39998444349849099 14.500000000000002 0.99999989429171798 0.2017493911350019 0.42899170880793408 -0.20346236735711418
decision_type=2 2 2 2 8 2 8
left_child=1 -1 3 5 -5 -2 -3
right_child=2 6 -4 4 -6 -7 -8
leaf_value=-0.011034149853665227 8.3087228889861098e-05 -0.0036445740047515969 -0.0068410543387998901 -0.0053490080483299778 0.0072398643483615873 0.011443599878512678 0.0046578372575898494
leaf_weight=44.701386896893382 9.0100411940366012 12.663100427016614 12.824327640235422 29.589585348963737 10.789021059870718 38.836080783978105 55.547113120555878
leaf_count=374 41 63 99 121 40 255 361
internal_value=-1.34643e-05 -0.00252626 0.00271307 0.00423492 -0.00170913 0.00938886 0.00297159
internal_weight=213.961 112.912 101.049 88.2247 40.3786 47.8461 68.2102
internal_count=1354 798 556 457 161 296 424
is_linear=0
shrinkage=0.0161859


Tree=60
num_leaves=8
num_cat=0
split_feature=6 9 7 9 3 20 3
split_gain=26.408 7.78039 3.94519 11.1025 5.92117 4.15915 2.39565
threshold=0.65065000000000006 0.40709123483404092 0.50327739644025871 0.46314756531763607 0.55585000000000007 0.70925000000000016 8.0318867499718607
decision_type=10 2 2 2 2 8 2
left_child=2 -2 3 4 -1 -4 -7
right_child=1 -3 5 -5 -6 6 -8
leaf_value=-0.00086694587405786682 -0.00096543607104181031 0.0034507092226689607 0.0033944776272416084 0.00019077845758215615 -0.0039328426029808907 -3.8113113621584546e-06 -0.003319806925962363
leaf_weight=28.260260552167892 12.690377548336981 49.24641134031117 7.4318907260894775 43.678227057680488 60.039633063599467 19.165935782715682 7.342457026243209
leaf_count=238 75 311 11 204 352 129 32
internal_value=-0.000404706 0.00249584 -0.00150845 -0.00191952 -0.00298962 1.26835e-05 -0.000888036
internal_weight=227.855 61.9368 165.918 131.978 88.2999 33.9403 26.5084
internal_count=1352 386 966 794 590 172 161
is_linear=0
shrinkage=0.00526384


Tree=61
num_leaves=8
num_cat=0
split_feature=9 15 6 15 16 19 6
split_gain=18.0688 4.83134 4.1317 1.62306 1.30115 1.25156 6.78609
threshold=0.44878835350353202 4.5000000000000009 0.50570000000000015 1.0000000180025095e-35 4.5000000000000009 0.44660000000000005 0.54915000000000003
decision_type=2 8 8 10 2 10 10
left_child=2 5 -1 -4 -3 -2 -7
right_child=1 4 3 -5 -6 6 -8
leaf_value=-0.0089578589466397188 -0.0076537814764131252 0.0055617223144001117 -0.0060037762931790112 7.9174293600706638e-05 0.011745724847725094 -0.0063876479913919371 0.0072900163411994791
leaf_weight=44.345519753172994 4.4718940071761599 57.40924001019448 16.211518969386816 34.612834582105279 16.29824392683804 17.126800213009119 22.168350134044886
leaf_count=366 29 191 29 286 133 120 202
internal_value=0.000120577 0.00452169 -0.00521934 -0.00174735 0.00711343 8.91852e-06 0.00110981
internal_weight=212.644 117.475 95.1699 50.8244 73.7075 43.767 39.2952
internal_count=1356 675 681 315 324 351 322
is_linear=0
shrinkage=0.0166726


Tree=62
num_leaves=8
num_cat=0
split_feature=8 6 6 15 21 15 20
split_gain=18.6399 7.00605 5.4562 4.92484 2.82507 2.78934 3.82166
threshold=0.48792223095051063 0.53089160226083409 0.69025000000000014 8.5000000000000018 1.0000000180025095e-35 9.5000000000000018 0.46870000000000006
decision_type=2 10 8 8 10 8 10
left_child=1 3 -2 -1 -5 -3 -7
right_child=2 5 -4 4 -6 6 -8
leaf_value=-0.0053703167435137306 -7.5686416164833626e-05 0.00049794131905678935 0.0032655908887706375 -0.00023536522447970131 -0.0035729115494980051 -2.33734580415752e-05 -0.0046827606355731594
leaf_weight=42.921414347365499 50.211773060262203 28.866691526025534 30.708970930427313 20.738384248688817 25.298459943383932 15.789098309352996 13.090442925691603
leaf_count=383 276 214 231 75 82 66 20
internal_value=-0.0012681 -0.00263116 0.00116363 -0.00376391 -0.00215802 -0.000816901 -0.00222048
internal_weight=227.625 146.704 80.9207 88.9583 46.0368 57.7462 28.8795
internal_count=1347 840 507 540 157 300 86
is_linear=0
shrinkage=0.00640043


Tree=63
num_leaves=8
num_cat=0
split_feature=9 8 12 16 7 14 0
split_gain=21.5987 14.6413 6.75386 5.1728 3.0314 2.98793 2.37822
threshold=0.35308057924662412 0.48068022400308347 81.500000000000014 6.5000000000000009 0.4260042380689148 0.21400374976967027 0.51470805617147075
decision_type=2 2 2 2 2 10 2
left_child=-1 2 4 6 -2 -5 -3
right_child=1 3 -4 5 -6 -7 -8
leaf_value=-0.0055487317504348144 0.0015763534487989947 0.0013661631980364656 -0.0032539755791672919 -0.0008296440034538257 -0.001556576257630556 0.0038345767910664733 0.0043841791147117091
leaf_weight=33.204048054292798 25.039686260744929 23.19787460938096 52.189363120123744 30.132113102823496 24.032324714586139 6.2314852364361277 29.732600845396519
leaf_count=278 111 85 332 219 97 57 167
internal_value=-0.000839469 -3.65463e-07 -0.00166449 0.00187671 -3.13463e-06 4.31427e-06 0.00314341
internal_weight=223.759 190.555 101.261 89.2941 49.072 36.3636 52.9305
internal_count=1346 1068 540 528 208 276 252
is_linear=0
shrinkage=0.00639791


Tree=64
num_leaves=8
num_cat=0
split_feature=9 6 14 21 21 13 21
split_gain=16.7168 9.52041 6.38083 4.82259 4.58459 2.31901 6.87662
threshold=0.51848777630487919 0.46020000000000005 0.11142342454394695 2.5000000000000004 4.5000000000000009 0.12606282051282058 5.5000000000000009
decision_type=2 8 8 10 8 8 10
left_child=1 3 -2 4 -1 -3 -7
right_child=2 5 -4 -5 -6 6 -8
leaf_value=-0.004153360721419805 0.00068875335327262812 -0.0012716629947619581 0.0046925175816361353 -0.0045041433502331753 0.00082659784333604573 -0.00075876682324865373 0.0033671351836051127
leaf_weight=9.3107595667243022 38.157274326309562 41.382409436628222 23.498814310878515 36.657356463372707 15.824026634916661 43.27424874342978 19.729557203128934
leaf_count=36 209 202 169 282 92 221 147
internal_value=-0.000310639 -0.00129632 0.00228531 -0.00312588 -0.000960397 -0.000175586 0.000504277
internal_weight=227.834 166.178 61.6561 61.7921 25.1348 104.386 63.0038
internal_count=1358 980 378 410 128 570 368
is_linear=0
shrinkage=0.00591006


Tree=65
num_leaves=8
num_cat=0
split_feature=6 9 6 8 15 14 19
split_gain=12.0438 8.92678 11.9201 7.12725 6.61423 4.07475 2.87909
threshold=0.56981218119299371 0.39998444349849099 0.64000127418860553 0.50035573276181389 11.500000000000002 -1.0000000180025095e-35 0.40300000000000008
decision_type=8 2 10 2 8 10 10
left_child=3 6 5 -1 -5 -3 -2
right_child=1 2 -4 4 -6 -7 -8
leaf_value=-0.0080147433770115135 -0.014395108074340079 0.0031092504141452745 0.011125868636283343 -0.004504115326723063 0.011927567447158579 -0.0081612490656572077 -0.0011014853061708995
leaf_weight=72.419865450821817 7.8096635770052698 20.869631882756948 50.562704602256417 16.927635394036773 11.513889037072657 15.939277719706295 15.501758562400935
leaf_count=520 62 110 330 120 29 77 92
internal_value=-0.000778112 0.0031075 0.00569548 -0.00512142 0.00193478 -0.00157102 -0.00610812
internal_weight=211.544 110.683 87.3716 100.861 28.4415 36.8089 23.3114
internal_count=1340 671 517 669 149 187 154
is_linear=0
shrinkage=0.0173113


Tree=66
num_leaves=8
num_cat=0
split_feature=9 14 16 14 22 16 14
split_gain=13.1974 6.40539 3.89086 3.32896 3.42898 2.42065 2.75796
threshold=0.48068022400308347 0.17939059522642523 15.500000000000002 -0.16133713451459278 3.5000000000000004 1.0000000180025095e-35 -0.038705684130934108
decision_type=2 10 2 8 10 2 10
left_child=1 5 3 -2 -5 -1 -7
right_child=2 -3 -4 4 -6 6 -8
leaf_value=-0.001468997441029027 -0.00029993436515489538 0.00064511393710715273 -0.0044341636403999515 2.1743071695382045e-05 0.0057412150686295569 -0.0071967505886716852 -0.0021457898446989102
leaf_weight=29.782955382950604 17.626460235565901 41.819564139470458 6.0797796100378028 15.580114819109438 45.901909031905234 33.367239529266953 21.84660136885941
leaf_count=73 77 223 42 89 304 330 192
internal_value=-0.000390476 -0.00246018 0.00262748 0.00326798 0.00437036 -0.00404497 -0.00532261
internal_weight=212.005 126.816 85.1883 79.1085 61.482 84.9968 55.2138
internal_count=1330 818 512 470 393 595 522
is_linear=0
shrinkage=0.0100457


Tree=67
num_leaves=8
num_cat=0
split_feature=9 14 13 20 20 9 20
split_gain=25.8906 6.06571 4.46948 4.46925 5.75018 3.26581 1.75015
threshold=0.38214816133150048 0.11142342454394695 0.32890000000000003 0.59135000000000015 0.74715000000000009 0.43382048092868991 0.5968500000000001
decision_type=2 10 10 8 10 2 10
left_child=2 3 -1 -2 -5 -3 -7
right_child=1 5 -4 4 -6 6 -8
leaf_value=-0.014647589384162458 0.0061719152654625435 4.1912416278710329e-05 0.00081579647764828467 -0.00051715066925704916 -0.020561536823840765 0.011526490267423244 0.00013447481884020101
leaf_weight=39.450448971241713 30.509459644556046 14.771335385739802 5.7428492549806824 75.570738041773438 4.4300485849380484 37.124268953688443 5.8713127076625815
leaf_count=331 45 80 40 553 6 266 9
internal_value=-0.000364683 0.00286161 -0.0124599 0.000288005 -0.00187506 0.00758615 0.0100856
internal_weight=213.47 168.277 45.1933 110.51 80.0008 57.7669 42.9956
internal_count=1330 959 371 604 559 355 275
is_linear=0
shrinkage=0.0180907


Tree=68
num_leaves=8
num_cat=0
split_feature=2 0 20 8 15 15 10
split_gain=7.58924 10.0844 7.07154 13.3026 4.64373 3.92414 0.404425
threshold=-0.35256410256410248 0.89502670226969305 0.61465000000000003 0.40319005496315879 29.500000000000004 14.500000000000002 0.58296512453255211
decision_type=2 2 10 2 8 8 2
left_child=4 2 3 -2 6 -3 -1
right_child=1 5 -4 -5 -6 -7 -8
leaf_value=0.0038117383172488321 -0.010674500088254353 0.0012903703122679683 -0.015035405693091718 0.0013759404145417395 0.017927290465782175 0.017563684052158503 -0.0018992673974349247
leaf_weight=8.3832130860537308 43.825453631579876 11.84991016238928 16.183803409337997 102.7772939382121 10.476311773061751 10.383736681193112 5.1819349341094485
leaf_count=60 399 102 26 674 17 25 37
internal_value=-0.000608201 -0.00192653 -0.00357034 -0.00219063 0.00896623 0.00947785 0.00104283
internal_weight=209.062 185.02 162.787 146.603 24.0415 22.2336 13.5651
internal_count=1340 1226 1099 1073 114 127 97
is_linear=0
shrinkage=0.0185024


Tree=69
num_leaves=8
num_cat=0
split_feature=6 6 8 15 8 22 22
split_gain=19.2406 6.62154 6.34141 8.94826 6.49245 2.9814 0.755746
threshold=0.56981218119299371 0.59342500000000009 0.50596093606043868 6.5000000000000009 0.4596425050957535 2.5000000000000004 1.5000000000000002
decision_type=8 8 2 8 2 10 8
left_child=2 -2 4 -4 -1 6 -3
right_child=1 5 3 -5 -6 -7 -8
leaf_value=-0.0043822526637834133 -0.0036312232350462887 0.0025284787258288794 -0.0031019232073438412 0.0041969843000229596 -1.2174324057570023e-05 0.0028267328778076549 -0.0002246754430024505
leaf_weight=58.681829107925296 8.6554649919271451 4.5165434181690216 14.774242244660856 13.594849223271011 19.863107124343514 75.353523133322597 23.473415073007349
leaf_count=430 43 7 99 43 97 434 190
internal_value=-0.000268476 0.00164189 -0.00229899 0.000286986 -0.00327489 0.00213678 0.000150497
internal_weight=218.913 111.999 106.914 28.3691 78.5449 103.343 27.99
internal_count=1343 674 669 142 527 631 197
is_linear=0
shrinkage=0.00667181


Tree=70
num_leaves=8
num_cat=0
split_feature=0 3 13 15 16 3 20
split_gain=4.93575 7.24847 4.44055 4.531 2.29088 1.21093 0.986111
threshold=0.60771903698188134 8.0052910052910082 0.14927499999999999 8.5000000000000018 5.5000000000000009 0.5192500000000001 0.77000000000000013
decision_type=2 2 10 8 2 2 8
left_child=2 4 3 -1 -2 -5 -4
right_child=1 -3 6 5 -6 -7 -8
leaf_value=-0.0052456994053844 0.0052447847246034924 -0.003052964039747376 -0.0018159454641053659 0.002394820875389005 0.00058449311020726123 -0.0015014241600561885 0.0014904507962305797
leaf_weight=44.837269090116024 32.732412185519934 22.593221127986908 10.135060131549833 9.0399086326360685 19.559764217585325 34.296130038797855 38.655824568122625
leaf_count=437 160 106 16 59 158 106 296
internal_value=-0.00050931 0.0015232 -0.00165916 -0.00301073 0.00361304 -0.00055289 0.000683735
internal_weight=211.85 74.8854 136.964 88.1733 52.2922 43.336 48.7909
internal_count=1338 424 914 602 318 165 312
is_linear=0
shrinkage=0.0100551


Tree=71
num_leaves=8
num_cat=0
split_feature=9 6 2 15 22 17 17
split_gain=13.6516 10.3469 6.07373 2.67839 2.42129 0.913927 5.78764
threshold=0.41182473960606331 0.61270000000000013 0.16549285714285714 5.5000000000000009 12.500000000000002 0.19466888159513476 0.46768786013126379
decision_type=2 8 2 8 8 8 8
left_child=4 2 3 -2 -1 -3 -7
right_child=1 5 -4 -5 -6 6 -8
leaf_value=-0.014702682431517851 -0.0028162750603672724 0.0037378019639290857 -0.010092820458734412 0.0052565873726972568 -0.0054834682154901327 0.0059413034159753767 0.023959613903261099
leaf_weight=16.916897416114807 28.417655184864998 21.78591189160943 24.160184301435947 29.222666569054127 45.147650196217 38.469234228134155 8.2176917064934951
leaf_count=36 215 133 87 120 458 257 50
internal_value=-0.000693733 0.00237927 -0.00211986 0.00111662 -0.00824116 0.00787164 0.00955209
internal_weight=212.338 150.273 81.8005 57.6403 62.0645 68.4728 46.6869
internal_count=1356 862 422 335 494 440 307
is_linear=0
shrinkage=0.0191594


Tree=72
num_leaves=8
num_cat=0
split_feature=6 8 15 21 8 0 15
split_gain=8.72858 12.3862 7.63412 2.05881 4.3707 3.85515 1.90277
threshold=0.49525000000000002 0.44213447490409458 14.500000000000002 3.5000000000000004 0.39998444349849099 0.7511904761904763 4.5000000000000009
decision_type=8 2 8 10 2 2 10
left_child=1 6 -3 5 -5 -2 -1
right_child=3 2 -4 4 -6 -7 -8
leaf_value=-0.015153296148525607 -0.0021453319199481835 -0.0056448588185062385 0.008783677402408676 -0.0045186052928802975 0.0070563109477597488 0.0086531034159329431 -0.004519746602494182
leaf_weight=27.311138468794525 49.093783074989915 23.376300264149904 22.010095573961735 11.642219182103871 51.498962545767426 12.826572293415664 10.662084072828291
leaf_count=230 283 163 44 80 372 54 109
internal_value=-0.000461543 -0.0049743 0.00116795 0.00248379 0.00475145 1.21412e-05 -0.0124751
internal_weight=208.421 83.3596 45.3864 125.062 63.1412 61.9204 37.9732
internal_count=1335 546 207 789 452 337 339
is_linear=0
shrinkage=0.0179417


Tree=73
num_leaves=8
num_cat=0
split_feature=14 8 8 6 9 22 15
split_gain=12.8375 12.8363 7.13773 6.65255 3.14154 4.74773 2.88817
threshold=1.0000000180025095e-35 0.42101719721746528 0.38214816133150048 0.60005000000000019 0.53604398917393026 4.5000000000000009 3.5000000000000004
decision_type=8 2 2 10 2 8 8
left_child=2 3 -1 -2 5 -3 -4
right_child=1 4 6 -5 -6 -7 -8
leaf_value=-0.0067968262835327734 -0.0041953162974270085 -0.0034783648295096522 -0.0036733683114087102 0.00076330386811122983 0.0041520614143976016 0.0020127179285629919 -0.00042751290856565219
leaf_weight=16.497311200946569 28.782419493421912 7.4314656257629395 20.757826212793589 19.662145588546991 27.389472661539912 51.070810571312904 38.37704860419035
leaf_count=153 212 11 166 118 208 296 150
internal_value=-0.000616116 0.000624978 -0.00285375 -0.00212037 0.00221831 0.00122855 -0.00164821
internal_weight=209.968 134.336 75.6322 48.4446 85.8917 58.5023 59.1349
internal_count=1314 845 469 330 515 307 316
is_linear=0
shrinkage=0.00680193


Tree=74
num_leaves=8
num_cat=0
split_feature=8 6 15 14 14 0 2
split_gain=19.7977 5.40935 2.95659 8.16223 5.35209 3.35081 3.24743
threshold=0.38214816133150048 0.59342500000000009 8.5000000000000018 -0.1757969691018591 -0.047070868124477812 0.7511904761904763 0.24795952380952388
decision_type=2 8 8 10 10 2 2
left_child=1 -1 3 -2 -5 6 -4
right_child=2 -3 5 4 -6 -7 -8
leaf_value=-0.013645598375592352 -0.008447079279358536 -0.0019159183544741453 0.005569152821534939 -0.0054891026014398589 0.0059186383392802588 0.011567323575961866 -0.0023582883820057873
leaf_weight=28.025983026251197 19.052975568920374 18.58334850333631 39.354326884262264 12.315442275255917 48.090233113616705 15.90458372235298 17.620998417958617
leaf_count=264 158 129 152 92 407 52 40
internal_value=-6.50772e-05 -0.00919064 0.00269863 0.000440961 0.00342545 0.00503371 0.00297699
internal_weight=198.948 46.6093 152.339 79.4587 60.4057 72.8799 56.9753
internal_count=1294 393 901 657 499 244 192
is_linear=0
shrinkage=0.016059


Tree=75
num_leaves=8
num_cat=0
split_feature=8 8 8 2 12 13 3
split_gain=8.26033 12.691 5.98425 2.63635 2.40886 2.33047 1.54505
threshold=0.30065919630176136 0.42101719721746528 0.5593274230352 0.030499999999999975 72.500000000000014 0.3786734693877552 8.7724727489920884
decision_type=2 2 2 2 2 8 2
left_child=-1 4 3 -3 -2 -6 -4
right_child=1 2 6 -5 5 -7 -8
leaf_value=-0.007968685311105974 -0.00080759295531776726 0.00065525977933938529 0.0046818325002362096 -0.0022361867907077777 -0.0057010484978118059 -5.1159539667717269e-05 0.00052934618698005219
leaf_weight=10.957362845540045 17.863176662474871 72.36239879578352 28.831865551881492 32.39008941501379 36.81893415004015 6.8279061820358029 11.583932764828203
leaf_count=120 118 412 203 117 263 59 59
internal_value=-0.000932917 -0.000518303 0.000836112 -0.00020483 -0.0037615 -0.00486016 0.00360684
internal_weight=217.636 206.678 145.168 104.752 61.51 43.6468 40.4158
internal_count=1351 1231 791 529 440 322 262
is_linear=0
shrinkage=0.0085413


Tree=76
num_leaves=8
num_cat=0
split_feature=8 13 17 20 9 5 6
split_gain=18.5754 5.47668 6.46198 4.29392 2.68508 2.60954 4.24338
threshold=0.47263948641120762 0.32890000000000003 0.25693412125110632 0.49535000000000001 0.36567903050967471 17.500000000000004 0.64000127418860553
decision_type=2 8 8 10 2 2 8
left_child=1 3 -3 4 -1 6 -2
right_child=5 2 -4 -5 -6 -7 -8
leaf_value=-0.011060278365244407 0.0007729243510734079 0.0082927586459071445 -0.0059363739860296503 -0.015623063390784295 -0.0041557258410889466 0.00059326022218339556 0.011859768548681721
leaf_weight=20.150041687302291 18.020266817882657 10.346070375293495 17.800782380625606 14.844987869262694 48.295378198847175 54.019600136205554 14.452660003677009
leaf_count=231 124 69 124 28 339 286 139
internal_value=-0.00231234 -0.00629377 -0.000402308 -0.00818959 -0.00636482 0.00273843 0.00602917
internal_weight=197.93 111.437 28.1469 83.2904 68.4454 86.4925 32.4729
internal_count=1340 791 193 598 570 549 263
is_linear=0
shrinkage=0.0147314


Tree=77
num_leaves=8
num_cat=0
split_feature=22 8 15 14 14 13 13
split_gain=13.0282 11.3564 3.42936 8.8446 3.83652 2.17849 0.54132
threshold=4.5000000000000009 0.36567903050967471 21.000000000000004 0.037535685210312066 -0.27154404743956978 0.26832500000000009 -0.14897834314550037
decision_type=8 2 8 10 10 10 10
left_child=-1 5 3 -3 -4 6 -2
right_child=1 2 4 -5 -6 -7 -8
leaf_value=-0.0093353164176556858 -0.011949751161451843 -0.0029664503228694298 0.012653464618086788 0.0045573005826077644 0.0028279556923237535 -7.1302264645636734e-05 -0.0054655631205982767
leaf_weight=25.836139619350433 10.118598315864805 54.98279975168407 9.0276409871876222 52.467081116512418 35.956831000745296 4.3913007192313662 12.32675108872354
leaf_count=47 129 440 20 426 116 34 135
internal_value=-0.000661842 0.000577085 0.00201237 0.000651331 0.00507442 -0.00720153 -0.00886958
internal_weight=205.107 179.271 152.434 107.45 44.9845 26.8367 22.4453
internal_count=1347 1300 1002 866 136 298 264
is_linear=0
shrinkage=0.013222


Tree=78
num_leaves=8
num_cat=0
split_feature=13 9 16 0 19 7 0
split_gain=7.83874 28.0744 5.69202 5.86692 4.66336 3.79334 1.7077
threshold=0.23735454545454548 0.47263948641120762 6.5000000000000009 0.49193225806451618 0.54200000000000015 0.38500678426051566 0.25545000000000007
decision_type=8 2 2 2 8 2 2
left_child=1 6 3 -3 -4 -2 -1
right_child=5 2 4 -5 -6 -7 -8
leaf_value=-2.684578259233979e-05 -0.00087647016074313209 2.3431760113240643e-05 -0.0016918281925515357 0.0038931023690454728 0.0022657319653751032 0.0022761247626295121 -0.0026604553015185479
leaf_weight=7.9895457830280057 10.269808901473878 12.407849047333 16.914237186312679 32.176461476832628 12.03011232241988 43.341565297916532 81.12563762627542
leaf_count=64 74 37 117 176 91 286 484
internal_value=-7.48698e-06 -0.000562544 0.00168298 0.00278838 5.08452e-06 0.00161849 -0.00244297
internal_weight=216.255 162.644 73.5287 44.5843 28.9443 53.6114 89.1152
internal_count=1329 969 421 213 208 360 548
is_linear=0
shrinkage=0.0049728


Tree=79
num_leaves=8
num_cat=0
split_feature=6 20 9 1 15 15 18
split_gain=8.76536 4.81422 7.78222 4.39824 2.94699 2.07701 2.06811
threshold=0.77705006361333717 0.33510000000000006 0.51848777630487919 0.57275000000000009 8.5000000000000018 9.5000000000000018 0.47950000000000009
decision_type=8 8 2 2 10 8 10
left_child=1 -1 4 6 -3 -4 -2
right_child=3 2 5 -5 -6 -7 -8
leaf_value=-0.0065265528201187209 -0.0021992184922065188 -0.0027115441382917901 4.4043444733946667e-06 0.0040976328767441967 0.00030378794856066667 0.003177348154335811 0.0021847810770228735
leaf_weight=9.2825985550880414 12.828948322683575 95.073317188769579 26.166967082768679 25.096519459038973 18.312003098428249 18.662101171910763 9.1013226844370347
leaf_count=16 118 634 199 121 140 64 58
internal_value=-0.000706983 -0.00150212 -0.00116257 0.00203089 -0.00219126 0.00135213 -0.000199298
internal_weight=214.524 167.497 158.214 47.0268 113.385 44.8291 21.9303
internal_count=1350 1053 1037 297 774 263 176
is_linear=0
shrinkage=0.00731243


Tree=80
num_leaves=8
num_cat=0
split_feature=6 8 20 20 4 20 14
split_gain=5.88708 10.6173 3.54893 1.74536 1.70105 1.24444 0.140013
threshold=0.72384598014946511 0.39998444349849099 0.74575000000000002 0.46215000000000006 0.99999982654287478 0.35945000000000005 0.06393373350638111
decision_type=10 2 8 10 2 10 8
left_child=1 4 -3 -4 6 -2 -1
right_child=5 2 3 -5 -6 -7 -8
leaf_value=-0.0084985763328000816 0.0060835015465029495 0.0038770570922339724 -0.0013478071625150276 -0.011043513005429297 -0.014218435894041434 3.2718568106924629e-05 -0.0036781046368482119
leaf_weight=11.443230642005799 28.038988617248833 37.586055308580399 78.998929591849446 5.038673222064971 16.451787546277046 9.6649302542209607 14.187882952392103
leaf_count=161 240 57 620 7 96 17 135
internal_value=-0.00132391 -0.00269195 -0.000172766 -0.00209272 -0.00968807 0.00435157 -0.0062703
internal_weight=201.41 163.707 121.624 84.0376 42.0829 37.7039 25.6311
internal_count=1333 1076 684 627 392 257 296
is_linear=0
shrinkage=0.0162982


Tree=81
num_leaves=8
num_cat=0
split_feature=9 22 6 8 6 19 14
split_gain=8.46134 3.54139 3.87328 3.10106 9.55337 3.09817 1.11516
threshold=0.4596425050957535 3.5000000000000004 0.46020000000000005 0.44213447490409458 0.59342500000000009 0.49845 0.037535685210312066
decision_type=2 8 8 2 8 8 8
left_child=3 -2 5 4 -1 -3 -4
right_child=1 2 6 -5 -6 -7 -8
leaf_value=-0.014770850147079212 -0.005232929660403382 0.01177659899121344 0.0033462042324189372 0.0053137534554138543 0.0020750471366394953 -0.0074175556127050214 0.01255745735734861
leaf_weight=45.314776915125549 15.320895820856093 7.0613184757530716 15.531078852713108 14.106240902096031 38.432822931557894 16.387725818902254 49.184316237457097
leaf_count=408 23 35 93 69 243 103 369
internal_value=0.000262807 0.00536127 0.00737713 -0.00499985 -0.00692063 -0.000929454 0.0105742
internal_weight=201.339 103.485 88.1644 97.8538 83.7476 23.449 64.7154
internal_count=1343 623 600 720 651 138 462
is_linear=0
shrinkage=0.02536


Tree=82
num_leaves=8
num_cat=0
split_feature=9 10 6 6 17 14 15
split_gain=17.2517 8.96275 7.75524 4.73145 4.46553 4.86086 2.64107
threshold=0.44213447490409458 0.46184701498541275 0.61270000000000013 0.43010000000000009 0.19466888159513476 0.13698350353495675 8.5000000000000018
decision_type=2 2 8 8 8 8 10
left_child=2 3 6 -2 5 -3 -1
right_child=1 4 -4 -5 -6 -7 -8
leaf_value=-0.0050059802936283163 -0.0039607123699003776 -0.0021064421240710061 -0.0003538755184603464 0.00021656253996469636 0.0033141776996527946 0.0032798306891598469 -0.00085055320687954679
leaf_weight=42.289583434350789 16.493494212627411 16.064781837165356 37.287085572257638 28.437850669026375 54.475280405022204 11.112900087609889 9.8701902665197832
leaf_count=340 70 84 228 183 291 65 78
internal_value=-0.000530061 0.000978639 -0.00269392 -0.00127042 0.00225821 1.17984e-05 -0.0042907
internal_weight=216.031 126.584 89.4469 44.9313 81.653 27.1777 52.1598
internal_count=1339 693 646 253 440 149 418
is_linear=0
shrinkage=0.006437


Tree=83
num_leaves=8
num_cat=0
split_feature=4 10 8 20 14 6 8
split_gain=4.53809 10.8746 9.46555 8.40602 3.99362 3.80116 3.40956
threshold=0.9999998661391688 0.47168491033443333 0.44213447490409458 0.6442500000000001 -0.028394136640032177 0.61270000000000013 0.32069315353792743
decision_type=2 2 2 8 10 10 2
left_child=1 6 -2 -4 -5 -3 -1
right_child=2 5 3 4 -6 -7 -8
leaf_value=-0.012843360674902975 -0.013696244629745108 0.0047654262169736991 0.012269154114400794 -0.014408379882985965 0.00036821171597746673 0.017927953046437978 -1.6579793426392738e-06
leaf_weight=10.589316135272382 27.401154913008213 25.16356572881341 20.175022333860397 12.108480721712111 20.11262078769505 20.798123606480658 66.046485519967973
leaf_count=142 129 168 32 66 128 145 532
internal_value=0.000258156 0.00288353 -0.00363388 0.00151089 -0.00498164 0.0110707 -0.00192823
internal_weight=202.395 122.597 79.7973 52.3961 32.2211 45.9617 76.6358
internal_count=1342 987 355 226 194 313 674
is_linear=0
shrinkage=0.0213762


Tree=84
num_leaves=8
num_cat=0
split_feature=9 9 9 2 15 13 22
split_gain=12.6307 10.3913 12.8856 8.39978 4.71314 2.6023 1.23571
threshold=0.53604398917393026 0.35308057924662412 0.39998444349849099 -0.32049999999999995 4.5000000000000009 0.011869936766820773 4.5000000000000009
decision_type=2 2 2 2 8 8 8
left_child=1 5 6 -4 -2 -1 -3
right_child=4 2 3 -5 -6 -7 -8
leaf_value=-0.0059475424916048082 0.00043497913673921343 -0.0069029456671012976 0.005291153344345571 0.00015906651055516786 0.0045586485834209966 -0.0018708387917149793 -0.0028550983661680277
leaf_weight=15.41054822038859 21.150380652397871 6.1832825839519501 14.007804999127982 95.376895906403661 26.732309781014919 15.845803186297418 18.022253477945927
leaf_count=155 171 13 66 512 144 136 149
internal_value=0 -0.000816676 -2.76017e-05 0.000868377 0.00281946 -0.00403266 -0.00412422
internal_weight=212.729 164.847 133.59 109.385 47.8827 31.2564 24.2055
internal_count=1346 1031 740 578 315 291 162
is_linear=0
shrinkage=0.00626824


Tree=85
num_leaves=8
num_cat=0
split_feature=0 9 20 20 16 16 14
split_gain=9.95551 10.9665 6.27707 5.42308 4.78402 4.60797 2.29483
threshold=0.5472785714285715 0.41182473960606331 0.45215000000000005 0.6442500000000001 6.5000000000000009 5.5000000000000009 0.037535685210312066
decision_type=2 2 8 8 2 2 10
left_child=1 3 -3 -1 -2 -4 -5
right_child=4 2 5 6 -6 -7 -8
leaf_value=-0.0081500893301019381 0.002836704785299599 0.0043524628291491778 -0.0031073820294696955 -0.0041453418260238755 -0.00051419035532086895 0.00087555614701817388 -0.00056508156207578234
leaf_weight=12.450805425643919 50.60163517203182 13.679643869400023 24.830382829532027 22.356440424919128 32.931572571396828 30.63184049911797 18.888118837028742
leaf_count=28 238 19 161 252 256 217 153
internal_value=-0.00037077 -0.00165656 0.000150279 -0.00402913 0.00147616 -0.000855632 -0.00261793
internal_weight=206.37 122.837 69.1419 53.6954 83.5332 55.4622 41.2446
internal_count=1324 830 397 433 494 378 405
is_linear=0
shrinkage=0.00704348


Tree=86
num_leaves=8
num_cat=0
split_feature=6 22 8 8 0 21 16
split_gain=14.7174 4.88227 3.75778 3.28413 2.94723 2.55536 5.3551
threshold=0.60005000000000019 4.5000000000000009 0.43382048092868991 0.41528601014068423 0.37928082191780826 5.5000000000000009 6.5000000000000009
decision_type=8 10 2 2 2 10 2
left_child=3 2 -2 4 -1 -3 -7
right_child=1 5 -4 -5 -6 6 -8
leaf_value=-0.0024901357319889977 -0.010948915976076208 0.0045745389839593779 0.0042243452185796336 -0.003299863689076624 -0.016647356809900173 0.026793069531418745 0.0059279470915692186
leaf_weight=12.701127348467706 11.377124361693861 36.906038045883179 17.622542856261134 71.336118042469025 20.875386044383049 9.351066807284953 17.703550027683377
leaf_count=136 87 169 106 362 200 87 155
internal_value=-0.000632867 0.00545648 -0.00144454 -0.00613019 -0.0117007 0.00874916 0.0138776
internal_weight=197.873 92.9603 28.9997 104.913 33.5765 63.9607 27.0546
internal_count=1302 604 193 698 336 411 242
is_linear=0
shrinkage=0.0212961


Tree=87
num_leaves=8
num_cat=0
split_feature=8 9 11 6 20 13 13
split_gain=18.5234 5.42881 7.31815 5.46255 8.80383 0.661815 0.464396
threshold=0.37900796342960524 0.40709123483404092 0.43257295084859398 0.59342500000000009 0.66450000000000009 -0.21154732608033788 0.23735454545454548
decision_type=2 2 2 8 8 10 8
left_child=6 2 -2 4 -3 -5 -1
right_child=1 3 -4 5 -6 -7 -8
leaf_value=-0.0068205490960469139 0.0017061801637255323 0.0054378755024468558 -0.0090358668779411747 0.0058094181610221706 -0.0016383437251104443 0.0031516861498082291 -0.003194176658342528
leaf_weight=25.696922947652638 11.740759138017893 21.275620818138123 9.284021258354187 19.483408445492387 56.182940838858485 55.18858330603689 12.148905290290712
leaf_count=261 94 30 29 118 374 353 102
internal_value=0.000123615 0.00146577 -0.00290547 0.00211134 0.00027282 0.00394146 -0.00582262
internal_weight=211.001 173.155 21.0248 152.131 77.4586 74.672 37.8458
internal_count=1361 998 123 875 404 471 363
is_linear=0
shrinkage=0.00951117


Tree=88
num_leaves=8
num_cat=0
split_feature=9 8 20 0 6 19 13
split_gain=16.4955 11.097 6.1556 6.6459 4.81991 2.67542 7.38862
threshold=0.50035573276181389 0.41528601014068423 0.7107500000000001 0.41765232558139542 0.67535000000000012 0.47045000000000003 -0.089799999999999949
decision_type=2 2 8 2 10 10 8
left_child=1 4 -2 -4 -1 -3 -7
right_child=2 5 3 -5 -6 6 -8
leaf_value=-0.0039284168569847649 0.0047769430899719505 0.0017201555562374644 -0.002922452805918688 0.0020894724629670629 -1.5217975753277021e-05 -0.0041372648716508295 0.00097037558283486413
leaf_weight=56.608030481263995 22.929154247045517 28.207037303596735 12.092331150546668 42.257257943972945 13.257108192890881 15.029610708355902 31.609796332195401
leaf_count=461 37 120 72 353 74 84 164
internal_value=-0.00015677 -0.00139364 0.00211279 0.000900415 -0.00315012 0.00021396 -0.00063903
internal_weight=221.99 144.712 77.2787 54.3496 69.8651 74.8464 46.6394
internal_count=1365 903 462 425 535 368 248
is_linear=0
shrinkage=0.00615456


Tree=89
num_leaves=8
num_cat=0
split_feature=9 6 0 10 22 20 20
split_gain=31.3155 9.50202 9.14677 6.18763 3.32644 9.92318 3.12767
threshold=0.49495207784606382 0.67535000000000012 0.69768951194184847 0.48908887824145236 3.5000000000000004 0.55055000000000009 0.52770000000000017
decision_type=2 10 2 2 8 8 10
left_child=1 2 3 -1 -2 -6 -3
right_child=4 6 -4 -5 5 -7 -8
leaf_value=-0.0018002323184345837 -0.00059929747170013299 0.0017241470212483038 0.00094717438557746845 -0.0045730437778506404 0.0061060251745463923 0.0015723706067072567 -0.0015655789689261968
leaf_weight=76.661245115101337 6.6897523999214172 21.466143887490038 16.781519742682576 22.104554643854499 11.38981372117996 61.731154780834913 6.3178994655609122
leaf_count=569 10 132 87 69 18 446 9
internal_value=-0.000135909 -0.0013812 -0.00194527 -0.00246381 0.00206661 0.00234843 0.000870422
internal_weight=223.142 143.331 115.547 98.7658 79.8107 73.121 27.784
internal_count=1340 866 725 638 474 464 141
is_linear=0
shrinkage=0.00442907


Tree=90
num_leaves=8
num_cat=0
split_feature=8 3 9 3 13 13 16
split_gain=14.5543 7.67387 5.95243 7.53895 5.24528 2.46515 2.29502
threshold=0.44878835350353202 1.7460317460317463 0.53515109540968542 0.55585000000000007 0.3786734693877552 0.041600000000000005 3.5000000000000004
decision_type=2 2 2 2 10 10 2
left_child=1 4 -2 -4 5 -1 -5
right_child=2 -3 3 6 -6 -7 -8
leaf_value=-0.0034840041269650615 6.3458697277897359e-06 0.0011638082637462431 -0.0022920563132177289 0.0044468596717101979 0.0014180415989803049 -0.0013076126175431617 0.0018854763605575654
leaf_weight=40.860900999978185 59.778343062847853 18.894708644598722 6.3932485803961745 19.095215618610382 7.2168725319206706 25.864314962178469 26.568159133195877
leaf_count=327 314 84 47 84 49 172 204
internal_value=-7.23974e-05 -0.00152105 0.00110982 0.00231958 -0.00224699 -0.00269198 0.00304573
internal_weight=204.672 92.8368 111.835 52.0566 73.9421 66.7252 45.6634
internal_count=1281 632 649 335 548 499 288
is_linear=0
shrinkage=0.00493037


Tree=91
num_leaves=8
num_cat=0
split_feature=8 15 14 15 19 2 17
split_gain=11.0561 4.93563 7.1925 4.29603 2.31892 2.27963 1.95077
threshold=0.41182473960606331 4.5000000000000009 0.24358596176821987 50.500000000000007 0.53225000000000011 -0.019778571428571392 0.22212698310613635
decision_type=2 8 10 8 10 2 10
left_child=3 2 4 -1 -2 -3 -7
right_child=1 5 -4 -5 -6 6 -8
leaf_value=-0.0052909074966666332 -0.012033501698398721 0.012539738981055619 0.015119128237054833 -0.020831179873713822 -2.4635948798656944e-05 0.0092060876672915154 1.0000018148051681e-05
leaf_weight=43.028387691825628 25.421959675848484 27.139258403331041 9.9420586656779033 15.814785310998557 18.653823558241129 21.431852275505662 36.284120852127671
leaf_count=447 183 103 93 51 163 93 179
internal_value=-0.000886644 0.00283077 -0.00279642 -0.00981039 -0.0072676 0.00655768 0.00345001
internal_weight=197.716 138.873 54.0178 58.8432 44.0758 84.8552 57.716
internal_count=1312 814 439 498 346 375 272
is_linear=0
shrinkage=0.0245938


Tree=92
num_leaves=8
num_cat=0
split_feature=14 3 9 6 16 8 17
split_gain=7.57779 2.66065 5.55495 3.46928 2.61712 2.59017 1.8383
threshold=1.0000000180025095e-35 0.85993717277486914 0.55740514382112438 0.77705006361333717 6.5000000000000009 0.36567903050967471 0.13813397288322452
decision_type=8 2 2 8 2 2 10
left_child=5 6 3 -3 -4 -1 -2
right_child=1 2 4 -5 -6 -7 -8
leaf_value=-0.016687565229263887 0.015568551126511834 -0.0072253124069169431 0.018248903735620835 0.0027243316979017203 0.00013406606095050936 -0.0046273291019050264 0.0036680027617826991
leaf_weight=9.9500830499455315 7.5502993240952483 38.767953226342797 8.5525386668741685 24.046870447695255 6.461941258981823 65.095694763585925 41.729593059048057
leaf_count=122 69 217 39 109 53 374 359
internal_value=-0.0011039 0.00199569 -0.000327286 -0.00324946 0.0108594 -0.00647086 0.00584697
internal_weight=202.155 127.109 77.8293 62.8148 15.0145 75.0458 49.2799
internal_count=1342 846 418 326 92 496 428
is_linear=0
shrinkage=0.0212776


Tree=93
num_leaves=8
num_cat=0
split_feature=9 6 2 22 2 12 9
split_gain=8.42871 8.13812 3.44446 5.96427 2.82352 3.08671 2.56378
threshold=0.48792223095051063 0.58020000000000016 -0.11287878787878783 12.500000000000002 0.030499999999999975 35.500000000000007 0.40709123483404092
decision_type=2 8 2 10 2 2 2
left_child=1 6 -3 -4 -2 -6 -1
right_child=4 2 3 -5 5 -7 -8
leaf_value=-0.0120791697333866 0.0065811785208022286 0.010327563863705766 -0.0071528791011791345 0.0062443065662911275 -0.0078786216416679884 0.005308938584370846 -0.0039176292938993898
leaf_weight=30.49081930052489 56.163392323069274 11.61712530069053 23.706347279250622 20.947777211666107 11.252417493611576 11.55940520763397 32.562069054692984
leaf_count=320 392 55 119 161 60 58 172
internal_value=-0.000318899 -0.00347937 0.00152096 -0.000657325 0.00432954 -0.000811538 -0.00806949
internal_weight=198.299 119.324 56.2712 44.6541 78.9752 22.8118 63.0529
internal_count=1337 827 335 280 510 118 492
is_linear=0
shrinkage=0.018628


Tree=94
num_leaves=8
num_cat=0
split_feature=8 8 13 0 14 13 20
split_gain=8.04829 5.49596 4.38425 3.48934 2.93339 2.60245 1.0337
threshold=0.53604398917393026 0.42899170880793408 0.156775 0.50454545454545463 -0.16133713451459278 1.0000000180025095e-35 0.7107500000000001
decision_type=2 2 10 2 10 8 8
left_child=1 2 5 -2 -5 -1 -3
right_child=3 6 -4 4 -6 -7 -8
leaf_value=-0.015041284090305787 -0.003529158737324227 0.0030931706458071167 0.0004401369519172676 5.6481834952114904e-05 0.013205004491352012 -0.0049039501469491063 -0.0015602442620767415
leaf_weight=26.478315931744874 9.4548856206238252 27.34657034277916 17.029591470956802 11.162078596651552 22.910407228395343 22.716569713316858 56.310718804597855
leaf_count=259 61 42 126 65 187 181 399
internal_value=-0.00119164 -0.00341502 -0.00765902 0.00618214 0.00920654 -0.0106511 -3.04098e-06
internal_weight=193.409 149.882 66.2245 43.5274 34.0725 49.1949 83.6573
internal_count=1320 1007 566 313 252 440 441
is_linear=0
shrinkage=0.0198431


Tree=95
num_leaves=8
num_cat=0
split_feature=9 1 14 21 19 21 15
split_gain=4.38888 3.63677 4.57834 4.05513 4.11854 3.5244 1.92653
threshold=0.5709635105949814 0.51000000000000012 0.12516839577069275 7.5000000000000009 0.55765000000000009 5.5000000000000009 1.5000000000000002
decision_type=2 2 8 10 10 8 8
left_child=1 3 5 -1 -5 -3 -4
right_child=-2 2 6 4 -6 -7 -8
leaf_value=-0.0051716481282785449 0.0070714963431761993 -0.012438528558895483 -0.0011781493485967631 0.012815744152328624 -0.0031685592856199878 0.0012740561096868702 0.0088379261681164872
leaf_weight=72.337621220387518 32.252524596638978 8.8180688545107859 6.3622160945087662 9.8984159529209155 11.125914234668015 19.894858466461301 33.137598378583789
leaf_count=519 235 39 53 92 118 136 145
internal_value=0.000722374 -0.00050662 0.00274142 -0.00298448 0.0040213 -0.00275294 0.00696637
internal_weight=193.827 161.575 68.2127 93.362 21.0243 28.7129 39.4998
internal_count=1337 1102 373 729 210 175 198
is_linear=0
shrinkage=0.0190021


Tree=96
num_leaves=8
num_cat=0
split_feature=8 6 2 14 15 2 15
split_gain=7.85261 7.38878 5.52035 5.04241 3.08011 2.9973 1.7383
threshold=0.48792223095051063 0.59342500000000009 -0.24205714285714283 -0.078661942038061441 29.500000000000004 -0.32049999999999995 16.000000000000004
decision_type=2 8 2 8 8 2 10
left_child=1 5 -3 4 -2 -1 -7
right_child=3 2 -4 -5 -6 6 -8
leaf_value=0.0016505441959873731 -0.0069723300107063461 0.013390393921059804 -0.00086646664478773209 0.0070578234208789996 0.0065157643117908625 -0.0096621715750808065 0.00042848253386209163
