tree
version=v4
num_class=1
num_tree_per_iteration=1
label_index=0
max_feature_idx=22
objective=binary sigmoid:1
feature_names=hit_rate_lifetime hit_rate_recent momentum avg_freq recency n_samples_lifetime kalshi_odds hit_rate_word_global hit_rate_word_in_event_type hit_rate_speaker_event_type hit_rate_credibility event_type_prior word_rank market_vs_history market_vs_word_prior days_since_last_event events_in_last_30d topic_match rel_max rel_mean rel_top3_mean rel_count_hi rel_n
feature_infos=[0.015384615384615385:1] [0.015384615384615385:1] [-0.96153846153846156:0.88135593220338981] [0.046153846153846156:107.07317073170732] [0.25519999999999998:0.99999997912883587] [2:201] [0.044105360616486677:0.95991210182955422] [0.17049108447822275:0.69397937687105005] [0.065573494030085666:0.7426211331633219] [0.065573494030085666:0.7426211331633219] [0.11559482276717356:0.90711967158924811] [0.37614136196182479:0.60247219440198196] [1:999] [-0.93745734106261858:0.83461538461538454] [-0.53596262057877808:0.57488569131832801] [1:139] [0:17] [0.0026121539995074272:0.8154754638671875] [0.1164:0.92689999999999995] [0.1164:0.76670000000000005] [0.1164:0.79310000000000003] [1:15] [1:20]
tree_sizes=990 995 994 997 997 995 999 996 989 794 996 1001 1006 994 1000 1002 1007 1008 1006 1011 996 1013 1005 1008 887 898 1001 1001 1001 1006 1004 994 1007 1004 1003 1000 1005 1011 1000 1003 1009 1009 1003 587 1011 902 1002 1011 1004 1007 1009 1018 1008 1007 990 1013 1003 1007 1007 990 1003 996 1007 1013 1007 902 1009 1004 1002 1014 1009 999 1002 1014 1004 905 1001 895 1018 1001 1009 1001 1010 999 1004 1006 895 999 1001 1015 1007 1000 1006 1006 1012 1004 688 1016 1014 1015 1006 1008 1010 1013 1005 1008 1021 1006 1017 1008 1017 996 986 1007 1004 1009 1011 905 1012 1008 1017 1012 1012 1015 1014 1018 1013 994 1003 1010 1002 1005 1006 1018 988 1015 1010 1012 1012 904 994 1005 1007 889 910 785 1009 1012 1007 996 1014 1002 1012 1018 1002 1010 1012 1019 1011 993 1017 1005 1014 1004 1015 1020 991 991 1006 1010 1006 1007 1001 1008 999 1007 904 999 1009 1005 1013 1009 1010 1018 1004 1002 1012 990 1010 1003 1012 1002 1013 998 1015 893 1018 1009 1013 1005 913 1012 1023 1024 1011 1023 1020 1014 995 901 985 1007 1000 1021 996 896 910 1010 1005 1016 1015 1010 998 898 896 1004 1012 902 1001 1001 1019 900 994 1020 1020 1022 1022 1014 1008 998 1017 1017 1020 1006 1003 989 1010 1015 996 1020 997 996 911 1004 1021 1016 1004 1011 1021 999 1012 1016 1020 1013 986 1007 1002 686 989 1000 1019 1021 1024 999 893 1016 898 1002 1019 905 1019 1012 797 908 1008 1013 999 1019 1017 998 1000 798 897 1021 1017 1018 997 1023 1003 1001 1003 993 1008 798 981 1022 893 1024 1000 1010 997 1020 1015 898 779 1006 1016 993 1026 1016 1022 1010 802 1012 575 999 1023 983 1018 1028 1021 794 1023 1011 994 1017 1012 1007 1017 784 1022 1005 1019 899 1007 798 997 894 1027 909 1029 916 1021 1008 1014 1022 1007 1018 1018 1004 1001 997 1017 1001 806 997 701 1002 996 1008 994 1031 1008 1000 1024 804 897 1000 1012 999 1021 1019 1022 1001 693 1020 1020 906 1007 1009 1020 1020 1021 1026 1016 997 1025 995 907 996

Tree=0
num_leaves=8
num_cat=0
split_feature=8 6 8 8 8 10 16
split_gain=148.678 34.6404 18.2334 16.0567 5.96231 5.18903 3.96713
threshold=0.48412183676452175 0.64000127418860553 0.46481979715787719 0.3938652242717639 0.37089587035313371 0.41722630595110505 3.5000000000000004
decision_type=2 10 2 2 2 2 2
left_child=1 2 4 -3 -1 -2 -7
right_child=5 3 -4 -5 -6 6 -8
leaf_value=-0.070297435834501848 -0.036451690969510855 -0.05689582112558577 -0.040178925900095003 -0.030931701051879552 -0.059907126601881841 -0.019594244861636606 -0.030371841680278035
leaf_weight=36.55593821592629 16.09996790997684 10.283856926485898 8.993076326325534 17.789724361151457 47.967502633109689 32.319694653153419 26.199179582297802
leaf_count=274 100 70 54 114 296 123 278
internal_value=-0.045477 -0.0571515 -0.0621496 -0.0408499 -0.0646239 -0.0266186 -0.0241172
internal_weight=196.209 121.59 93.5165 28.0736 84.5234 74.6188 58.5189
internal_count=1309 808 624 184 570 501 401
is_linear=0
shrinkage=0.213668


Tree=1
num_leaves=8
num_cat=0
split_feature=6 8 8 8 15 20 14
split_gain=53.8472 52.0486 29.2584 43.1314 18.8106 11.2291 4.69253
threshold=0.47360000000000008 0.42749124244948172 0.33922646886875191 0.48080125260591505 93.500000000000014 0.55785000000000007 0.1010920128214174
decision_type=8 2 2 2 8 8 8
left_child=1 -1 -2 5 -3 -4 -5
right_child=2 4 3 6 -6 -7 -8
leaf_value=-0.016527395137834845 -0.011732363417568423 -0.0054508178847491959 -0.0099834525237008087 0.0089331491799390372 0.011580620005819104 0.002375690477605791 0.017054529395706151
leaf_weight=43.52323373220861 13.072692697867749 18.257408194243908 13.314109802246092 23.195369824767113 18.135403858497739 46.337963882833719 36.578834528103471
leaf_count=309 95 178 18 154 29 324 265
internal_value=0.000165279 -0.00763632 0.0049292 0.00685811 0.00289253 -0.000343993 0.0140918
internal_weight=212.415 79.916 132.499 119.426 36.3928 59.6521 59.7742
internal_count=1372 516 856 761 207 342 419
is_linear=0
shrinkage=0.0121338


Tree=2
num_leaves=8
num_cat=0
split_feature=8 6 18 14 13 8 20
split_gain=133.743 17.6134 5.5228 4.92784 3.2171 2.39589 2.06929
threshold=0.40856993054173446 0.72384598014946511 0.64600000000000013 0.045453965702036421 0.033041099349971563 0.49099491512749577 0.54865000000000008
decision_type=2 8 10 8 8 2 8
left_child=4 2 -2 -4 -1 -3 -6
right_child=1 5 3 -5 6 -7 -8
leaf_value=-0.022053486927135265 0.011024342691573182 0.012526129180151517 -0.001363184882503741 0.008755975694432613 -0.023984357584101376 0.022703612790937463 -0.010434882831395934
leaf_weight=36.657272884622216 33.699678171426058 18.239799505099654 34.110055316239595 19.721762711182237 5.0830397605895996 25.629584534093738 26.531161842867736
leaf_count=242 135 99 242 171 7 192 238
internal_value=0.000453649 0.0102434 0.00576928 0.00224703 -0.018196 0.0188278 -0.0132379
internal_weight=199.672 131.401 87.5315 53.8318 68.2715 43.8694 31.6142
internal_count=1326 839 548 413 487 291 245
is_linear=0
shrinkage=0.0165506


Tree=3
num_leaves=8
num_cat=0
split_feature=9 9 14 20 14 13 0
split_gain=76.2725 64.4837 24.3997 11.2204 6.09631 1.80781 5.27847
threshold=0.49558983118971062 0.3938652242717639 0.20216214349201375 0.39715000000000006 0.24280458215026671 -0.0145996389815759 0.56620000000000015
decision_type=2 2 10 8 8 8 2
left_child=1 4 3 -3 -1 -2 -7
right_child=5 2 -4 -5 -6 6 -8
leaf_value=-0.016587475299751284 0.0083716222382427177 0.012026654838455112 0.012896823220325798 -0.0039704958513177577 -0.0063256855055280588 0.0082206931424732132 0.01895203357906081
leaf_weight=43.675417812541127 33.606832014396787 6.7468223571777344 23.391458183526993 47.511344272643328 14.278219316154717 18.79066670499742 16.073404856026173
leaf_count=284 202 9 130 335 119 130 114
internal_value=0.000707623 -0.00454743 0.00263511 -0.00175382 -0.014219 0.0111549 0.0135331
internal_weight=204.074 135.603 77.6496 54.2582 57.9536 68.4709 34.8641
internal_count=1323 877 474 344 403 446 244
is_linear=0
shrinkage=0.0121805


Tree=4
num_leaves=8
num_cat=0
split_feature=9 6 20 6 12 12 10
split_gain=101.864 22.3583 5.18255 14.7971 3.03492 3.21706 1.55565
threshold=0.45663286338527498 0.55545000000000011 0.55055000000000009 0.73583037658828399 81.500000000000014 628.50000000000011 0.53808537938601364
decision_type=2 8 8 8 2 2 2
left_child=1 -1 -2 6 -3 -6 -4
right_child=2 4 3 -5 5 -7 -8
leaf_value=-0.013856233682643443 0.015035060341346601 0.0017593462380545324 0.0010647660829058968 0.01695845759607478 -0.010436253486535764 -2.4245877430703177e-05 0.0063606034145282375
leaf_weight=57.456989081576467 32.086555004119873 24.070562575012445 26.825828470289707 21.678502691909671 9.5304443445056695 12.288047106936572 19.4214540515095
leaf_count=414 43 117 252 207 59 119 137
internal_value=0.000819121 -0.00836209 0.0103665 0.0079785 -0.00128236 -0.00487342 0.00348119
internal_weight=203.358 103.346 100.012 67.9258 45.8891 21.8185 46.2473
internal_count=1348 709 639 596 295 178 389
is_linear=0
shrinkage=0.0132756


Tree=5
num_leaves=8
num_cat=0
split_feature=8 6 15 2 2 4 15
split_gain=98.3063 27.7199 8.46101 4.30231 3.49828 1.1002 0.735211
threshold=0.3938652242717639 0.55545000000000011 11.500000000000002 -0.28114787234042549 0.24688644688644693 0.56920000000000015 1.5000000000000002
decision_type=2 8 8 2 2 2 10
left_child=6 2 5 -3 -5 -2 -1
right_child=1 3 -4 4 -6 -7 -8
leaf_value=-0.021634182107214146 -8.4115089802317875e-05 0.023356900705076671 0.0055746442212335923 0.014114766184278591 0.0039384841269244483 -0.0087898326649784985 -0.01446114485773607
leaf_weight=32.102280942723155 4.1223750971257713 14.276597091928123 26.424429206177592 52.954215342178941 15.656501946970819 25.823800213634968 23.305549643933773
leaf_count=151 58 68 68 419 67 249 265
internal_value=0.000185928 0.0078871 -0.00120564 0.0141528 0.0119576 -0.00748624 -0.0188995
internal_weight=194.666 139.258 56.3706 82.8873 68.6107 29.9462 55.4078
internal_count=1345 929 375 554 486 307 416
is_linear=0
shrinkage=0.0170917


Tree=6
num_leaves=8
num_cat=0
split_feature=7 1 6 9 6 10 0
split_gain=26.7078 16.2611 14.7865 9.66889 5.02823 2.91404 5.03543
threshold=0.4945270877746763 0.64291666666666669 0.59342500000000009 0.46992491123795072 0.81275000000000008 0.71154082440352584 0.82554310344827597
decision_type=2 2 8 2 10 2 2
left_child=1 2 -1 4 -3 6 -2
right_child=5 3 -4 -5 -6 -7 -8
leaf_value=-0.0099660419212515387 0.0063305412705176416 -0.0039006465851839124 0.00031543769045357692 0.010568171731411023 0.0072492529273245412 7.0634679944043738e-05 0.018962534140429026
leaf_weight=63.224589586257935 38.505145994946361 26.98838890902698 33.463707465678453 15.85333972238004 7.7280084155499926 7.3935243003070346 6.4899568744003764
leaf_count=445 267 141 276 96 18 41 56
internal_value=-0.000464277 -0.0032788 -0.00635405 0.00247255 -0.00114172 0.00727537 0.00849306
internal_weight=199.647 147.258 96.6883 50.5697 34.7164 52.3886 44.9951
internal_count=1340 976 721 255 159 364 323
is_linear=0
shrinkage=0.0127691


Tree=7
num_leaves=8
num_cat=0
split_feature=8 22 13 21 8 16 3
split_gain=91.6489 12.9488 6.60106 3.69771 4.33168 3.20163 1.28411
threshold=0.41988331650725663 4.5000000000000009 0.16999999999999998 8.5000000000000018 0.55336066405070217 12.500000000000002 0.7596153846153848
decision_type=2 8 10 8 2 2 2
left_child=2 -2 6 4 -3 -5 -1
right_child=1 3 -4 5 -6 -7 -8
leaf_value=-0.0098295959039452797 -0.0025537433276847593 0.0033365700104870679 -0.0032724776903119614 0.013142376918837686 0.011826034450695135 0.0025305721154001612 -0.016470971331732184
leaf_weight=17.102962415665388 21.155327059328556 40.715060234069824 13.472052175551651 41.369750311598182 16.943374838680029 7.9886462017893782 37.932881934568286
leaf_count=167 32 246 115 312 136 82 249
internal_value=7.60646e-06 0.00677879 -0.012514 0.00870013 0.00603512 0.0115887 -0.0146298
internal_weight=196.68 128.172 68.5079 107.017 57.6584 49.3584 55.0358
internal_count=1339 808 531 776 382 394 416
is_linear=0
shrinkage=0.0135186


Tree=8
num_leaves=8
num_cat=0
split_feature=8 6 0 8 14 14 6
split_gain=29.2798 29.6694 19.9337 18.6225 5.31942 4.36786 4.028
threshold=0.57070530022806232 0.51830000000000009 0.63082317073170746 0.41988331650725663 0.14682207649348447 0.13475964698464346 0.61270000000000013
decision_type=2 8 2 2 10 10 8
left_child=1 3 4 -1 -3 -4 -2
right_child=6 2 5 -5 -6 -7 -8
leaf_value=-0.016911526715476733 0.0059219890117238405 -0.0074040399127136784 0.0037853863968090101 -0.0019346805702166417 0.0018184010562292325 0.016964233831747028 0.018529989409461368
leaf_weight=37.61567572876811 12.700469292700292 22.992238106206059 10.333397809416057 40.914767792448401 34.244667418301105 21.455808797851205 17.479077791795135
leaf_count=306 94 167 45 231 252 110 144
internal_value=0 -0.00246956 0.00345234 -0.00925976 -0.00178234 0.0129972 0.013615
internal_weight=197.736 167.557 89.0261 78.5304 57.2369 31.7892 30.1795
internal_count=1349 1111 574 537 419 155 238
is_linear=0
shrinkage=0.0151726


Tree=9
num_leaves=6
num_cat=0
split_feature=9 14 6 6 14
split_gain=52.4304 19.3652 10.9678 3.75203 2.04835
threshold=0.50505710986988872 0.25303231942442495 0.58020000000000016 0.74515000000000009 0.21268427360420933
decision_type=2 8 10 10 8
left_child=1 2 -1 -3 -2
right_child=4 3 -4 -5 -6
leaf_value=-0.010101908550680225 0.0081096087741811193 -0.00045972124271032646 0.00094126435409615629 0.0071547545485963109 0.014715118805596368
leaf_weight=73.177488209679723 46.125571798533201 22.956490285694599 17.720229063183069 18.047430904582143 15.617302183061836
leaf_count=540 287 178 111 97 129
internal_value=8.94204e-05 -0.004515 -0.00787645 0.00276997 0.00998168
internal_weight=193.645 131.902 90.8977 41.0039 61.7429
internal_count=1342 926 651 275 416
is_linear=0
shrinkage=0.0130407


Tree=10
num_leaves=8
num_cat=0
split_feature=6 8 8 1 22 6 8
split_gain=53.2507 13.4347 17.8519 8.39616 10.1661 3.59433 2.81966
threshold=0.61270000000000013 0.55889902774047018 0.41988331650725663 0.62957317073170749 4.5000000000000009 0.77705006361333717 0.42398099622778085
decision_type=8 2 2 2 10 8 2
left_child=1 2 -1 4 -2 -6 -5
right_child=3 -3 -4 6 5 -7 -8
leaf_value=-0.013859208522063668 -0.0059779320036093013 0.0045811089856923901 -0.002829473227155595 0.0017639389398554327 0.0021405894820453217 0.012440994410195092 0.011633543223386245
leaf_weight=43.529139602556825 13.673463840037583 14.160318210721014 51.371372619643807 6.8042998872697344 13.507577488198878 10.76757602393627 40.36009762249887
leaf_count=333 130 99 294 29 124 76 220
internal_value=-0.000502711 -0.00628497 -0.00799934 0.00682571 0.00221881 0.00710912 0.0103527
internal_weight=194.174 109.061 94.9005 85.113 37.9486 24.2752 47.1644
internal_count=1305 726 627 579 330 200 249
is_linear=0
shrinkage=0.0124698


Tree=11
num_leaves=8
num_cat=0
split_feature=8 6 18 6 16 13 20
split_gain=88.0869 17.7222 15.9421 9.47053 4.19686 1.7468 2.54199
threshold=0.3938652242717639 0.41145000000000004 0.44740000000000008 0.67535000000000012 4.5000000000000009 0.49402187500000005 0.77985000000000004
decision_type=2 8 8 8 2 8 8
left_child=5 2 -2 -3 -4 6 -1
right_child=1 3 4 -5 -6 -7 -8
leaf_value=-0.016437015117300065 0.014335445396718093 0.0039825153260686164 -0.00053654281112132103 0.011355507133817737 -0.0096232632350796311 -0.0048625959261048195 -0.0095248114008991535
leaf_weight=19.933426082134247 6.4092165529727927 47.857323989272118 16.006652768701318 55.759450079873204 13.948604334145783 7.8863589875400057 28.000298818573356
leaf_count=31 12 317 71 371 140 70 325
internal_value=0.000604992 0.00557777 -0.00127232 0.00803936 -0.0050382 -0.0116908 -0.0126595
internal_weight=195.801 139.981 36.3645 103.617 29.9553 55.8201 47.9337
internal_count=1337 911 223 688 211 426 356
is_linear=0
shrinkage=0.0116822


Tree=12
num_leaves=8
num_cat=0
split_feature=6 8 19 8 8 14 0
split_gain=51.3284 28.0002 4.12757 3.24691 2.88043 2.07202 1.53869
threshold=0.65065000000000006 0.39957924000741291 0.65065000000000006 0.42749124244948172 0.45663286338527498 -0.04093573516515641 0.56620000000000015
decision_type=8 2 8 2 2 10 2
left_child=1 -1 -2 6 -5 -4 -3
right_child=2 3 5 4 -6 -7 -8
leaf_value=-0.015821986116048146 0.011601291777405579 -0.0013295245947438738 -0.00024935769484246337 -0.0052707484106288742 0.001756593767057473 0.0090334586154138356 -0.014329488267947424
leaf_weight=40.939367305487394 51.005277290940285 5.2400510348379594 11.711036119610073 15.142913918942211 53.166942792013288 6.7004820816218844 4.6652713716030121
leaf_count=315 348 55 132 81 327 36 22
internal_value=-0.000390538 -0.00618892 0.00942768 -0.00098722 6.04779e-05 0.00292892 -0.00847613
internal_weight=188.571 119.155 69.4168 78.2152 68.3099 18.4115 9.90532
internal_count=1316 800 516 485 408 168 77
is_linear=0
shrinkage=0.0144968


Tree=13
num_leaves=8
num_cat=0
split_feature=9 6 20 0 3 0 15
split_gain=51.9159 8.52043 10.9842 6.22769 7.84094 7.97744 4.52619
threshold=0.46481979715787719 0.58020000000000016 0.7107500000000001 0.79062500000000013 0.85993717277486914 0.60771903698188134 6.5000000000000009
decision_type=2 8 8 2 2 2 10
left_child=3 2 -2 4 -1 -6 -4
right_child=1 -3 6 -5 5 -7 -8
leaf_value=-0.0028680480988144252 0.014943381216310479 0.013726800056954373 -0.0062819630794055991 0.0022787210911635685 -0.016533523295028042 -0.00045380234787951762 0.010159690475627861
leaf_weight=34.808954581618309 13.410849511623381 51.386761285364628 20.772700948640708 12.9928927347064 40.872909574769437 11.358653545379637 4.7258357852697364
leaf_count=361 18 362 180 63 290 31 42
internal_value=0.000394395 0.0093498 0.00328108 -0.00761529 -0.0092029 -0.013208 -0.0027422
internal_weight=190.33 90.2961 38.9094 100.033 87.0405 52.2316 25.4985
internal_count=1347 602 240 745 682 321 222
is_linear=0
shrinkage=0.0162792


Tree=14
num_leaves=8
num_cat=0
split_feature=9 6 9 18 9 6 6
split_gain=29.5745 22.2489 10.4695 8.82665 5.25113 5.19468 2.02978
threshold=0.52593487942999406 0.69025000000000014 0.46992491123795072 0.46080000000000004 0.42398099622778085 0.46020000000000005 0.60005000000000019
decision_type=2 8 2 10 2 8 8
left_child=1 2 4 -3 -1 -2 -7
right_child=5 3 -4 -5 -6 6 -8
leaf_value=-0.015473844184946819 9.1480045607516798e-05 -0.00469231310906264 0.00010577224158846035 0.010625374538854459 -0.0055101627990738139 0.0066206019327043689 0.017468904049728708
leaf_weight=44.749385610222816 7.9890997409820548 14.7197726983577 27.769278764724731 31.735397988930345 28.677355224266648 10.745683822780846 24.844603662379086
leaf_count=390 68 138 153 164 162 64 203
internal_value=-0.000297192 -0.00395695 -0.00842549 0.00556942 -0.0117549 0.0118009 0.0145502
internal_weight=191.231 147.651 101.196 46.4552 73.4267 43.5794 35.5903
internal_count=1342 1007 705 302 552 335 267
is_linear=0
shrinkage=0.0169172


Tree=15
num_leaves=8
num_cat=0
split_feature=8 8 14 19 15 6 14
split_gain=36.4587 14.3573 5.9902 3.67108 2.94174 2.87984 2.84762
threshold=0.48080125260591505 0.43362305734190792 -1.0000000180025095e-35 0.45575000000000004 14.500000000000002 0.65065000000000006 0.011809508999703013
decision_type=2 2 8 8 8 8 8
left_child=1 6 4 -3 -2 -4 -1
right_child=2 3 5 -5 -6 -7 -8
leaf_value=-0.012351596808409204 -0.0013723008214681144 0.0091768041999121027 0.0044294469463015207 -0.0003226915739402334 0.0075453960184852353 0.013014846471256373 -0.0058875412774230407
leaf_weight=25.895399486646056 15.51236977055669 9.613605357706545 13.863040730357168 26.361359965056181 10.827630767598746 33.961172410286963 44.078070284798741
leaf_count=255 146 32 82 163 26 264 350
internal_value=0.000357876 -0.00479578 0.00779352 0.00211755 0.00212991 0.0107301 -0.00844614
internal_weight=180.113 105.948 74.1642 35.975 26.34 47.8242 69.9735
internal_count=1318 800 518 195 172 346 605
is_linear=0
shrinkage=0.0138281


Tree=16
num_leaves=8
num_cat=0
split_feature=9 9 6 6 1 22 13
split_gain=38.3443 16.849 5.34244 3.70963 3.28838 2.17539 0.79856
threshold=0.52593487942999406 0.33922646886875191 0.81275000000000008 0.40040000000000003 0.46609523809523817 4.5000000000000009 0.12606282051282058
decision_type=2 2 8 8 2 10 10
left_child=1 6 4 -2 -3 -4 -1
right_child=3 2 5 -5 -6 -7 -8
leaf_value=-0.011421087603964656 7.7754649445709059e-05 0.00073169650652317919 -0.0004470030759820933 0.0091077756383266921 -0.0034477364397373254 0.0051574915759315838 -0.0044292083526701904
leaf_weight=20.63125861436129 6.4324671644717446 23.114847327582538 9.7924504317343253 36.287694385275245 72.806952007114887 14.941978756338356 5.5339798200875512
leaf_count=198 50 170 81 265 446 55 53
internal_value=-0.000463662 -0.00293921 -0.00128273 0.00785322 -0.00238703 0.00275755 -0.0102121
internal_weight=189.542 146.821 120.656 42.7202 95.9218 24.7344 26.1652
internal_count=1318 1003 752 315 616 136 251
is_linear=0
shrinkage=0.0100954


Tree=17
num_leaves=8
num_cat=0
split_feature=6 9 7 22 18 18 17
split_gain=30.9023 11.8554 9.05269 5.92506 10.5949 2.96985 2.01366
threshold=0.69025000000000014 0.49558983118971062 0.41862353437916144 4.5000000000000009 0.69580000000000009 0.42295000000000005 0.34368249773979193
decision_type=8 2 2 8 8 10 10
left_child=2 5 -1 -4 -5 6 -2
right_child=1 -3 3 4 -6 -7 -8
leaf_value=-0.0087887794733275976 7.7365803698271999e-05 0.012557503160838018 -0.0086821655284266067 0.0071504939346789791 -0.0036544015035318571 0.0040674761307358254 -0.0094226247436911201
leaf_weight=43.369054372422397 7.1425856892019493 27.82719340082258 13.806701533496378 21.467187289148569 38.673031954094768 24.543578511103988 4.4587838370352983
leaf_count=384 69 213 20 97 367 127 45
internal_value=-0.000430912 0.00647853 -0.00426496 -0.0014886 0.000128198 0.00153126 -0.00327788
internal_weight=181.288 63.9721 117.316 73.9469 60.1402 36.1449 11.6014
internal_count=1322 454 868 484 464 241 114
is_linear=0
shrinkage=0.0124938


Tree=18
num_leaves=8
num_cat=0
split_feature=8 9 14 7 13 20 14
split_gain=20.5151 20.02 6.22209 4.40441 2.23288 1.59438 1.17479
threshold=0.51167956189710628 0.36588605767367427 -0.074936312679238712 0.40231843005154905 0.022633333333333342 0.74715000000000009 0.11016608020633685
decision_type=2 2 8 2 10 8 8
left_child=1 -1 5 -4 -2 -3 -6
right_child=4 2 3 -5 6 -7 -8
leaf_value=-0.014742027224643078 0.0053340440521875551 -0.0016225951935238093 0.0099836617459298522 0.00013506627961013738 0.0064312431014993407 -0.0097704370760811655 0.01775153183435664
leaf_weight=29.181355737149715 31.463890371844172 13.154028475284575 12.805872973054646 70.069935481064022 7.6929590385407209 16.20171624515206 8.8594453018158692
leaf_count=294 224 19 85 438 58 162 78
internal_value=-0.000359766 -0.00338565 -0.000308138 0.00180543 0.00832603 -0.00644806 0.0132612
internal_weight=189.429 141.413 112.232 82.8758 48.0163 29.3557 16.5524
internal_count=1358 998 704 523 360 181 136
is_linear=0
shrinkage=0.0155757


Tree=19
num_leaves=8
num_cat=0
split_feature=9 6 19 20 10 13 0
split_gain=28.2265 8.61798 4.57853 4.37719 3.93712 3.50195 6.25233
threshold=0.49459124505762037 0.48507500000000003 0.51790000000000014 0.46215000000000006 0.41430241583216304 0.23735454545454548 0.62625000000000008
decision_type=2 8 8 8 2 10 2
left_child=1 2 3 -1 -2 6 -3
right_child=4 5 -4 -5 -6 -7 -8
leaf_value=0.0029295301230366291 -0.00015473919768510823 -0.0059660813771034368 -0.011658046880491799 -0.0074540220499001884 0.0084411224084478317 0.0044344872247355479 0.0031802350732503841
leaf_weight=10.27509558200836 9.3640885762870294 32.111855624243617 26.282217196188867 17.583472238853577 56.642631722614169 17.900638306513429 20.720616159960628
leaf_count=15 64 225 258 159 398 153 91
internal_value=6.91172e-05 -0.00361757 -0.00759958 -0.00340785 0.00711508 -0.000446945 -0.00225219
internal_weight=190.881 124.874 54.1408 27.8586 66.0067 70.7331 52.8325
internal_count=1363 901 432 174 462 469 316
is_linear=0
shrinkage=0.0133302


Tree=20
num_leaves=8
num_cat=0
split_feature=6 9 9 22 20 20 20
split_gain=18.7161 37.4123 7.32219 8.30686 6.39277 9.19663 4.65371
threshold=0.72384598014946511 0.41391473188954042 0.48080125260591505 4.5000000000000009 0.52060000000000006 0.41630000000000006 0.59135000000000015
decision_type=10 2 2 8 10 8 8
left_child=1 -1 3 -3 5 -2 -4
right_child=4 2 6 -5 -6 -7 -8
leaf_value=-0.012123409837903035 -0.003941218074940348 -0.013378858390986485 0.012329371360347088 0.0018405606969488493 -0.0028859894673436011 0.016359361114563337 0.0032449697177540432
leaf_weight=51.140641686506569 4.9044715762138367 9.063401021063326 19.547503888607025 33.700991773977876 5.763801932334899 24.202115343883637 39.599200652912259
leaf_count=466 7 15 27 234 8 245 356
internal_value=0.000214931 -0.00195577 0.00311134 -0.001344 0.00982769 0.0126476 0.00644711
internal_weight=187.922 153.052 101.911 42.7644 34.8704 29.1066 59.1467
internal_count=1358 1098 632 249 260 252 383
is_linear=0
shrinkage=0.0146348


Tree=21
num_leaves=8
num_cat=0
split_feature=9 0 13 14 12 14 21
split_gain=56.0649 8.37611 5.76017 11.4007 5.75187 2.0973 1.00058
threshold=0.47331820187882229 0.5472785714285715 0.56353269230769243 -1.0000000180025095e-35 72.500000000000014 0.1010920128214174 4.5000000000000009
decision_type=2 2 8 10 2 8 10
left_child=2 6 3 -1 -4 -5 -2
right_child=1 -3 4 5 -6 -7 -8
leaf_value=-0.0099614810938270376 -0.00079926690819114878 0.006214710426549289 0.0050899866173518852 -0.0065920495038946951 -0.006316122452313431 -0.0026057735106029649 0.0021618985380213347
leaf_weight=38.786504812538624 18.396982667967681 45.705488024279475 6.7215724643319827 16.064086034893993 5.2493586540222168 44.472728731110692 13.278918808326123
leaf_count=287 88 339 43 106 61 282 111
internal_value=-0.00169162 0.00387342 -0.00560046 -0.00627797 -3.35357e-05 -0.00378454 0.00033269
internal_weight=188.676 77.3814 111.294 99.3233 11.9709 60.5368 31.6759
internal_count=1317 538 779 675 104 388 199
is_linear=0
shrinkage=0.00859304


Tree=22
num_leaves=8
num_cat=0
split_feature=0 9 21 9 13 14 21
split_gain=23.5981 29.9875 5.22474 3.77704 2.30776 2.07886 1.13083
threshold=0.5472785714285715 0.3938652242717639 3.5000000000000004 0.4534953400227405 -0.21154732608033788 0.054304361594996638 6.5000000000000009
decision_type=2 2 10 2 8 8 10
left_child=1 6 -2 -4 -5 -3 -1
right_child=2 5 3 4 -6 -7 -8
leaf_value=-0.01438977627760267 0.008293939165902247 -0.0010596791909235953 -0.0042597791292350142 -0.00010908070750282204 0.0075088636406467997 0.0034752053288256771 -0.0072218069503318452
leaf_weight=34.157085325568914 39.475847523659468 36.614471938461065 12.997535036876796 9.5850973520427925 14.950630508363249 31.250301267951727 11.045944111421703
leaf_count=230 180 215 89 82 143 251 139
internal_value=-0.000674658 -0.00455352 0.00492585 0.00115792 0.00431422 0.00093678 -0.0128633
internal_weight=190.077 113.068 77.0091 37.5333 24.5357 67.8648 45.203
internal_count=1329 835 494 314 225 466 369
is_linear=0
shrinkage=0.0132696


Tree=23
num_leaves=8
num_cat=0
split_feature=7 9 6 8 8 15 6
split_gain=20.2172 38.8968 25.8356 4.84217 7.45671 3.04305 2.64172
threshold=0.45748481600571639 0.42749124244948172 0.65065000000000006 0.50586022407734377 0.46992491123795072 11.500000000000002 0.53089160226083409
decision_type=2 2 10 2 2 8 8
left_child=1 -1 3 4 -2 6 -3
right_child=2 5 -4 -5 -6 -7 -8
leaf_value=-0.0057569805856964801 -0.0074889537463636892 -0.0032937154662138913 0.0061694910964982521 0.00041106519369000068 -0.00025340528010100506 0.0049106617455874427 0.0034176307345206783
leaf_weight=73.395944874733686 11.374058838933708 4.5246277600526819 31.524032363668084 30.242818461731076 16.639461459591985 19.496912868693471 5.0570208784192809
leaf_count=543 82 47 246 200 109 56 59
internal_value=-0.00105875 -0.00312002 0.00126042 -0.00136807 -0.00338724 0.00339094 3.22947e-05
internal_weight=192.255 102.475 89.7804 58.2563 28.0135 29.0786 9.58165
internal_count=1342 705 637 391 191 162 106
is_linear=0
shrinkage=0.00678641


Tree=24
num_leaves=7
num_cat=0
split_feature=8 8 6 22 11 22
split_gain=19.9065 43.4828 12.4727 4.23229 3.89086 3.53605
threshold=0.33259646302250806 0.40288962596036559 0.77705006361333717 1.5000000000000002 0.43215434083601295 4.5000000000000009
decision_type=2 2 8 10 2 10
left_child=-1 4 3 -3 -2 -4
right_child=1 2 5 -5 -6 -7
leaf_value=-0.0085804349704632354 -0.0041828546718357326 0.0075756374612583359 0.0036460145691426479 0.0010339349386437682 -0.011297957772233783 0.01071550333641217
leaf_weight=20.340440906584263 16.069890504702926 9.4224497340619546 12.691943654790519 89.011198291555047 18.188613649457693 21.984323242679238
leaf_count=216 196 53 97 607 45 128
internal_value=0 0.00107925 0.00352368 0.00174789 -0.00818106 0.00833365
internal_weight=187.709 167.368 133.11 98.4336 34.2585 34.6763
internal_count=1342 1126 885 660 241 225
is_linear=0
shrinkage=0.00935116


Tree=25
num_leaves=7
num_cat=0
split_feature=8 14 15 13 15 21
split_gain=46.6149 12.3598 5.08722 4.58262 2.48437 2.28028
threshold=0.43846489675642025 -0.091083045641020419 5.5000000000000009 0.23735454545454548 8.5000000000000018 9.5000000000000018
decision_type=2 8 8 8 10 8
left_child=3 2 -2 4 -1 -5
right_child=1 -3 -4 5 -6 -7
leaf_value=-0.013984546603671389 -0.011731850457413257 0.0083236918413305185 0.0018337810291988276 0.0018396652214410641 -0.0028099503207778434 -0.0081569954034986514
leaf_weight=50.764914406463504 11.152006467804314 84.628302279859781 13.997353821992872 9.1197110731154698 7.6540951635688534 10.4688060618937
leaf_count=368 110 561 49 63 76 112
internal_value=-0.00112846 0.00542317 -0.00396441 -0.0104219 -0.0126776 -0.00320394
internal_weight=187.785 109.778 25.1494 78.0075 58.419 19.5885
internal_count=1339 720 159 619 444 175
is_linear=0
shrinkage=0.0157405


Tree=26
num_leaves=8
num_cat=0
split_feature=8 14 16 0 1 17 22
split_gain=40.368 5.05418 2.87181 2.1961 5.06116 4.81399 4.48822
threshold=0.49099491512749577 0.21268427360420933 12.500000000000002 0.58200000000000018 0.6728772317007613 0.29038339853286749 12.500000000000002
decision_type=2 8 2 2 2 8 10
left_child=3 2 -2 6 -5 -6 -1
right_child=1 -3 -4 4 5 -7 -8
leaf_value=-0.011850598925145742 0.0070649549443794583 0.015221065825218602 -0.0021204618951308216 0.0086891559890017109 -0.013165118777491231 0.00044778853672180244 -0.0042515658496950232
leaf_weight=42.043903637677431 38.907858896069229 18.867608614265919 8.4042001888155919 6.1318362876772907 11.206343431025745 10.664347490295766 42.36185913067311
leaf_count=195 248 154 83 41 59 56 492
internal_value=-0.00119859 0.00830449 0.00526161 -0.00687642 -0.00263816 -0.00630344 -0.00817433
internal_weight=178.588 66.1797 47.3121 112.408 28.0025 21.8707 84.4058
internal_count=1328 485 331 843 156 115 687
is_linear=0
shrinkage=0.0154982


Tree=27
num_leaves=8
num_cat=0
split_feature=9 6 9 21 9 2 2
split_gain=29.3292 23.219 10.2663 6.35659 5.34025 4.6606 2.34369
threshold=0.36588605767367427 0.65065000000000006 0.43846489675642025 6.5000000000000009 0.38391206938830297 -0.15340000000000001 -0.38762019230769229
decision_type=2 8 2 8 2 2 2
left_child=-1 3 4 5 -3 -2 -5
right_child=1 2 -4 6 -6 -7 -8
leaf_value=-0.010501072524152869 0.00083310522043292289 -0.0088814728912980853 0.010581855371551136 0.0065659400299871761 0.0042756062292390977 -0.0083809610015373615 -0.00035458650031013831
leaf_weight=32.62799764983356 9.1828551199287158 5.8446208797395256 44.144463264383376 7.3416996635496607 13.074319081380962 26.437933057546616 48.364438686519861
leaf_count=304 39 35 330 34 90 154 361
internal_value=-0.000274485 0.00187872 0.00744893 -0.00192189 2.7087e-05 -0.0058419 0.00050497
internal_weight=187.018 154.39 63.0634 91.3269 18.9189 35.6208 55.7061
internal_count=1347 1043 455 588 125 193 395
is_linear=0
shrinkage=0.0119687


Tree=28
num_leaves=8
num_cat=0
split_feature=9 2 7 8 6 6 18
split_gain=46.7324 15.6846 5.68018 5.80282 18.9517 5.29565 2.23943
threshold=0.44837457396425567 -0.44229999999999997 0.45220575244691003 0.50586022407734377 0.59342500000000009 0.32380000000000003 0.76795000000000013
decision_type=2 2 2 2 8 8 8
left_child=1 -1 -2 4 -4 -3 -7
right_child=2 5 3 -5 -6 6 -8
leaf_value=0.010599361296963299 0.012833338889142461 -0.014229098847052042 -0.0086935110950070674 0.0064887563067850696 0.008759006143698702 -0.007645278678946087 -0.00064568650725607593
leaf_weight=6.1794005408883086 12.893563661724327 21.543059247545898 18.401707930490375 52.195465554483235 18.59481206536293 49.149425247684121 10.485251400619743
leaf_count=37 74 212 116 379 110 309 126
internal_value=-0.000550104 -0.00721605 0.00510167 0.00384816 7.56023e-06 -0.0087251 -0.0065299
internal_weight=189.443 87.3571 102.086 89.192 36.9965 81.1777 59.6347
internal_count=1363 684 679 605 226 647 435
is_linear=0
shrinkage=0.0124108


Tree=29
num_leaves=8
num_cat=0
split_feature=9 6 20 17 15 14 15
split_gain=29.7053 8.97434 9.28705 4.70355 4.32166 3.61909 2.39696
threshold=0.41391473188954042 0.53089160226083409 0.68365000000000009 0.24041759967803958 21.000000000000004 0.40092622120520505 27.000000000000004
decision_type=2 8 8 10 8 8 8
left_child=5 2 -2 -3 -5 6 -1
right_child=1 3 -4 4 -6 -7 -8
leaf_value=-0.0094706507104291779 0.0084984754416136902 0.013281217089629607 -0.0080666720602276653 0.0094584905880625621 -0.0020039771441117561 -8.1658985868009499e-05 -0.019602213321501895
leaf_weight=28.411617202684283 18.203878998756409 37.133684046566486 30.812864134088159 22.242048708721995 20.862700027413666 8.5175397172570211 18.808143894188106
leaf_count=365 25 241 279 257 52 78 53
internal_value=-0.000421258 0.00446081 -0.00168591 0.00832557 0.00374384 -0.0118406 -0.0138652
internal_weight=184.992 129.255 49.0167 80.2384 43.1047 55.7373 47.2198
internal_count=1350 854 304 550 309 496 418
is_linear=0
shrinkage=0.0187607


Tree=30
num_leaves=8
num_cat=0
split_feature=8 14 17 18 15 22 3
split_gain=38.7697 8.07295 3.80069 3.39222 2.9685 7.54171 2.17737
threshold=0.41988331650725663 0.21268427360420933 0.19988913089036944 0.70760000000000012 3.5000000000000004 3.5000000000000004 4.0724637681159432
decision_type=2 10 8 10 8 8 2
left_child=1 -1 3 -2 -4 -6 -5
right_child=2 -3 4 6 5 -7 -8
leaf_value=-0.016033169532977096 0.0034874012692380236 -0.0011891101354272265 0.00076041623457296357 -7.0789977878205659e-05 -0.0039353030977232681 0.011239627891762921 -0.01341305603960484
leaf_weight=42.877890883944929 29.467092541046441 15.898998312652109 21.72191085293889 6.1340233422815782 10.296566419303415 51.684013658203185 6.445621632039547
leaf_count=418 152 121 243 66 18 306 35
internal_value=-0.000760514 -0.0121859 0.00454267 0.000144918 0.00664286 0.00855251 -0.00686663
internal_weight=184.526 58.7769 125.749 42.0467 83.7025 61.9806 12.5796
internal_count=1359 539 820 253 567 324 101
is_linear=0
shrinkage=0.0170898


Tree=31
num_leaves=8
num_cat=0
split_feature=8 6 8 6 20 0 8
split_gain=48.2709 7.46903 6.05834 4.83524 14.869 4.78 4.51207
threshold=0.4627729456380667 0.58020000000000016 0.40288962596036559 0.56981218119299371 0.5968500000000001 0.37928082191780826 0.38391206938830297
decision_type=2 8 2 8 8 2 2
left_child=1 2 -1 4 -2 -5 -3
right_child=3 6 -4 5 -6 -7 -8
leaf_value=-0.013954663053281337 0.013750932500141999 -0.0080070709157051244 -0.0045059450988645892 6.7774032217954736e-05 -0.0032897444408488147 0.010260714540300633 0.00021459837072708454
leaf_weight=34.908183389343321 11.855932950973509 17.565891517326236 21.200283089652658 8.1494504213333112 25.913702780380845 40.921703804284334 25.14887135848403
leaf_count=294 16 142 154 46 223 324 150
internal_value=-0.0012211 -0.00742063 -0.0105636 0.00576119 0.00202024 0.00847175 -0.0030797
internal_weight=185.664 98.8232 56.1085 86.8408 37.7696 49.0712 42.7148
internal_count=1349 740 448 609 239 370 292
is_linear=0
shrinkage=0.012956


Tree=32
num_leaves=8
num_cat=0
split_feature=9 14 8 6 14 19 19
split_gain=38.2166 13.4583 11.6519 4.91818 2.8948 1.47412 1.22188
threshold=0.43846489675642025 0.17964012412240674 0.38103225304075977 0.58020000000000016 -0.06039742278086329 0.57110000000000005 0.54200000000000015
decision_type=2 8 2 8 10 10 10
left_child=2 4 -1 -4 6 -6 -2
right_child=1 -3 3 -5 5 -7 -8
leaf_value=-0.016775181803639731 -0.0043677826204429476 0.014213031825080168 -0.0096313821728466354 0.0037477689932280162 0.0066092443751886035 -0.0012235788765232512 0.0022158164848712207
leaf_weight=38.829426814801991 23.999636486172676 39.773371670395136 14.586583683267234 17.437734866514802 29.670976254157722 7.1274668686091891 10.856153013184665
leaf_count=343 153 268 142 127 225 39 50
internal_value=-0.000264857 0.0060815 -0.0103375 -0.00214837 0.00138126 0.00484474 -0.002054
internal_weight=182.281 111.428 70.8537 32.0243 71.6542 36.7984 34.8558
internal_count=1347 735 612 269 467 264 203
is_linear=0
shrinkage=0.0175504


Tree=33
num_leaves=8
num_cat=0
split_feature=0 9 16 6 14 19 16
split_gain=20.2379 14.2079 9.82929 7.09932 5.48661 5.63709 4.37772
threshold=0.58200000000000018 0.42398099622778085 6.5000000000000009 0.61270000000000013 -0.0068549911334681848 0.49340000000000006 3.5000000000000004
decision_type=2 2 2 8 8 8 2
left_child=1 6 3 -2 5 -3 -1
right_child=2 4 -4 -5 -6 -7 -8
leaf_value=-0.013410823702947969 0.0020606020288350519 0.0024548248572000102 -0.0013930369238317551 0.013776621210641014 0.0057755499052038846 -0.010752922705129755 -0.0043193574215842192
leaf_weight=25.064130396582186 18.154732942581177 13.417579833418133 22.271230481564999 31.91410949639976 28.304900398477912 11.014632850885389 25.40450232475996
leaf_count=139 88 51 235 134 245 91 346
internal_value=0.000381605 -0.00364106 0.00620301 0.00971823 0.00143758 -0.00330203 -0.00905566
internal_weight=175.546 103.206 72.3401 50.0688 52.7371 24.4322 50.4686
internal_count=1329 872 457 222 387 142 485
is_linear=0
shrinkage=0.0143349


Tree=34
num_leaves=8
num_cat=0
split_feature=8 6 14 0 18 17 12
split_gain=22.7582 8.48486 5.68181 3.75024 6.53833 2.04402 1.80622
threshold=0.46481979715787719 0.77705006361333717 0.12262081152799427 0.73215000000000019 0.69355000000000011 0.11767427250742914 422.00000000000006
decision_type=2 8 8 2 10 10 2
left_child=2 5 -1 4 -4 -2 -3
right_child=1 6 3 -5 -6 -7 -8
leaf_value=-0.012016414132551244 0.0081145281249082636 0.017534707262234463 -0.012091990976541489 0.0063078157825921712 0.0023424776502827963 8.3601817538976771e-05 0.0034908136436742755
leaf_weight=42.86088705714792 12.723420260474084 17.685954647138718 20.747810874134302 10.004501961171625 16.822810903191566 51.067739401012659 5.7181839589029542
leaf_count=398 68 134 147 41 148 351 41
internal_value=-0.000977095 0.00545438 -0.00727228 -0.00274048 -0.00544103 0.00188492 0.0145672
internal_weight=177.631 87.1953 90.436 47.5751 37.5706 63.7912 23.4041
internal_count=1328 594 734 336 295 419 175
is_linear=0
shrinkage=0.0178595


Tree=35
num_leaves=8
num_cat=0
split_feature=10 6 14 21 6 17 7
split_gain=7.35948 8.16544 6.00685 2.71093 9.71892 2.30283 2.27857
threshold=0.49859335195263449 0.6655500000000002 0.38149926564804298 6.5000000000000009 0.71220000000000006 0.29038339853286749 0.44182028487873015
decision_type=2 10 10 10 8 10 2
left_child=1 6 3 4 -2 -3 -1
right_child=2 5 -4 -5 -6 -7 -8
leaf_value=-0.011235244980609958 0.0040125036123266258 0.020515930013582394 -0.016475197581344157 4.9232279427605307e-05 0.027900277335273335 0.0018535110764653663 -0.0023769862934228379
leaf_weight=40.8557054027915 34.608401769772172 8.2092414544895309 5.2666183076798907 15.399379294365643 15.873080729506908 11.110690588131545 40.628672080114484
leaf_count=426 142 85 20 177 81 114 302
internal_value=0.000808582 -0.00344831 0.00699472 0.00920644 0.011983 0.0106958 -0.00700978
internal_weight=171.952 100.804 71.1475 65.8809 50.4815 19.3199 81.4844
internal_count=1347 927 420 400 223 199 728
is_linear=0
shrinkage=0.0250137


Tree=36
num_leaves=8
num_cat=0
split_feature=8 10 8 6 3 6 20
split_gain=22.9441 9.60534 5.40455 5.18206 4.28952 5.89769 3.36712
threshold=0.4534953400227405 0.47113901516551476 0.33922646886875191 0.67535000000000012 0.55585000000000007 0.67535000000000012 0.73060000000000014
decision_type=2 2 2 10 2 8 8
left_child=2 3 -1 -2 -4 -6 -3
right_child=1 6 4 -5 5 -7 -8
leaf_value=-0.011151898619884786 -0.0033579080233387282 0.012371499039254703 0.0023771659481911342 0.0096495335117895379 -0.0087550138703957458 0.00024623037721905998 0.0048131168601129306
leaf_weight=20.498014641925693 28.363259956240654 20.033340990543365 16.092185977846384 5.7674133814871302 29.716617907397449 18.965964926406741 31.462092315778136
leaf_count=245 204 30 182 70 159 90 342
internal_value=-0.000364314 0.00439261 -0.00521536 -0.000836991 -0.0031658 -0.00514068 0.0079681
internal_weight=170.899 85.6261 85.2728 34.1307 64.7748 48.6826 51.4954
internal_count=1322 646 676 274 431 249 372
is_linear=0
shrinkage=0.0131674


Tree=37
num_leaves=8
num_cat=0
split_feature=9 9 14 21 14 14 10
split_gain=39.123 14.3437 5.90277 8.53745 3.30195 2.23479 1.07534
threshold=0.40288962596036559 0.46992491123795072 0.13475964698464346 2.5000000000000004 0.14682207649348447 0.35879746165849907 0.42053751707697212
decision_type=2 2 10 8 10 8 2
left_child=4 5 3 -3 -1 6 -2
right_child=1 2 -4 -5 -6 -7 -8
leaf_value=-0.0085879779985799914 -0.00072954652304658984 0.0090633835089090117 0.0067330170142338051 0.00028162051797020525 -0.0037086698625037194 0.00011016634952834518 -0.0044134185615308883
leaf_weight=37.54875475820154 9.921315295621751 7.8267484679818144 20.260006247088313 50.757793337106705 17.604148332029581 12.405521560460327 25.716418486088514
leaf_count=329 79 25 193 356 126 68 162
internal_value=-0.0015386 0.000885162 0.00300331 0.00159944 -0.00714076 -0.00249827 -0.00351654
internal_weight=182.041 126.888 78.8445 58.5845 55.1529 48.0433 35.6377
internal_count=1338 883 574 381 455 309 241
is_linear=0
shrinkage=0.00801174


Tree=38
num_leaves=8
num_cat=0
split_feature=8 6 15 4 17 15 15
split_gain=26.2442 5.47033 8.00491 3.84404 3.10243 2.54364 0.95467
threshold=0.40288962596036559 0.37510000000000004 10.500000000000002 0.99999996695931648 0.31028684973716741 1.0000000180025095e-35 9.5000000000000018
decision_type=2 8 8 2 8 10 10
left_child=5 2 -2 4 -3 -1 -7
right_child=1 3 -4 -5 -6 6 -8
leaf_value=-0.020573564993844794 -0.016740293929935288 0.0018828559912188781 0.0048578154314488286 0.021278284985665818 0.010149468866475799 -0.011012489561609669 -6.3792658929238906e-05
leaf_weight=18.810017488896847 11.804757665842773 58.798130107112229 17.189469385892153 6.84615509584546 33.179693952202797 23.605523178353909 5.253680793568491
leaf_count=42 128 414 44 30 265 339 66
internal_value=-0.000894823 0.00398338 -0.00371185 0.00636093 0.00501927 -0.014086 -0.00924994
internal_weight=175.487 127.818 28.9942 98.824 91.9778 47.6692 28.8592
internal_count=1328 881 172 709 679 447 405
is_linear=0
shrinkage=0.020915


Tree=39
num_leaves=8
num_cat=0
split_feature=8 9 14 9 2 15 11
split_gain=20.1149 7.7117 7.25256 2.46924 1.37753 2.73252 2.63307
threshold=0.48412183676452175 0.33922646886875191 0.14682207649348447 0.40288962596036559 -0.11287878787878783 4.5000000000000009 0.43215434083601295
decision_type=2 2 8 2 2 8 2
left_child=1 -1 3 -3 6 -6 -2
right_child=4 2 -4 -5 5 -7 -8
leaf_value=-0.013375953025484289 -0.0039580291755267113 -0.012831265053673484 0.0024960992714668376 -0.003845339073151707 0.0024929511625617429 0.011052833544918596 0.0066542139677173776
leaf_weight=20.115603524260223 8.0202106647193432 12.792760717682539 39.611208090558648 30.528945142403245 18.186230551451445 30.042024784721434 14.868780015036464
leaf_count=249 76 108 271 203 224 186 28
internal_value=-3.29463e-05 -0.00457417 -0.00227475 -0.00679503 0.00642007 0.00804185 0.00258741
internal_weight=174.166 103.049 82.9329 43.3217 71.1172 48.2283 22.889
internal_count=1345 831 582 311 514 410 104
is_linear=0
shrinkage=0.0159641


Tree=40
num_leaves=8
num_cat=0
split_feature=8 6 8 0 14 6 6
split_gain=30.5086 11.6609 3.48581 2.12545 4.07596 1.45197 5.66747
threshold=0.48080125260591505 0.69025000000000014 0.53358923955434279 0.49193225806451618 -0.11888161894072675 0.54915000000000003 0.62547500000000011
decision_type=2 10 2 2 8 8 8
left_child=1 5 -2 -4 -5 -1 -7
right_child=2 -3 3 4 -6 6 -8
leaf_value=-0.0066716751119272099 0.0016950176502784949 0.0022222857832921092 7.7628291050753224e-05 8.3876913582516368e-05 0.0088717593394632942 -0.0086260449232281565 -0.00026669114846460476
leaf_weight=55.094696659594774 37.744948245584965 21.202574610710144 4.6596810184419146 7.4589554648846388 24.777916230261326 12.410268107429145 21.399220071732998
leaf_count=444 232 127 36 53 213 89 164
internal_value=-0.000759268 -0.0040168 0.00397492 0.00613263 0.0070074 -0.00556914 -0.00356488
internal_weight=184.748 110.107 74.6415 36.8966 32.2369 88.9042 33.8095
internal_count=1358 824 534 302 266 697 253
is_linear=0
shrinkage=0.00969807


Tree=41
num_leaves=8
num_cat=0
split_feature=1 9 2 6 9 18 0
split_gain=8.83395 18.8506 8.82378 7.73075 12.5416 4.23629 3.64808
threshold=0.62957317073170749 0.47331820187882229 0.27063106796116509 0.46020000000000005 0.43362305734190792 0.69580000000000009 0.25545000000000007
decision_type=2 2 2 8 2 10 2
left_child=3 2 -2 6 -5 -6 -1
right_child=1 -3 -4 4 5 -7 -8
leaf_value=-0.00095830300529769704 0.00075687023495765976 0.0067748102777014825 -0.0097891350204463799 -0.0051261750426779915 0.00036221485729135609 0.0086603738972915317 -0.0084155682527534692
leaf_weight=12.387894771993158 19.172943836078048 42.16243651509285 14.785379260778425 30.031112676486373 15.962631423026325 14.103534938767551 28.399084384553134
leaf_count=79 115 288 61 244 96 161 281
internal_value=-0.000675385 0.00201434 -0.00374661 -0.00275775 -0.000228834 0.00449784 -0.0063089
internal_weight=177.005 76.1208 33.9583 100.884 60.0973 30.0662 40.787
internal_count=1325 464 176 861 501 257 360
is_linear=0
shrinkage=0.0106527


Tree=42
num_leaves=8
num_cat=0
split_feature=8 6 10 9 21 20 17
split_gain=22.8117 9.586 6.57335 5.64926 3.96245 3.29737 2.04129
threshold=0.45663286338527498 0.43010000000000009 0.58280711518987494 0.38391206938830297 4.5000000000000009 0.77000000000000013 0.29811814427375799
decision_type=2 8 2 2 8 8 10
left_child=3 2 -2 5 -5 -1 -3
right_child=1 6 -4 4 -6 -7 -8
leaf_value=-0.020932017756377971 -0.010628131422951669 0.010268585754944909 0.0093691659724949462 -0.012471807505744229 -0.00022382117742788938 -0.0086966413211230515 0.0030065742958367823
leaf_weight=13.837938964366911 17.579119296744469 42.057746601291001 6.0862108618021002 11.390870012342928 31.123019884340465 23.759536162018776 23.108511384576559
leaf_count=30 104 313 35 46 266 352 188
internal_value=-0.0017564 0.00432824 -0.00497086 -0.00859734 -0.00383274 -0.0136432 0.00786423
internal_weight=168.943 88.8316 23.6653 80.1114 42.5139 37.5975 65.1663
internal_count=1334 640 139 694 312 382 501
is_linear=0
shrinkage=0.0176669


Tree=43
num_leaves=4
num_cat=0
split_feature=14 19 16
split_gain=13.0112 1.68769 0.57318
threshold=-1.0000000180025095e-35 0.56870000000000009 14.500000000000002
decision_type=8 8 2
left_child=2 -2 -1
right_child=1 -3 -4
leaf_value=-0.0064430896352915051 0.0041220359978837006 -0.00029215001430345022 -0.013550669041142714
leaf_weight=58.708627915941179 69.478888784535229 37.674168607220054 6.7959101349115363
leaf_count=419 516 320 81
internal_value=-0.0012261 0.00249112 -0.0074106
internal_weight=172.658 107.153 65.5045
internal_count=1336 836 500
is_linear=0
shrinkage=0.0176204


Tree=44
num_leaves=8
num_cat=0
split_feature=8 13 0 15 21 0 14
split_gain=15.7775 5.93293 5.00663 5.04871 4.75639 2.96803 5.25235
threshold=0.48080125260591505 0.079267801103661897 0.50454545454545463 23.500000000000004 10.500000000000002 0.81029411764705894 -0.04860633124399303
decision_type=2 8 2 8 8 2 10
left_child=1 4 3 -3 -1 6 -2
right_child=5 2 -4 -5 -6 -7 -8
leaf_value=-0.010450810489720215 -0.0018116667441810464 0.00084398944520673895 0.0084274744121624941 -0.011196112766340296 -0.00047781086735338926 0.011420145148829821 0.0072187070674532283
leaf_weight=38.254646681249142 24.128485048189759 22.931451089680195 11.488729584962128 11.127479594200848 17.895447512157261 14.52565076947212 34.086065771058202
leaf_count=312 155 293 42 34 119 110 283
internal_value=-0.000217195 -0.00413277 -5.74794e-06 -0.00297544 -0.00743101 0.00514247 0.00336269
internal_weight=174.438 101.698 45.5477 34.0589 56.1501 72.7402 58.2146
internal_count=1348 800 369 327 431 548 438
is_linear=0
shrinkage=0.0152719


Tree=45
num_leaves=7
num_cat=0
split_feature=8 6 8 20 20 0
split_gain=21.6066 15.3881 6.44378 3.85323 1.40318 1.46307
threshold=0.35263335438677085 0.59342500000000009 0.3938652242717639 0.15210000000000004 0.46215000000000006 0.6728772317007613
decision_type=2 8 2 10 8 2
left_child=-1 2 -2 -4 -3 -6
right_child=1 4 3 -5 5 -7
leaf_value=-0.0068972009481654169 -0.0072096675094166698 0.00041853916620495583 -0.002259308366851313 0.0014464548353968264 0.0026699140971002491 0.0054741241779337558
leaf_weight=25.244039424695075 10.337253229692577 11.707973599433897 38.536993151530623 30.46180385351181 43.124626505188644 25.654795386828482
leaf_count=282 77 18 407 42 385 154
internal_value=-0.000148272 0.000913646 -0.00152569 -0.000568321 0.00336255 0.00380517
internal_weight=185.067 159.823 79.3361 68.9988 80.4874 68.7794
internal_count=1365 1083 526 449 557 539
is_linear=0
shrinkage=0.00793684


Tree=46
num_leaves=8
num_cat=0
split_feature=6 9 2 15 8 15 15
split_gain=6.95202 8.26739 10.1867 6.677 8.19692 2.84825 2.33829
threshold=0.46020000000000005 0.4534953400227405 -0.27267156862745096 18.500000000000004 0.48412183676452175 2.5000000000000004 4.5000000000000009
decision_type=10 2 2 8 2 10 10
left_child=3 2 -2 6 -5 -4 -1
right_child=1 -3 5 4 -6 -7 -8
leaf_value=-0.0092506273609272334 0.011444498377041094 0.0052968912545895879 -0.0071218464032232745 -0.0041942400290076098 0.007815502803312023 -3.3107031750701487e-05 -0.0022068951172766662
leaf_weight=23.946200104430318 6.6253117732703677 53.66124546341598 25.298035791143775 20.509402603842318 14.708407150581477 11.201432304456828 15.391537411138414
leaf_count=327 42 430 115 60 27 127 217
internal_value=-0.000221002 0.0019713 -0.00203076 -0.00314487 0.00069106 -0.00480052 -0.00670859
internal_weight=171.342 96.786 43.1248 74.5555 35.2178 36.4995 39.3377
internal_count=1345 714 284 631 87 242 544
is_linear=0
shrinkage=0.012657


Tree=47
num_leaves=8
num_cat=0
split_feature=9 9 6 10 16 14 6
split_gain=30.744 7.92591 10.977 7.81736 5.99849 4.59544 2.89765
threshold=0.47331820187882229 0.42749124244948172 0.67535000000000012 0.47549449478709932 5.5000000000000009 0.32615850078375574 0.61270000000000013
decision_type=2 2 10 2 2 10 8
left_child=1 5 6 -2 -5 -1 -3
right_child=3 2 -4 4 -6 -7 -8
leaf_value=-0.0050118186790660624 0.00030682741735447614 -0.0037636557873032147 0.0064822562798814102 0.0075439204052995968 0.0019513165289601485 -2.1849464889844635e-05 0.0011786249523899571
leaf_weight=53.780736773274839 28.629685487598181 19.133000489324335 8.9894600901752693 24.482271555811167 19.565103527158499 10.754348693415521 6.7001240924000731
leaf_count=501 214 117 49 132 199 69 42
internal_value=-0.000140095 -0.00271303 -4.95983e-06 0.00332271 0.00518487 -0.00417325 -0.00233422
internal_weight=172.035 99.3577 34.8226 72.6771 44.0474 64.5351 25.8331
internal_count=1323 778 208 545 331 570 159
is_linear=0
shrinkage=0.00708196


Tree=48
num_leaves=8
num_cat=0
split_feature=1 2 12 22 2 19 7
split_gain=8.69537 6.00773 7.61787 6.0773 4.89167 6.93326 4.39149
threshold=0.61046650717703355 -0.076699999999999977 87.500000000000014 3.5000000000000004 0.34272300469483585 0.59645000000000004 0.40714376375021161
decision_type=2 2 2 8 2 8 2
left_child=1 2 -1 -3 -2 -6 -5
right_child=4 3 -4 6 5 -7 -8
leaf_value=0.0077410386849695815 0.003825024492213031 -0.011727908617633105 -0.0025124822755542421 -0.0062172985626977439 0.0016652266437646999 -0.0104735799508006 -9.0076759000778849e-05
leaf_weight=12.039295637980102 58.175700614228845 10.625509262084959 22.249165970832109 24.104534923098981 16.649474335834388 6.7829144094139329 33.035289833322167
leaf_count=93 384 25 129 273 92 16 353
internal_value=-0.000411841 -0.0025086 0.000995571 -0.00435775 0.00214408 -0.00178348 -0.00280109
internal_weight=183.662 102.054 34.2885 67.7653 81.6081 23.4324 57.1398
internal_count=1365 873 222 651 492 108 626
is_linear=0
shrinkage=0.0106867


Tree=49
num_leaves=8
num_cat=0
split_feature=9 8 12 0 15 14 14
split_gain=16.3434 7.03642 3.81382 3.15202 2.24891 1.98979 1.07157
threshold=0.46992491123795072 0.40288962596036559 43.500000000000007 0.79062500000000013 8.5000000000000018 0.1010920128214174 0.20216214349201375
decision_type=2 2 2 2 10 8 10
left_child=1 4 6 -2 -1 -4 -3
right_child=3 2 5 -5 -6 -7 -8
leaf_value=-0.013413695647070706 0.0036799947451389768 -0.010993063894772247 -0.0010543917400649119 0.014106797060953746 -8.3587391500702677e-05 0.008346711243215333 -0.00050598221214869367
leaf_weight=39.185925019904971 66.771798676811159 12.385718684643509 15.493520826101301 14.262131368741391 6.8199843913316718 14.803395235911013 7.8820059299468985
leaf_count=378 476 60 114 107 85 110 27
internal_value=-0.000667512 -0.00612258 -0.000872772 0.00571063 -0.0116186 0.00327363 -0.00744541
internal_weight=177.604 96.5706 50.5646 81.0339 46.0059 30.2969 20.2677
internal_count=1357 774 311 583 463 224 87
is_linear=0
shrinkage=0.0195203


Tree=50
num_leaves=8
num_cat=0
split_feature=8 6 19 18 0 12 19
split_gain=29.6695 15.5456 5.64427 2.04994 3.35321 1.57716 1.19202
threshold=0.38391206938830297 0.60005000000000019 0.37905000000000005 0.70310000000000017 0.63423734983618496 62.500000000000007 0.5051500000000001
decision_type=2 8 8 8 2 2 8
left_child=5 3 -3 4 -2 -1 -4
right_child=1 2 6 -5 -6 -7 -8
leaf_value=-0.0014190485486333777 -0.0010406711596893904 -0.0016826305709798589 0.0057788454400234243 -0.0023488199608959334 0.0035118940777685635 -0.0057626823486460728 0.0031486746530673066
leaf_weight=6.4643821399658909 31.453691257163882 7.0227884203195563 16.241255606524646 29.148364216089249 7.7566436100751153 34.980600300244987 40.603545499965549
leaf_count=71 149 12 112 258 52 316 357
internal_value=-0.000447211 0.00102593 0.00330996 -0.00106856 -2.14278e-05 -0.00517495 0.00400041
internal_weight=173.671 132.226 63.8676 68.3587 39.2103 41.445 56.8448
internal_count=1327 940 481 459 201 387 469
is_linear=0
shrinkage=0.00644291


Tree=51
num_leaves=8
num_cat=0
split_feature=9 13 6 21 20 6 21
split_gain=18.6375 2.66444 5.20335 4.20867 1.51796 1.99177 1.11889
threshold=0.52593487942999406 -1.0000000180025095e-35 0.60005000000000019 1.0000000180025095e-35 0.68365000000000009 0.60005000000000019 1.5000000000000002
decision_type=2 8 8 10 8 10 10
left_child=1 3 -3 -1 -2 -6 -4
right_child=4 2 6 -5 5 -7 -8
leaf_value=-1.491345319350148e-05 0.011024387011995289 -0.0050758349542232087 -0.00045689567635885301 -0.0066085881038295503 0.0010078874800917949 0.008224892413996647 0.0030428871298490263
leaf_weight=19.750744017772377 12.050273418426512 28.095130966044962 20.941932946443558 41.788386079482734 13.93056681379676 13.036372216418384 27.934659190475941
leaf_count=110 19 216 178 347 142 162 183
internal_value=-0.000375963 -0.00251506 -0.000888466 -0.0044293 0.00698977 0.00480988 0.0014265
internal_weight=177.528 138.511 76.9717 61.5391 39.0172 26.9669 48.8766
internal_count=1357 1034 577 457 323 304 361
is_linear=0
shrinkage=0.0122404


Tree=52
num_leaves=8
num_cat=0
split_feature=0 9 9 19 16 16 13
split_gain=23.3284 9.05485 7.75533 8.27474 3.64449 3.08973 2.66352
threshold=0.50454545454545463 0.42749124244948172 0.4534953400227405 0.49340000000000006 4.5000000000000009 5.5000000000000009 0.11520000000000001
decision_type=2 2 2 8 2 2 8
left_child=1 5 4 -4 -2 -1 -3
right_child=2 6 3 -5 -6 -7 -8
leaf_value=-0.0090954966938186377 0.0023860804774578342 -0.0028297332033473698 0.012223241310087585 0.0031077744594300758 -0.0050895274839658196 -0.0033110007262436526 0.0017393146016971611
leaf_weight=24.807680612429976 20.257895123213533 23.299069441854954 17.230355485342443 30.207030488178134 9.1533695273101312 22.404521433636546 27.701177572831511
leaf_count=186 44 125 93 297 103 279 196
internal_value=-3.92954e-05 -0.00333476 0.00410031 0.00661662 9.92812e-06 -0.00651535 -0.000261393
internal_weight=175.061 98.2124 76.8487 47.4374 29.4113 47.2122 51.0002
internal_count=1323 786 537 390 147 465 321
is_linear=0
shrinkage=0.0101464


Tree=53
num_leaves=8
num_cat=0
split_feature=0 6 21 13 7 6 8
split_gain=10.6003 9.43099 9.57773 6.49686 2.43752 1.92508 1.04549
threshold=0.51470805617147075 0.61270000000000013 1.5000000000000002 0.32890000000000003 0.40231843005154905 0.59342500000000009 0.42749124244948172
decision_type=2 8 10 10 2 8 2
left_child=3 2 -2 4 -1 -6 -3
right_child=1 6 -4 -5 5 -7 -8
leaf_value=-0.0094871392909312499 0.011593228966151718 0.0018216615037692685 -0.0074565233653295943 0.0042621793739642455 -0.0052256770000299298 0.00011854752143018909 0.0087207398969207824
leaf_weight=23.880904864519835 6.3658701237291124 8.6163337714970094 22.337589273229241 15.92140421643853 43.089681107550859 16.608457114547491 35.754410000517964
leaf_count=270 48 39 160 130 274 132 267
internal_value=-0.000708348 0.00338963 -0.00281777 -0.00379254 -0.00543607 -0.00362979 0.00756176
internal_weight=172.575 73.0742 28.7035 99.5004 83.579 59.6981 44.3707
internal_count=1320 514 208 806 676 406 306
is_linear=0
shrinkage=0.0144069


Tree=54
num_leaves=8
num_cat=0
split_feature=8 6 6 13 6 0 6
split_gain=16.747 6.97246 6.41248 2.26363 2.15928 2.06427 0.690324
threshold=0.52593487942999406 0.55545000000000011 0.62547500000000011 0.16999999999999998 0.54915000000000003 0.6097402597402598 0.80015000000000014
decision_type=2 8 8 10 8 2 10
left_child=1 3 -3 -1 5 -2 -4
right_child=4 2 6 -5 -6 -7 -8
leaf_value=-0.0058637170482978805 -0.0022138771264908945 -0.0076688145671699633 0.0016073704385370234 0.0012769747464083934 0.010461821332660394 0.0071036702265399633 0.0054511982434131629
leaf_weight=61.931187535636127 5.5712057892233124 11.793397489935158 44.47073102556169 6.6765680797398081 22.269124897196889 8.1846084762364608 13.009039415046571
leaf_count=498 44 88 313 53 226 48 71
internal_value=0 -0.00211143 0.000730398 -0.00506181 0.00782982 0.00293854 0.00262963
internal_weight=173.906 137.881 69.2732 68.6078 36.0249 13.7558 57.4798
internal_count=1341 1023 472 551 318 92 384
is_linear=0
shrinkage=0.013079


Tree=55
num_leaves=8
num_cat=0
split_feature=9 14 20 14 14 8 10
split_gain=15.9968 7.05042 5.10804 4.77795 3.95472 1.23713 0.516846
threshold=0.40288962596036559 0.15760614715339519 0.46215000000000006 -0.11888161894072675 0.26467553731595878 0.49558983118971062 0.38817418899086825
decision_type=2 8 10 10 8 2 2
left_child=4 2 3 -2 6 -3 -1
right_child=1 5 -4 -5 -6 -7 -8
leaf_value=-0.0052475992970916182 -0.0042847239432907205 0.0036983935881930085 -0.0073597169850645114 0.0041699265394678012 -0.00092016142572001617 0.0090087436964395168 -0.012556178188338665
leaf_weight=7.5252666911110309 19.823190726339817 31.494474580511451 18.068212509155273 38.697827975265682 12.910726758651434 20.007138783112168 22.113316481001675
leaf_count=91 165 196 26 338 120 175 234
internal_value=-0.000600504 0.0018823 -0.000787799 0.00116788 -0.00816833 0.00596115 -0.0110441
internal_weight=170.64 128.091 76.5892 58.521 42.5493 51.5016 29.6386
internal_count=1345 900 529 503 445 371 325
is_linear=0
shrinkage=0.0143078


Tree=56
num_leaves=8
num_cat=0
split_feature=0 16 2 21 9 11 21
split_gain=10.7896 10.8796 9.10821 5.81404 5.41609 7.88989 5.94435
threshold=0.73215000000000019 3.5000000000000004 -0.38762019230769229 2.5000000000000004 0.40856993054173446 0.43215434083601295 5.5000000000000009
decision_type=2 2 2 10 2 2 8
left_child=2 -2 3 -1 5 -4 -6
right_child=1 -3 4 -5 6 -7 -8
leaf_value=0.019232754599128571 0.014382741743252771 -0.0028904333540963642 -0.0031513142172445736 8.2722510361962773e-05 -0.0077941873388362084 -0.018745283445183697 0.0017740600786896319
leaf_weight=6.8578375410288563 22.489175668917596 15.215406157076357 24.981386952102184 9.1377697438001615 25.837210288271308 14.335060118697582 47.206533619202673
leaf_count=14 84 175 376 77 120 52 433
internal_value=-0.000319054 0.00723389 -0.00262314 0.00852042 -0.00431914 -0.00920318 -0.00153427
internal_weight=166.06 37.7046 128.356 15.9956 112.36 39.3164 73.0437
internal_count=1331 259 1072 91 981 428 553
is_linear=0
shrinkage=0.016328


Tree=57
num_leaves=8
num_cat=0
split_feature=22 6 16 5 6 6 6
split_gain=9.28896 6.3032 4.21999 4.47077 3.48979 0.625008 0.566885
threshold=4.5000000000000009 0.55545000000000011 11.500000000000002 40.500000000000007 0.62547500000000011 0.49525000000000002 0.65065000000000006
decision_type=8 10 2 2 10 8 10
left_child=-1 2 3 -2 -3 -4 -6
right_child=1 4 5 -5 6 -7 -8
leaf_value=-0.0088127082218355142 -0.0023713694306887545 -0.00033753973327917955 -0.011010306834196149 0.0078330426920683073 0.0032003050866912211 -0.00013427512419631794 0.010590853242369868
leaf_weight=28.300723791122437 37.729539865627885 14.039085701107977 12.561126630753275 22.034356292337179 8.5802251193672401 2.8551314920187005 37.66157375369221
leaf_count=55 469 112 161 88 55 28 352
internal_value=0.000565698 0.00262117 -0.000815253 0.00127328 0.00703064 -0.00926498 0.00945525
internal_weight=163.762 135.461 75.1802 59.7639 60.2809 15.4163 46.2418
internal_count=1320 1265 746 557 519 189 407
is_linear=0
shrinkage=0.0183548


Tree=58
num_leaves=8
num_cat=0
split_feature=9 8 20 14 20 2 13
split_gain=28.2938 8.34173 7.21493 8.02173 2.82188 2.5457 1.5917
threshold=0.42749124244948172 0.39957924000741291 0.68365000000000009 -0.017321102090918358 0.63595000000000013 0.030499999999999975 0.40410000000000007
decision_type=2 2 8 10 8 2 8
left_child=1 4 -2 -4 -1 -3 -6
right_child=2 5 3 -5 6 -7 -8
leaf_value=-0.0066226146279775673 0.0039415064581186142 0.0014943245654257236 -0.0012013796643949211 0.0024983988141232282 -0.0036957948695284055 -0.003036848029466003 -0.00015204728803595836
leaf_weight=13.091463625431059 36.684721797704697 14.348274091258647 33.893546832725406 40.9613391244784 25.569068600423634 4.8048344813287249 6.948845909908413
leaf_count=29 54 129 296 414 334 18 79
internal_value=0.00010636 -0.00286702 0.00186411 0.000789189 -0.00418943 0.00014817 -0.00303791
internal_weight=176.302 64.7625 111.54 74.8549 45.6094 19.1531 32.5179
internal_count=1353 589 764 710 442 147 413
is_linear=0
shrinkage=0.00571876


Tree=59
num_leaves=8
num_cat=0
split_feature=8 8 14 14 3 3 17
split_gain=13.0044 9.48181 4.31151 3.83187 4.64369 1.80123 1.57564
threshold=0.49459124505762037 0.42749124244948172 0.14682207649348447 0.21268427360420933 0.66668333333333341 0.56620000000000015 0.11767427250742914
decision_type=2 2 8 8 2 2 8
left_child=1 3 -2 4 -1 -4 -3
right_child=2 6 5 -5 -6 -7 -8
leaf_value=-0.0013115006268668225 0.0027027387728867755 0.008066716732474952 0.00018950378618119774 -0.0022716523778896305 -0.014813092458678604 0.014416447714772344 0.000342367261979529
leaf_weight=10.968738562427459 39.740859987214208 8.4281736873090249 3.1139627993106869 25.664976571686566 24.809262357652187 16.456863053143024 40.173032805323601
leaf_count=153 274 38 40 202 229 157 261
internal_value=0 -0.00327693 0.00608392 -0.00750266 -0.0109588 0.0123177 0.00191715
internal_weight=169.356 110.044 59.3117 61.443 35.778 19.5708 48.6012
internal_count=1354 883 471 584 382 197 299
is_linear=0
shrinkage=0.0161859


Tree=60
num_leaves=8
num_cat=0
split_feature=7 6 9 21 3 6 6
split_gain=11.7275 15.8097 12.2861 4.23818 3.21265 4.31107 3.93354
threshold=0.42553292842681917 0.46020000000000005 0.44837457396425567 2.5000000000000004 0.80425531914893622 0.48507500000000003 0.75495000000000012
decision_type=2 8 2 8 2 10 8
left_child=2 3 4 -2 5 -1 -6
right_child=1 -3 -4 -5 6 -7 -8
leaf_value=-0.0030520117654786968 0.00072863786333253076 0.001832774982917929 0.0056109566328289857 -0.003321437632791534 -0.004895160547721285 0.0012969712460554439 -0.00028659861580881279
leaf_weight=14.398061705753209 7.8952601701021186 80.944280230440199 4.2891486287116996 27.560623886063695 27.482702981680632 9.419744933024047 7.7412596289068452
leaf_count=161 20 575 22 201 225 98 50
internal_value=-0.000439718 0.000533769 -0.00225946 -0.0023378 -0.00292747 -0.00123498 -0.00396704
internal_weight=179.731 116.4 63.3309 35.4559 59.0418 23.8178 35.224
internal_count=1352 796 556 221 534 259 275
is_linear=0
shrinkage=0.00526384


Tree=61
num_leaves=8
num_cat=0
split_feature=8 2 6 2 6 19 15
split_gain=16.3489 5.70365 5.44492 3.0902 2.81534 3.97266 1.75707
threshold=0.46992491123795072 -0.11287878787878783 0.62547500000000011 0.12865168539325847 0.50570000000000015 0.4542000000000001 11.500000000000002
decision_type=2 2 10 2 8 8 10
left_child=1 2 -1 4 5 -2 -3
right_child=3 6 -4 -5 -6 -7 -8
leaf_value=-0.0018645222353037411 0.010548546888168951 -0.007608401261883029 0.016761385736749426 1.8644889599177302e-05 0.010906268864031139 -0.0031563754004206371 -4.6941638248120855e-05
leaf_weight=13.856667922809722 9.4277624413371104 65.1104571884498 5.29378793016076 20.656050657853484 34.09795874543488 12.19317460991442 7.8176159579306832
leaf_count=98 29 572 29 116 324 104 84
internal_value=0.000109917 -0.00455602 0.00316237 0.00583585 0.00786678 0.00257079 -0.00671265
internal_weight=168.453 92.0785 19.1505 76.3749 55.7189 21.6209 72.9281
internal_count=1356 783 127 573 457 133 656
is_linear=0
shrinkage=0.0166726


Tree=62
num_leaves=8
num_cat=0
split_feature=9 6 17 19 6 0 15
split_gain=11.7219 11.5583 4.98699 2.49103 2.05701 2.20868 1.95053
threshold=0.55336066405070217 0.65065000000000006 0.34368249773979193 0.55765000000000009 0.78972500000000012 0.60188679245283028 13.000000000000002
decision_type=2 10 10 10 10 2 8
left_child=1 3 -3 -1 5 -2 -7
right_child=4 2 -4 -5 -6 6 -8
leaf_value=-0.0024410064901283419 -0.0011439190985700993 0.002949351090462158 -0.001827835179638024 -0.0048902417284848124 0.0057816111079818308 4.2406899828298523e-05 0.0044057669576808029
leaf_weight=84.540748454630375 8.8786987531930226 21.865537319332361 13.464302456006406 27.35345496237278 5.0433090897276989 9.5316250957548636 9.6898749116808158
leaf_count=658 90 146 98 157 65 103 30
internal_value=-0.00129173 -0.00207592 0.00103101 -0.0030874 0.00207038 0.00120436 0.00245445
internal_weight=180.368 147.224 35.3298 111.894 33.1435 28.1002 19.2215
internal_count=1347 1059 244 815 288 223 133
is_linear=0
shrinkage=0.00640043


Tree=63
num_leaves=8
num_cat=0
split_feature=9 14 11 11 20 18 11
split_gain=29.858 6.64002 5.56259 3.19995 1.63207 1.33006 0.413982
threshold=0.39957924000741291 0.034426552087076519 0.43215434083601295 0.42908181493390501 0.39715000000000006 0.89950000000000008 0.40171841231353128
decision_type=2 8 2 2 8 8 2
left_child=3 2 6 -1 -3 -6 -2
right_child=1 4 -4 -5 5 -7 -8
leaf_value=-0.0035712032693922301 -0.0005332172424706397 -0.00094876956664750726 0.0010830132820898099 -0.0076470086756051294 0.0026527557221574637 1.3039263219017217e-05 -0.0033149545711646665
leaf_weight=27.297786752693355 5.7846553698182133 5.1423541009426117 27.753282638266683 16.75064698047936 60.240582901984453 10.901432492770253 22.270993879064918
leaf_count=366 62 8 56 62 422 145 225
internal_value=-0.000722764 0.000780248 -0.000849918 -0.00525547 0.00201395 0.00228187 -0.0028634
internal_weight=176.142 132.093 55.8089 44.0484 76.2844 71.142 28.0556
internal_count=1346 918 343 428 575 567 287
is_linear=0
shrinkage=0.00639791


Tree=64
num_leaves=8
num_cat=0
split_feature=6 9 21 9 15 1 15
split_gain=11.2239 12.0462 5.47489 2.91171 2.13811 1.88251 1.35107
threshold=0.40040000000000003 0.49099491512749577 12.500000000000002 0.48080125260591505 27.000000000000004 0.24500000000000002 131.50000000000003
decision_type=8 2 8 2 8 2 8
left_child=2 3 5 6 -4 -1 -2
right_child=1 -3 4 -5 -6 -7 -8
leaf_value=-0.00068918578411998643 -0.00035204372674871027 0.0026945466717343083 -0.002154378565442182 0.0031840781698814244 0.0025185697481046329 -0.0047184203649291972 -0.0020738589894688645
leaf_weight=6.9589314591139546 38.097483685240149 54.483261868357658 4.9917615987360451 4.6765072289854279 7.2806809227913627 27.204484943300486 34.956687103956938
leaf_count=50 434 420 69 34 20 265 66
internal_value=-0.000295483 0.00056501 -0.00278608 -0.000897393 0.000359142 -0.00399826 -0.00122426
internal_weight=178.65 132.214 46.4359 77.7307 12.2724 34.1634 73.0542
internal_count=1358 954 404 534 89 315 500
is_linear=0
shrinkage=0.00591006


Tree=65
num_leaves=7
num_cat=0
split_feature=9 14 20 7 20 15
split_gain=23.7341 7.80043 5.82269 2.98673 0.547466 0.102788
threshold=0.38391206938830297 0.20216214349201375 0.38380000000000009 0.61082596463022509 0.74575000000000002 8.5000000000000018
decision_type=2 10 10 2 8 10
left_child=4 2 3 -2 -1 -6
right_child=1 -3 -4 -5 5 -7
leaf_value=-0.01672109718469467 -0.0036229926793581078 0.010310742182212188 0.0064460505814480928 0.0096703176766764279 -0.010705281622472067 -0.0034171377222596945
leaf_weight=13.463130235671995 60.152043354697526 32.137652430683374 32.288047194480896 4.6461787335574618 18.769152240827683 5.1664000637829295
leaf_count=31 595 243 49 61 297 64
internal_value=-0.00047693 0.00298996 0.000436316 -0.00245817 -0.0125516 -0.00958656
internal_weight=166.623 129.224 97.0863 64.7982 37.3987 23.9356
internal_count=1340 948 705 656 392 361
is_linear=0
shrinkage=0.0173113


Tree=66
num_leaves=8
num_cat=0
split_feature=9 20 14 2 21 14 14
split_gain=9.15888 5.75534 4.1563 2.98607 2.733 1.37331 0.585909
threshold=0.49099491512749577 0.7107500000000001 0.045453965702036421 -0.045628124999999992 3.5000000000000004 0.12262081152799427 -0.10074177891718085
decision_type=2 8 10 2 10 10 8
left_child=3 -2 6 4 -1 -6 -3
right_child=1 2 -4 -5 5 -7 -8
leaf_value=0.003638306854046642 0.0074957269351415886 -0.0034557830346243095 0.0045179199909649208 -0.0029559101937699393 -0.0051284718141084047 0.00077063576933674241 -9.0656226143192291e-06
leaf_weight=15.268006563186647 18.562368601560593 11.900575280189512 16.341653586365283 80.5826451247558 7.6050510853528959 4.9709381330758333 11.496001025661828
leaf_count=48 31 96 226 694 72 42 121
internal_value=-0.00021646 0.00294192 0.000624559 -0.00196734 0.000710319 -0.00244793 -0.00193098
internal_weight=166.727 58.3006 39.7382 108.427 27.844 12.576 23.3966
internal_count=1330 474 443 856 162 114 217
is_linear=0
shrinkage=0.0100457


Tree=67
num_leaves=8
num_cat=0
split_feature=9 6 6 20 20 3 14
split_gain=17.1643 4.92062 4.38133 4.63382 3.35453 2.4294 1.3192
threshold=0.43846489675642025 0.55545000000000011 0.6655500000000002 0.45215000000000005 0.68365000000000009 0.56050000000000011 -0.10974477491961411
decision_type=2 10 10 8 8 2 8
left_child=1 5 3 -2 -3 -1 -5
right_child=2 4 -4 6 -6 -7 -8
leaf_value=-0.0039171229429366718 0.0099841252726402575 -0.010261330952120779 0.010054798126919624 -0.0045089156349953224 0.0031496791692037984 -0.015002158433386538 0.001038234663998014
leaf_weight=12.205113902688025 16.271223515272141 8.4989107847213727 28.001049463637173 19.430453298613429 16.595970544964079 26.976041263900697 41.983203845098615
leaf_count=179 24 14 249 135 171 245 313
internal_value=-0.000482698 -0.00786009 0.00393658 0.00156545 -0.0011786 -0.0118584 -0.000592646
internal_weight=169.962 64.276 105.686 77.6849 25.0949 39.1812 61.4137
internal_count=1330 609 721 472 185 424 448
is_linear=0
shrinkage=0.0180907


Tree=68
num_leaves=8
num_cat=0
split_feature=0 9 4 15 9 9 20
split_gain=7.6983 6.59326 6.16646 2.59619 1.94458 0.953861 0.388584
threshold=0.62625000000000008 0.42398099622778085 0.99999991837764424 21.000000000000004 0.4458089018677211 0.50106099447627261 0.7107500000000001
decision_type=2 2 2 8 2 2 8
left_child=1 3 4 -1 -2 -4 -3
right_child=2 6 5 -5 -6 -7 -8
leaf_value=-0.0054958008132181884 0.00071623875144054814 0.001711469886662529 -0.0072635764441816323 -0.016670790072447126 0.012461394739130237 7.6627691179426203e-05 -0.0010359435906237191
leaf_weight=28.231223858892918 7.949919916689395 29.22309011220932 8.0963820256292838 12.061297659762202 25.822915970347822 12.107918959110973 41.758281796239316
leaf_count=419 49 42 58 61 201 80 430
internal_value=-0.000477562 -0.00330493 0.00515487 -0.00922661 0.00999326 -0.00250566 -2.72011e-06
internal_weight=165.251 111.274 53.9771 40.2925 33.7728 20.2043 70.9814
internal_count=1340 952 388 480 250 138 472
is_linear=0
shrinkage=0.0185024


Tree=69
num_leaves=8
num_cat=0
split_feature=9 6 15 14 11 2 2
split_gain=16.8825 19.4247 3.83687 7.00673 2.97255 2.50913 2.03816
threshold=0.48412183676452175 0.61270000000000013 6.5000000000000009 -0.083278320544125636 0.40171841231353128 -0.030678571428571385 -0.013280679785330899
decision_type=2 8 8 10 2 2 2
left_child=1 6 3 -2 -3 -6 -1
right_child=2 4 -4 -5 5 -7 -8
leaf_value=-0.0017413111270641606 -0.003381140091700415 -0.0029129566768176253 0.0037516466996377136 0.0030218018439193165 0.0051442329403285306 0.00096803356335039377 -0.0051606142910693483
leaf_weight=14.047725519165395 11.70071540400386 5.0883478019386521 38.390407195314765 18.863546460866928 8.8611376956105214 30.213280016556382 44.557423770427704
leaf_count=119 118 72 148 248 36 197 405
internal_value=-0.000172791 -0.00189979 0.00234746 0.000450617 0.00137125 0.0020557 -0.00441455
internal_weight=171.723 102.768 68.9547 30.5643 44.1628 39.0744 58.6051
internal_count=1343 829 514 366 305 233 524
is_linear=0
shrinkage=0.00667181


Tree=70
num_leaves=8
num_cat=0
split_feature=16 6 20 19 11 15 15
split_gain=5.93772 6.69283 7.14014 4.30271 3.93588 1.84441 1.43798
threshold=15.500000000000002 0.56981218119299371 0.55785000000000007 0.58255000000000012 0.40171841231353128 8.5000000000000018 27.000000000000004
decision_type=2 8 8 8 2 10 8
left_child=1 2 -1 6 -2 -4 -3
right_child=4 3 5 -5 -6 -7 -8
leaf_value=0.0026384837098241227 -0.016357085767402847 0.0053224858706516281 -0.0048574516808243054 -0.0010123752693643809 -0.0017067038563303902 -1.615954361830919e-05 0.0015471543819208066
leaf_weight=22.287642329931259 3.2038159072399122 29.849658530205488 44.449175560846925 26.385636775754392 5.5851382501423359 11.703355917707084 23.036198637448251
leaf_count=38 37 335 468 221 61 120 58
internal_value=-0.000375858 5.23414e-05 -0.00198896 0.00213536 -0.00813828 -0.00392677 0.00379912
internal_weight=166.501 157.712 78.4402 79.2715 8.78895 56.1525 52.8859
internal_count=1338 1240 626 614 98 588 393
is_linear=0
shrinkage=0.0100551


Tree=71
num_leaves=8
num_cat=0
split_feature=9 6 20 15 17 15 13
split_gain=9.07476 11.2825 2.03503 0.920392 1.34436 0.897338 1.80601
threshold=0.4458089018677211 0.61270000000000013 0.59135000000000015 9.5000000000000018 0.44104789197444921 4.5000000000000009 -0.27234999999999993
decision_type=2 8 8 8 8 10 10
left_child=5 2 -2 4 -3 -1 -7
right_child=1 3 -4 -5 -6 6 -8
leaf_value=-0.0072719374766418198 0.0025391196486214723 0.00299923991419979 -0.005133645884745958 0.01309694796749766 0.017039132643816735 -0.012206990755710769 0.0016594199820547668
leaf_weight=51.483492138795555 16.396656930446625 17.537685280665759 38.2981719058007 24.319566998630762 3.2214306108653536 3.8164983587339547 12.63423217833042
leaf_count=419 23 248 317 86 40 70 153
internal_value=-0.000556084 0.00305141 -0.00264637 0.0101307 0.00600581 -0.00597621 -0.00129226
internal_weight=167.708 99.7735 54.6948 45.0787 20.7591 67.9342 16.4507
internal_count=1356 714 340 374 288 642 223
is_linear=0
shrinkage=0.0191594


Tree=72
num_leaves=8
num_cat=0
split_feature=8 0 8 13 17 15 15
split_gain=11.2292 4.38351 3.39907 2.21705 4.00955 2.8759 1.40677
threshold=0.46481979715787719 0.40238095238095245 0.33702183933328028 0.20145170862712297 0.27664394676685339 131.50000000000003 10.500000000000002
decision_type=2 2 2 8 8 8 8
left_child=2 -2 -1 4 -4 -5 -3
right_child=1 6 3 5 -6 -7 -8
leaf_value=-0.012692885382724067 -0.0020193566770788764 0.0037075165326937464 -0.010032127817146136 0.0059948419180981807 -1.5672170976527012e-05 -0.008123281809139472 0.010091161977982528
leaf_weight=15.324546546675263 22.581010889261961 30.13300740532577 25.415160828270018 14.761753286235036 22.653883274644613 5.7436315305531016 27.587809661403298
leaf_count=207 116 376 161 171 190 14 100
internal_value=-0.000391641 0.00432739 -0.00501362 -0.00308747 -0.00521883 0.0014843 0.00696987
internal_weight=164.201 80.3018 83.899 68.5744 48.069 20.5054 57.7208
internal_count=1335 592 743 536 351 185 476
is_linear=0
shrinkage=0.0179417


Tree=73
num_leaves=8
num_cat=0
split_feature=9 14 21 11 17 8 10
split_gain=20.9777 6.534 4.72472 3.88596 2.02853 2.02236 3.89836
threshold=0.38391206938830297 0.26467553731595878 1.0000000180025095e-35 0.42908181493390501 0.34368249773979193 0.4458089018677211 0.43943685130636234
decision_type=2 8 10 2 10 2 2
left_child=3 5 -3 -1 -4 -2 -7
right_child=1 2 4 -5 -6 6 -8
leaf_value=-0.0029552151222468257 -0.0021039745213372188 1.7178875564310552e-05 0.0063389399451999704 -0.0079331947286705746 0.001110140128590213 -0.0019442238637858295 0.0013812506133431149
leaf_weight=22.069997542537749 20.865547833964229 12.602395793423055 15.808504707179965 14.748756832443176 6.6262310091406098 23.371086688712239 48.643874674104154
leaf_count=323 171 124 78 53 51 148 366
internal_value=-0.000622766 0.000659735 0.00314373 -0.00511333 0.00498353 -0.000252997 0.000247624
internal_weight=164.736 127.918 35.0371 36.8188 22.4347 92.8805 72.015
internal_count=1314 938 253 376 129 685 514
is_linear=0
shrinkage=0.00680193


Tree=74
num_leaves=8
num_cat=0
split_feature=6 8 7 1 16 15 6
split_gain=12.0297 11.6906 9.84976 2.52636 3.40072 1.50093 1.05659
threshold=0.60005000000000019 0.39957924000741291 0.40559447251569442 0.62957317073170749 13.500000000000002 6.5000000000000009 0.37510000000000004
decision_type=8 2 2 2 2 8 10
left_child=1 -1 -3 6 -5 -4 -2
right_child=3 2 5 4 -6 -7 -8
leaf_value=-0.013759081775920067 -0.0021114617847280328 0.018325144245083622 -0.0056236475455200986 0.0097792998997755527 -0.0032100076916663067 -8.6926059191373077e-05 0.0034280933851036466
leaf_weight=23.022983811795712 11.435217323713003 5.7972517721354953 23.591729769483209 31.203980315476656 4.7587999626994124 32.694328807294369 24.32216180395335
leaf_count=287 110 36 262 187 56 116 240
internal_value=-9.97658e-06 -0.00412976 -0.000347295 0.00476172 0.00779403 -0.0025758 0.0014337
internal_weight=156.826 85.1063 62.0833 71.7202 35.9628 56.2861 35.7574
internal_count=1294 701 414 593 243 378 350
is_linear=0
shrinkage=0.016059


Tree=75
num_leaves=7
num_cat=0
split_feature=8 9 14 21 17 13
split_gain=22.9893 5.97839 5.57708 6.30885 5.10627 1.28333
threshold=0.38103225304075977 0.53358923955434279 0.2302197649499704 7.5000000000000009 0.42820154130458837 0.10002083333333334
decision_type=2 2 8 8 10 8
left_child=5 2 3 -2 -4 -1
right_child=1 -3 4 -5 -6 -7
leaf_value=-0.0083555563001988919 -0.0049307083813187012 0.0037099777085486166 0.0036725720172826868 0.00036703297204025286 -0.004570855137992093 -0.0039298037117361483
leaf_weight=22.400915087200701 27.287489028647542 35.836236777715385 31.559134505689144 36.179977914318442 5.5734018962830296 13.877945261076091
leaf_count=227 182 310 191 248 45 148
internal_value=-0.000847972 0.000736099 -0.000294485 -0.00186383 0.00225956 -0.00684268
internal_weight=172.715 136.436 100.6 63.4675 37.1325 36.2789
internal_count=1351 976 666 430 236 375
is_linear=0
shrinkage=0.0085413


Tree=76
num_leaves=8
num_cat=0
split_feature=6 9 17 1 20 0 20
split_gain=14.4776 4.59951 3.37847 2.09 3.79743 1.92642 2.0174
threshold=0.61270000000000013 0.47331820187882229 0.34982137382030493 0.36931818181818188 0.51485000000000014 0.83331666666666682 0.49535000000000001
decision_type=8 2 10 2 8 2 10
left_child=5 2 -2 -3 -5 6 -1
right_child=1 3 -4 4 -6 -7 -8
leaf_value=-0.0058750324717715408 0.0017760785801869074 -0.001513586914674102 -0.0072200073096043852 -0.0044520258416372764 0.010248845760204128 -4.9061532330190037e-05 -0.012494532861507148
leaf_weight=60.806446760892868 27.010777486488223 4.2689739428460625 12.432743083685635 3.3714751005172729 23.295525580644611 7.6829780768603078 16.002450913190842
leaf_count=637 173 28 111 7 276 79 29
internal_value=-0.00260845 0.00223731 -0.000931911 0.00646986 0.0080469 -0.00672143 -0.00742355
internal_weight=154.871 70.3795 39.4435 30.936 26.667 84.4919 76.8089
internal_count=1340 595 284 311 283 745 666
is_linear=0
shrinkage=0.0147314


Tree=77
num_leaves=7
num_cat=0
split_feature=22 8 15 6 22 6
split_gain=10.8472 10.5347 4.90928 4.17166 3.34338 3.73073
threshold=4.5000000000000009 0.42398099622778085 34.000000000000007 0.36060000000000009 12.500000000000002 0.53089160226083409
decision_type=8 2 8 8 10 10
left_child=-1 4 3 -3 -2 -6
right_child=1 2 -4 -5 5 -7
leaf_value=-0.0084512952222350803 -0.010106961474698731 -0.0069580382907386577 0.0071009080126326523 0.0023995697140354209 -0.005829175438817326 0.0035392881953697402
leaf_weight=25.84207159280777 13.281205953098832 9.2433332875370962 35.782539299689233 49.175665145739913 16.693834482692186 11.699122834950684
leaf_count=54 122 99 81 580 281 130
internal_value=-0.000681789 0.000775824 0.0032616 0.000758233 -0.00465259 -0.001748
internal_weight=161.718 135.876 94.2015 58.419 41.6742 28.393
internal_count=1347 1293 760 679 533 411
is_linear=0
shrinkage=0.013222


Tree=78
num_leaves=8
num_cat=0
split_feature=9 16 20 13 13 14 20
split_gain=21.3341 4.31589 3.14638 3.58189 2.70609 0.710511 0.321181
threshold=0.49459124505762037 6.5000000000000009 0.45215000000000005 -0.21154732608033788 0.30794583333333331 -0.27107911916593591 0.78920000000000012
decision_type=2 2 10 8 10 10 8
left_child=2 6 3 -1 -5 -3 -2
right_child=1 5 -4 4 -6 -7 -8
leaf_value=-0.0028139584899056478 0.0041867359647280037 -0.0010017116556832548 -0.0026586562954429654 -0.00064100303578331816 0.0018538418400294646 0.0010481787410312007 0.0023445022480861107
leaf_weight=15.178884400054811 21.747088372707367 3.8193389326334026 27.953911364078522 55.668525293469429 12.497543754056094 16.930325137451291 15.030994744971393
leaf_count=178 34 39 48 527 117 192 194
internal_value=5.37866e-05 0.0025113 -0.00120045 -0.000669008 -0.000136412 0.000542578 0.00353904
internal_weight=168.827 57.5277 111.299 83.345 68.1661 20.7497 36.7781
internal_count=1329 459 870 822 644 231 228
is_linear=0
shrinkage=0.0049728


Tree=79
num_leaves=8
num_cat=0
split_feature=9 6 2 22 6 22 2
split_gain=8.72998 7.22285 5.94117 4.71942 4.03299 2.74798 1.8751
threshold=0.51167956189710628 0.73583037658828399 -0.44229999999999997 3.5000000000000004 0.64000127418860553 2.5000000000000004 0.0131372549019608
decision_type=2 8 2 10 8 8 2
left_child=1 2 -1 -3 6 -4 -2
right_child=4 3 5 -5 -6 -7 -8
leaf_value=0.0029150311084573679 0.001782504031967898 -0.002313214708884982 -0.0072447578368189129 0.0032187426371001835 0.004693726909400728 -0.0027271694522178914 -0.0021369157878147697
leaf_weight=7.9652881100773802 15.425544405356051 11.706297118216751 9.1219074130058271 21.866326738148928 18.182956677861512 75.093084650114179 10.12540586106479
leaf_count=48 108 117 16 110 205 695 51
internal_value=-0.000648598 -0.00164226 -0.00270797 0.00116821 0.00210965 -0.00330161 8.09228e-05
internal_weight=169.487 125.753 92.1803 33.5726 43.7339 84.215 25.551
internal_count=1350 986 759 227 364 711 159
is_linear=0
shrinkage=0.00731243


Tree=80
num_leaves=8
num_cat=0
split_feature=8 13 1 14 21 2 14
split_gain=11.0573 3.01149 2.35754 4.43823 5.28375 4.25801 4.37151
threshold=0.38391206938830297 1.0000000180025095e-35 0.6728772317007613 0.1010920128214174 9.5000000000000018 -0.066200000000000023 -0.10974477491961411
decision_type=2 8 2 10 8 2 8
left_child=1 -1 5 -4 -5 -2 -7
right_child=2 -3 3 4 -6 6 -8
leaf_value=-0.015463632441560808 0.0070616527298236562 -0.00474557632719188 -0.005917412421855936 0.0098788586966237456 -0.0056283957226238007 -0.010873242858882689 0.0019978311105296699
leaf_weight=13.838464561849831 33.465036471374333 20.953484648838639 29.015675945207477 13.670269815251233 8.5645201429724676 8.3109731841832382 30.708963373675942
leaf_count=177 204 215 184 84 58 90 321
internal_value=-0.00133185 -0.00938665 0.000898886 -0.00166447 0.00352438 0.00282435 -0.000644752
internal_weight=158.527 34.7919 123.735 51.2505 22.2348 72.485 39.0199
internal_count=1333 392 941 326 142 615 411
is_linear=0
shrinkage=0.0162982


Tree=81
num_leaves=8
num_cat=0
split_feature=8 13 2 19 19 18 2
split_gain=8.79654 7.44389 7.63303 5.47158 2.22021 1.69443 1.17389
threshold=0.49558983118971062 0.30794583333333331 -0.019778571428571392 0.61690000000000011 0.47045000000000003 0.69580000000000009 -0.32049999999999995
decision_type=2 8 2 10 10 8 2
left_child=1 2 6 -4 5 -3 -1
right_child=-2 4 3 -5 -6 -7 -8
leaf_value=0.013577391084956973 0.0088803269758478999 0.013308507828434481 -0.0080203614626616158 -0.030121256131935049 0.01676304476219688 -0.006022181003598419 4.4654792449005412e-05
leaf_weight=8.2020238712430018 54.182005771435797 3.8983154967427263 55.413015742786229 8.601463779807089 11.018534345552323 7.4852939099073419 9.4987992718815786
leaf_count=71 445 17 522 21 87 111 69
internal_value=0.000580044 -0.0036423 -0.00727476 -0.0114078 0.00888943 4.09651e-05 0.00683218
internal_weight=158.299 104.117 81.7153 64.0145 22.4021 11.3836 17.7008
internal_count=1343 898 683 543 215 128 140
is_linear=0
shrinkage=0.02536


Tree=82
num_leaves=8
num_cat=0
split_feature=9 14 2 3 19 14 3
split_gain=12.3141 6.24149 5.11498 4.78853 4.61664 3.62072 2.35841
threshold=0.4458089018677211 0.16783584747457661 -0.16669999999999996 2.183333333333334 0.44235000000000008 -1.0000000180025095e-35 0.85993717277486914
decision_type=2 8 2 2 8 10 2
left_child=2 4 3 -1 -2 -6 -4
right_child=1 -3 6 -5 5 -7 -8
leaf_value=-0.0018858755245992728 0.0029147939842083712 0.0030406802319921586 -0.0013806639896288854 0.0060073336792812165 -0.0025898656391978715 0.00069796287812070202 -0.0044415276347974748
leaf_weight=7.1570127811282855 13.815836329013107 35.008106212131679 20.119134122505784 4.449401780962944 30.956075815483928 22.152190196327865 37.16641999874264
leaf_count=71 31 254 242 20 226 186 309
internal_value=-0.000540374 0.000855222 -0.0026423 0.000992424 -0.000254213 -0.00116287 -0.00344174
internal_weight=170.824 101.932 68.892 11.6064 66.9241 53.1083 57.2856
internal_count=1339 697 642 91 443 412 551
is_linear=0
shrinkage=0.006437


Tree=83
num_leaves=8
num_cat=0
split_feature=6 8 0 22 20 22 6
split_gain=6.84771 11.1646 3.40465 4.9074 3.38506 3.37384 2.0402
threshold=0.60005000000000019 0.39957924000741291 0.63423734983618496 4.5000000000000009 0.44585000000000008 4.5000000000000009 0.61270000000000013
decision_type=8 2 2 10 8 8 10
left_child=1 -1 3 -2 -3 -6 -4
right_child=2 4 6 -5 5 -7 -8
leaf_value=-0.016613092447686502 -0.0080014246321946612 0.010457918099719354 0.00012044577529539768 0.006793810525177693 -0.017431308262968851 8.3339856582389705e-05 0.013038683349245286
leaf_weight=21.751655074767768 15.770636795088647 12.746299266815184 6.0110931098461178 26.045953443273902 4.8327346295118332 47.492785152047873 25.978575794957578
leaf_count=290 159 18 36 241 9 402 187
internal_value=0.000431691 -0.00355312 0.00525484 0.000934896 0.000747739 -0.00149821 0.0104788
internal_weight=160.63 86.8235 73.8063 41.8166 65.0718 52.3255 31.9897
internal_count=1342 719 623 400 429 411 223
is_linear=0
shrinkage=0.0213762


Tree=84
num_leaves=8
num_cat=0
split_feature=6 9 9 22 9 0 16
split_gain=15.6269 7.74241 5.78742 4.45419 4.32323 2.78151 1.50867
threshold=0.60005000000000019 0.35263335438677085 0.39957924000741291 1.5000000000000002 0.4534953400227405 0.51470805617147075 8.5000000000000018
decision_type=8 2 2 8 2 2 2
left_child=1 -1 -3 -4 5 -2 -6
right_child=4 2 3 -5 6 -7 -8
leaf_value=-0.00546675378430511 -0.0011031907598635345 -0.0048636636007902022 0.0056662560742836363 -0.0004514309864876734 0.004260910182525268 0.0022272390749395704 0.00084834507927178415
leaf_weight=16.562193317338824 18.205135140568018 10.561110289767383 4.4113025665283203 58.563088864088058 31.596130352467299 18.735277259722352 9.1888934969902021
leaf_count=208 195 102 6 416 245 62 112
internal_value=0.000106423 -0.00164515 -0.000710013 -7.89781e-07 0.00217416 0.000512535 0.00358239
internal_weight=167.823 90.0977 73.5355 62.9744 77.7254 36.9404 40.785
internal_count=1346 732 524 422 614 257 357
is_linear=0
shrinkage=0.00626824


Tree=85
num_leaves=8
num_cat=0
split_feature=9 7 15 14 16 20 15
split_gain=17.8176 7.1743 5.83977 4.15906 4.13093 4.93905 1.18274
threshold=0.41391473188954042 0.43266588716749493 29.500000000000004 0.16783584747457661 15.500000000000002 0.33510000000000006 18.500000000000004
decision_type=2 2 8 10 2 8 8
left_child=3 2 -2 -1 5 -3 -5
right_child=1 4 -4 6 -6 -7 -8
leaf_value=-0.0054027086508524553 0.0014206518943449607 -0.0049977528423907017 0.010872652106504918 0.00057057143886159786 -0.0047489038896384927 0.0013395914531296488 -0.0028517757086708325
leaf_weight=31.220851848833263 8.6276262234896386 5.7228239774703979 5.9607052356004724 9.4568171314895171 6.1569283828139296 87.972387667745352 7.5187174677848807
leaf_count=374 103 8 12 96 62 644 25
internal_value=-0.000287629 0.00120198 0.00573089 -0.00387034 0.000478098 0.000885711 -0.000793671
internal_weight=162.637 114.44 14.5883 48.1964 99.8521 93.6952 16.9755
internal_count=1324 829 115 495 714 652 121
is_linear=0
shrinkage=0.00704348


Tree=86
num_leaves=7
num_cat=0
split_feature=6 8 22 8 14 16
split_gain=7.7958 4.48078 3.43287 2.7048 2.24521 5.14842
threshold=0.43010000000000009 0.30428704842065452 3.5000000000000004 0.41988331650725663 -0.10974477491961411 2.5000000000000004
decision_type=8 2 8 2 10 2
left_child=4 -2 -3 -4 5 -1
right_child=1 2 3 -5 -6 -7
leaf_value=0.0039601511770678841 -0.015606198171971926 -0.0047586853699961669 -0.0010072972236071752 0.0074057056690445214 -0.013823250626043976 -0.013052797336336672
leaf_weight=16.226944755762819 5.1147852884605518 17.162669777870178 20.38584010489285 65.353116624988616 18.27093528304249 13.944217748939989
leaf_count=66 61 36 193 568 191 187
internal_value=-0.000703901 0.00240434 0.00348593 0.00528357 -0.00780094 -0.00365162
internal_weight=156.459 108.016 102.902 85.739 48.4421 30.1712
internal_count=1302 858 797 761 444 253
is_linear=0
shrinkage=0.0212961


Tree=87
num_leaves=8
num_cat=0
split_feature=8 13 6 18 20 19 19
split_gain=27.8731 3.01994 8.21069 4.44344 2.89557 1.13783 0.375167
threshold=0.38103225304075977 0.24695 0.6655500000000002 0.69580000000000009 0.35945000000000005 0.47045000000000003 0.55950000000000022
decision_type=2 8 10 10 10 10 10
left_child=-1 2 3 -2 5 -3 -4
right_child=1 4 6 -5 -6 -7 -8
leaf_value=-0.0073003965880028433 0.0021719438031585197 1.1529045822177689e-05 0.0069626432860572865 -0.0023626777432795565 0.0097582277986209085 0.0047836436921011773 0.0029082385925583132
leaf_weight=34.039886109530926 37.147538999095559 9.9529353808611685 18.308202601037923 39.577695964835584 8.4858630895614606 10.224642427638171 8.9787476751953346
leaf_count=372 163 120 164 367 14 115 46
internal_value=0.000267745 0.002268 0.00143789 -0.000104312 0.00504058 0.00264015 0.00585973
internal_weight=166.716 132.676 104.012 76.7252 28.6634 20.1776 27.287
internal_count=1361 989 740 530 249 235 210
is_linear=0
shrinkage=0.00951117


Tree=88
num_leaves=8
num_cat=0
split_feature=8 16 17 10 22 10 17
split_gain=17.933 4.58622 3.39554 2.69584 6.0011 3.33431 2.0916
threshold=0.46481979715787719 6.5000000000000009 0.33440843224525457 0.61655533102397042 12.500000000000002 0.73396054655663845 0.23309379070997241
decision_type=2 2 10 2 8 2 8
left_child=3 2 6 4 -1 -5 -2
right_child=1 -3 -4 5 -6 -7 -8
leaf_value=-0.0048868506610693623 0.0051404462205070899 -1.2605967550487508e-05 5.28459631077151e-05 -0.002639066162317225 -0.0011073635899686977 0.0027599297510672951 0.0020279920249885088
leaf_weight=26.052812971174717 22.486406650394201 28.196147847920656 14.002098713070152 7.1674355491995803 47.826759984716773 8.618989445269106 21.014487229287624
leaf_count=56 101 308 97 31 637 36 99
internal_value=-7.73328e-05 0.00191036 0.00290168 -0.00201131 -0.00250576 0.000105775 0.00374397
internal_weight=175.365 85.6991 57.503 89.666 73.8796 15.7864 43.5009
internal_count=1365 605 297 760 693 67 200
is_linear=0
shrinkage=0.00615456


Tree=89
num_leaves=8
num_cat=0
split_feature=9 6 9 20 14 1 10
split_gain=30.0997 13.0917 3.04817 3.68114 2.8114 3.11918 4.09183
threshold=0.41988331650725663 0.59342500000000009 0.48080125260591505 0.68365000000000009 0.084728972058868937 0.87142857142857155 0.49824437123472498
decision_type=2 8 2 8 10 2 2
left_child=4 2 -2 -4 -1 6 -6
right_child=1 -3 3 -5 5 -7 -8
leaf_value=-0.0038167220904123758 -0.0016132574119922089 0.0024914355012529777 0.0027235918938807884 -0.00041853495842739547 -0.00061646064955222623 0.0011663962730222026 -0.0049012767199351935
leaf_weight=30.404101593419909 23.970638876780868 61.285688067786396 9.2044215798377973 25.046279544010758 13.00785974413157 5.0077366083860388 7.4215006567537776
leaf_count=319 160 453 13 208 141 27 19
internal_value=-0.000173269 0.00106693 -0.000401826 0.000391216 -0.00285099 -0.00156748 -0.00235889
internal_weight=175.348 119.507 58.2213 34.2507 55.8412 25.4371 20.4294
internal_count=1340 834 381 221 506 187 160
is_linear=0
shrinkage=0.00442907


Tree=90
num_leaves=8
num_cat=0
split_feature=8 6 4 22 6 4 8
split_gain=22.1451 10.4231 8.51633 5.80123 4.05142 2.16458 1.92272
threshold=0.41988331650725663 0.6655500000000002 0.9999998661391688 12.500000000000002 0.67535000000000012 0.99999994697811989 0.39957924000741291
decision_type=2 8 2 10 10 2 2
left_child=4 2 3 -2 6 -4 -1
right_child=1 -3 5 -5 -6 -7 -8
leaf_value=-0.0038171334927376726 0.004041096247581916 0.0031494827010108612 -0.0038728123566519092 4.8219038913794472e-06 -1.2582489048978852e-05 -0.00083085468980313476 -0.00042453072006406946
leaf_weight=35.073578179813921 13.983187263831494 41.498483837582171 9.2653707358986157 21.586150558665395 10.887672387063501 21.156719665974379 6.5337346345186225
leaf_count=364 45 331 48 233 79 111 70
internal_value=-3.29303e-05 0.0012319 1.30636e-06 0.00163463 -0.00265491 -0.00188343 -0.00335039
internal_weight=159.985 107.49 65.9914 35.5693 52.495 30.4221 41.6073
internal_count=1281 768 437 278 513 159 434
is_linear=0
shrinkage=0.00493037


Tree=91
num_leaves=8
num_cat=0
split_feature=8 14 14 5 20 21 20
split_gain=9.20399 4.95121 3.77279 4.81658 3.92395 2.39582 2.05399
threshold=0.41391473188954042 0.28129267693721072 0.14682207649348447 61.500000000000007 0.74575000000000002 2.5000000000000004 0.7107500000000001
decision_type=2 10 8 2 8 10 8
left_child=1 6 5 4 -4 -2 -1
right_child=2 -3 3 -5 -6 -7 -8
leaf_value=-0.026552187976703771 0.0036314303511685696 0.0030365525755936379 0.030072539134412792 -0.0016290409506073682 0.0080169281327622469 -0.0056023593397478092 -0.010319377893549073
leaf_weight=8.0828046798706037 34.150068900547922 10.992525370791553 7.2286511659622192 16.155058268457651 21.668666357174519 31.783929323777556 25.312515866011381
leaf_count=24 152 78 13 65 288 297 395
internal_value=-0.000763168 -0.0102137 0.0029381 0.00839692 0.0143748 -0.00064054 -0.0149472
internal_weight=155.374 44.3878 110.986 45.0524 28.8973 65.934 33.3953
internal_count=1312 497 815 366 301 449 419
is_linear=0
shrinkage=0.0245938


Tree=92
num_leaves=8
num_cat=0
split_feature=6 9 9 17 17 15 15
split_gain=5.30674 5.8873 2.63396 4.53985 5.37464 1.97909 0.857581
threshold=0.58020000000000016 0.40288962596036559 0.55889902774047018 0.50129026174545299 0.42820154130458837 8.5000000000000018 29.500000000000004
decision_type=8 2 2 8 8 10 8
left_child=1 5 3 4 -2 -1 -3
right_child=2 6 -4 -5 -6 -7 -8
leaf_value=-0.017069165089853865 0.00062404250708361132 -0.0037253929663086729 0.0096146264220601206 0.016233355591507619 -0.018882601199750378 -0.00016215820191569719 0.0012933340343283929
leaf_weight=18.899498107843105 48.854892480187118 32.010897548869252 17.493379840627313 6.5770445726811877 6.5681679667904964 3.3772286996245375 24.571443980559707
leaf_count=244 344 346 194 60 57 47 50
internal_value=-0.00132799 -0.00526326 0.00245148 0.000198061 -0.00166364 -0.0144321 -0.00137089
internal_weight=158.353 78.8591 79.4935 62.0001 55.4231 22.2767 56.5823
internal_count=1342 687 655 461 401 291 396
is_linear=0
shrinkage=0.0212776


Tree=93
num_leaves=8
num_cat=0
split_feature=9 6 17 15 19 8 14
split_gain=3.69336 9.93366 4.25874 3.99226 2.55302 1.75858 1.05009
threshold=0.30428704842065452 0.70027500000000009 0.40337762236595159 4.5000000000000009 0.55765000000000009 0.53358923955434279 0.4277992580381193
decision_type=2 8 10 10 10 2 10
left_child=-1 3 6 4 -2 -5 -3
right_child=1 2 -4 5 -6 -7 -8
leaf_value=-0.011914675664803928 -0.0026568051446213478 0.011567520078861877 -0.0025407443726250868 7.8297204107335711e-06 -0.010461199162907895 0.011672924664471809 0.00015119412229130876
leaf_weight=8.6026142081245762 54.282150303944945 31.734792272560298 9.8302018437534553 18.740494006313387 22.52065552957356 5.8747495897114268 4.028520841151475
leaf_count=149 373 285 96 214 143 59 18
internal_value=-0.000457342 0.000192531 0.00741692 -0.00298643 -0.00511971 0.00324933 0.0104324
internal_weight=155.614 147.012 45.5935 101.418 76.8028 24.6152 35.7633
internal_count=1337 1188 399 789 516 273 303
is_linear=0
shrinkage=0.018628


Tree=94
num_leaves=8
num_cat=0
split_feature=8 20 20 14 17 18 14
split_gain=10.3947 3.67883 3.49151 3.29068 1.52495 0.136414 0.129555
threshold=0.42749124244948172 0.70710000000000017 0.70925000000000016 0.17964012412240674 0.06194685027003289 0.46900000000000003 -0.24791275245360736
decision_type=2 8 8 10 10 10 10
left_child=2 -2 -1 4 -3 -5 -4
right_child=1 3 6 5 -6 -7 -8
leaf_value=-0.01626945120442835 0.007685834638995798 0.0077985442332987381 -0.0086086632307102937 0.00011773707467647341 -0.0038322116207234287 0.0086332054737882705 -0.0032306195078271745
leaf_weight=16.091678753495216 33.789892107248306 3.821982465684413 5.4877117611467829 2.5440343338996163 47.711746118962765 12.523620538413523 29.30975295510143
leaf_count=38 54 36 89 38 472 153 440
internal_value=-0.00122125 0.00240465 -0.00851698 -0.000163826 -0.00269989 0.00765291 -0.00447806
internal_weight=151.28 100.391 50.8891 66.6014 51.5337 15.0677 34.7975
internal_count=1320 753 567 699 508 191 529
is_linear=0
shrinkage=0.0198431


Tree=95
num_leaves=8
num_cat=0
split_feature=0 20 16 1 21 16 20
split_gain=4.40052 4.13188 2.95268 2.60592 5.10218 1.46601 1.24969
threshold=0.66668333333333341 0.55785000000000007 14.500000000000002 0.60254777070063692 3.5000000000000004 12.500000000000002 0.33510000000000006
decision_type=2 10 2 2 10 2 10
left_child=1 3 6 4 -1 -5 -2
right_child=2 -3 -4 5 -6 -7 -8
leaf_value=-0.0060408812233326004 0.0035269523891114105 -0.010635259973409765 -0.0055145153749680195 0.0094422158533554509 0.0039593898369620836 -0.00064554904344623102 0.011284300067006351
leaf_weight=40.606108340900391 20.770586463622749 14.353177607059477 5.9705330356955519 14.024525106884541 31.802687080577016 5.2716525830328456 19.177330076694489
leaf_count=346 237 27 73 98 464 59 33
internal_value=0.000690946 -0.00136621 0.00560704 3.4819e-05 -0.00151969 0.00623139 0.00757521
internal_weight=151.977 106.058 45.9184 91.705 72.4088 19.2962 39.9479
internal_count=1337 994 343 967 810 157 270
is_linear=0
shrinkage=0.0190021


Tree=96
num_leaves=5
num_cat=0
split_feature=6 10 15 19
split_gain=8.73402 3.31638 1.13384 1.0844
threshold=0.64000127418860553 0.68404893298678571 1.5000000000000002 0.68045000000000011
decision_type=8 2 8 8
left_child=1 3 -2 -1
right_child=2 -3 -4 -5
leaf_value=-0.0015673251796125779 2.3614985786312705e-05 -0.014145381185516346 0.0058165277591174227 -0.0086030157721777613
leaf_weight=76.253940057940781 12.162327108904718 8.4519546460360271 55.97435890417546 8.1828284151852113
leaf_count=649 151 62 410 71
internal_value=-3.3899e-05 -0.00364365 0.00474661 -0.00240589
internal_weight=161.025 92.8887 68.1367 84.4368
internal_count=1343 782 561 720
is_linear=0
shrinkage=0.0178742


Tree=97
num_leaves=8
num_cat=0
split_feature=8 9 12 8 2 18 13
split_gain=7.23543 5.18256 3.07793 2.69615 2.11728 2.57998 1.73065
threshold=0.43362305734190792 0.40856993054173446 61.500000000000007 0.51167956189710628 -0.32049999999999995 0.76795000000000013 -0.031599999999999955
decision_type=2 2 2 2 2 8 10
left_child=1 2 -1 -2 -3 -6 -4
right_child=3 4 6 -5 5 -7 -8
leaf_value=-1.3673693254605026e-05 -1.1172718619978434e-05 0.0036830572278304047 -0.0048410359582937452 0.0016100221126797943 -0.0018040463557261477 0.0030293785271418758 -0.0020228352673680805
leaf_weight=8.6180602367967349 62.200320228002965 4.2054403647780445 13.125828785821794 44.517477589659393 9.0480058379471267 3.5112268161028632 21.867033876478672
leaf_count=83 392 18 192 364 74 30 205
internal_value=-0.000147099 -0.00158298 -0.00252963 0.000645073 0.00072243 -0.000176992 -0.0032059
internal_weight=167.093 60.3756 43.6109 106.718 16.7647 12.5592 34.9929
internal_count=1358 602 480 756 122 104 397
is_linear=0
shrinkage=0.00517643


Tree=98
num_leaves=8
num_cat=0
split_feature=21 8 13 20 8 20 15
split_gain=4.98069 7.53974 4.31949 5.15037 3.76671 2.82157 2.42874
